#include "nn.h"


int num_hidden_layers = 2;
int width_hidden_layers = 200;

double hidden_layer_weights[][LAYER_WIDTH_PLACEHOLDER] = {
{-0.032867864, -0.015226638, 0.015798572, -0.02054654, -0.009816743, -0.00438689, 0.0015420077, 0.044910993, 0.030549377, 0.031916454, 0.020381333, 0.051837657, 0.012350714, 0.03997858, -0.014166861, 0.011479997, -0.00905118, 0.043576576, 0.02232405, 0.0014236808, 0.023880541, 0.015615442, 0.05183668, 0.056422938, 0.0027570983, 0.021351498, -0.029005853, 0.0049316324, -0.02596249, 0.03195331, -0.038832653, -0.013555452, 0.01641262, -0.016642064, 0.043232843, 0.0039311834, 0.060676567, -0.0015449995, 0.02466478, -0.00880947, -0.03340991, -0.039728157, -0.023793777, -0.015227003, 0.011372034, -0.045476276, 0.009885662, -0.045906883, -0.022396624, 0.03115761, 0.01666519, 0.012131747, 0.0024522296, 0.043496337, 0.017373078, -0.021789096, -0.019729245, 0.028960368, 0.008773625, -0.012729377, 0.018355086, 0.029150223, 0.013347094, 0.009016749, 0.020229317, 0.019201165, -0.02280979, -0.048382953, -0.060563464, -0.060695507, -0.051465146, -0.07521005, -0.03241183, -0.049590915, -0.05094427, -0.038019136, -0.03292535, -0.01870032, 0.002798426, -0.00649036, 0.02295188, 0.00837598, 0.044899978, 0.02232097, -0.010788871, 0.0025923194, -0.03739839, -0.027854612, 0.0049382476, -0.03819022, -0.054256536, -0.021099405, 0.009070548, 0.012124321, -0.047519725, -0.0058225654, -0.05554815, -0.017748663, -0.017664451, 0.017546114, -0.028433135, -0.0038814386, 0.018150557, 0.045688722, 0.016125076, 0.030764932, 0.035828955, 0.00504012, 0.02419309, 0.014521093, 0.038323607, 0.0037215175, 0.004064308, -0.013589338, -0.037664495, -0.046199832, -0.029314991, -0.051237192, -0.03339032, -0.029172612, -0.0009805372, -0.03433484, -0.022634417, 0.021382455, -0.029585073, -0.004369404, 0.025438216, -0.009244197, -0.020165196, -0.0061373003, 0.06292525, 0.073412724, 0.08083069, 0.06904687, 0.031813156, 0.04848738, 0.07031316, -0.007072676, 0.03593146, 0.057741594, -0.006006341, -0.022413036, -0.04800849, -0.04360029, -0.0405713, -0.06771364, -0.022630908, 0.019906616, 0.015948571, 0.027877947, 0.030958597, 0.036994416, 0.019606804, 0.02492729, 0.01844757, 0.042151026, 0.025957508, 0.061088536, 0.105787575, 0.06982492, 0.045063365, 0.09390963, 0.044575363, 0.05496796, 0.036879923, 0.049328417, 0.081199385, 0.043676656, 0.0005461866, 0.02649016, 0.0009880138, -0.00545688, -0.08121486, -0.043885443, -0.046812337, -0.0009599506, 0.012849155, 0.039275214, 0.028932532, 0.025364306, 0.044879742, 0.0388638, 0.05666946, 0.038562212, 0.06116563, 0.08109628, 0.09811134, 0.043168683, 0.065783955, 0.028929805, 0.042041518, 0.046630763, 0.033355724, -0.024020739, 0.03676597, 0.043314192, 0.010110236, 0.017711738, -0.018936103, -0.044560187, -0.067146316, -0.03257658, -0.005519038, 0.0267598, 0.011806907, 0.061956603, 0.05225451, 0.039469525, 0.028001932, 0.04475493, 0.06285408, 0.049766835, 0.08225406, 0.06597769, 0.031807452, 0.07569316, 0.002861867, 0.024694983, -0.045059685, -0.09225773, -0.06133091, -0.0526364, -0.06281319, -0.028335355, 0.037711773, -0.03695598, -0.029461378, -0.0137998, -0.011173891, -0.08944252, -0.005773579, -0.0045633777, 0.0452461, -0.010828931, 0.014689923, 0.009523021, 0.030184997, 0.030363882, 0.036266565, 0.054226983, 0.024068687, 0.00071896723, -0.049695563, -0.07594494, -0.12002243, -0.13470335, -0.12119059, -0.15070835, -0.16988017, -0.16232657, -0.08888224, -0.0019045555, 0.024537599, -0.0041290717, 0.009541178, -0.022799416, -0.02180332, -0.06384856, -0.03682352, -0.024823954, 0.022416694, -0.010641667, 0.008605525, -0.0376494, -0.03674124, -0.041106623, -0.04887229, -0.08042684, -0.083022654, -0.14043501, -0.16797484, -0.22188376, -0.27348852, -0.30137515, -0.2573591, -0.27043578, -0.1677186, -0.15076059, -0.124273494, -0.0322657, 0.032060277, -0.02617592, -0.065569684, -0.022429591, -0.057488494, -0.020476222, -0.01397873, -0.0028336672, 0.04086766, -0.0063865203, 0.016303832, -0.024674833, -0.06067517, -0.06810907, -0.0969182, -0.103954, -0.1316745, -0.14194311, -0.16165455, -0.17565766, -0.16854353, -0.16296217, -0.11733968, -0.1188656, -0.10288376, -0.038269695, -0.09777275, -0.0065854886, 0.045538522, 0.016172493, -0.011400241, -0.005395322, -0.013248447, -0.006865634, 0.026078032, -0.012551658, 0.044922646, 0.026287876, 0.027932324, -0.033841874, -0.03478488, -0.041274697, -0.01479844, -0.010090752, 0.006628485, 0.019130904, 0.029061254, 0.010251864, 0.027502198, 0.061054047, 0.061668795, 0.04365703, 0.08930343, 0.013484879, 0.0074322945, 0.056239095, -0.026088627, 0.034328382, -0.038177997, 0.045321885, 0.029121641, -0.012074327, 0.045955904, 0.0237429, 0.028107682, 0.050052676, 0.015965022, 0.026217496, 0.013748871, 0.036156714, 0.06339783, 0.095746785, 0.103662744, 0.12888768, 0.14832014, 0.15541005, 0.17065652, 0.17762607, 0.12677588, 0.1575461, 0.12657326, 0.114819, 0.033357576, 0.014642991, 0.017491853, 0.024065912, -0.011101939, 0.037855495, 0.055197082, 0.04552209, 0.0020336744, 0.0341429, 0.05831293, 0.032526065, 0.043446153, 0.029163253, 0.027819086, 0.06730505, 0.07731858, 0.112742856, 0.13870324, 0.10898931, 0.11222967, 0.13348755, 0.1399212, 0.13128775, 0.17561944, 0.16482486, 0.12827027, 0.13120574, 0.081958696, 0.081376016, -0.0054631974, -0.014707392, -0.005265925, 0.030562267, -0.004322235, 0.06711306, -0.007355853, 0.0019504802, -0.018981699, -0.005852902, 0.026665317, 0.036522917, 0.028652284, 0.054289076, 0.038917292, 0.0763509, 0.07839442, 0.070113026, 0.030031318, 0.013262745, 0.029588811, 0.026963545, 0.07178058, 0.093243286, 0.10510179, 0.07779303, 0.0681315, 0.050128005, -0.01575746, -0.047116064, 0.011268999, 0.0704477, 0.020030495, 0.022581013, 0.05356671, 0.009501126, -0.031839784, -0.010380947, 0.004682614, 0.00656645, 0.015899936, 0.012752525, 0.021424927, 0.014810845, 0.011217746, 0.012517765, 0.010866763, -0.00066611276, -0.01698868, 0.025999205, 0.046789173, 0.05758427, 0.026210021, 0.041381102, 0.046757985, 0.060893517, 0.030525852, -0.042348716, 0.013093433, 0.0045558126, 0.05427227, 0.028116131, 0.05042828, -0.0021157174, 0.004240497, 0.02578818, 0.004546604, 0.020219596, 0.0064261067, 0.025430694, 0.033803158, -0.008860654, 0.00740657, -0.0050992104, -0.012910032, 0.011053379, -0.0051254733, -0.036487646, -0.02651159, -0.008492817, -0.0043650633, 0.007857644, 0.027595814, 0.027886815, -0.02477354, -0.00946279, 0.016617334, 0.04330439, 0.026847325, 0.028533654, -0.0029698564, 0.019808242, -0.008409632, 0.021368321, 0.02243668, -0.03334473, -0.009374527, -0.038998954, -0.06462451, -0.056191787, -0.011968338, -0.049532272, 0.0020403187, -0.040787265, -0.022473428, -0.015192443, -0.05747953, -0.07441823, -0.053097203, -0.02981596, -0.037218787, 0.011466208, -0.026287152, 0.00042797762, -0.00097111374, -0.028445624, 0.023526458, -0.0020965254, -0.02600392, 0.010739844, 0.0027744898, 0.000120509976, 0.017767007, -0.0035231865, -0.0245406, -0.012421151, -0.030331658, -0.04681237, -0.052595984, -0.049950276, -0.056405064, -0.05361506, -0.069889456, -0.09488746, -0.081450604, -0.11625135, -0.08788336, -0.046309877, -0.022255179, 0.010492632, 0.0044598607, -0.008173389, -0.022993471, -0.006596272, -0.05866906, -0.036428627, -0.03737253, -0.0031079694, -0.0038243057, -0.014305629, -0.018823313, -0.03026764, -0.026287729, -0.040256504, -0.031811018, -0.040807623, -0.02821398, -0.047461815, -0.055541832, -0.05382713, -0.0765985, -0.09494058, -0.07234669, -0.08460064, -0.124182284, -0.10109024, -0.03356804, 0.024514409, 0.0017681172, -0.048004363, -0.038866367, -0.027042348, -0.046068523, -0.04805007, -0.04725477, -0.02600739, -0.035150014, -0.016512753, -0.02601882, -0.034723427, -0.03369094, -0.026280725, -0.022658046, -0.0048417402, -0.019805487, -0.036556873, -0.03676175, -0.03642817, -0.10058111, -0.10350485, -0.09797887, -0.12375956, -0.110414095, -0.10853392, -0.059629433, -0.035066254, 0.010958985, -0.040276922, -0.06888604, -0.048531894, -0.041073617, -0.031873703, -0.024605853, -0.054629043, -0.04066239, -0.04467883, -0.033663902, -0.033999346, -0.034185328, -0.012073863, -0.010050757, -0.025794795, -0.007597736, -0.019518713, -0.027426213, -0.035694975, -0.04499546, -0.04369599, -0.05384324, -0.10140125, -0.100697406, -0.056715403, -0.017949127, -0.0018912044, -0.009521684, 0.0014595755, -0.03768374, -0.020751055, -0.084973104, -0.06515084, -0.045183413, -0.023391988, -0.05916866, -0.065389685, -0.024055725, 0.005133918, 0.012103351, -0.007496105, -0.005826256, -0.02385987, 0.021078672, -0.035466854, -0.02765685, -0.03243198, -0.023616299, -0.044964615, -0.036602736, -0.06993809, -0.0420752, -0.04834135, 0.002763323, -0.040823456, -0.031184815, -0.00625826, -0.057913642, -0.044693578, -0.03457859, -0.057795003, -0.027082685, -0.024977097, -0.05316894, -0.01655869, -0.028143093, 0.011343412, -0.015957776, 0.013757729, -0.0049593714, 0.020805199, -0.0058277682, 0.032285668, 0.03225606, 0.036981557, 0.04510317, 0.018296877, 0.015400777, -0.013884233, -0.02750329, -0.019252487, 0.026780438, 0.00025143754, 0.0061378535, -0.0040969714, 0.011524221, -0.031063946, -0.038285654, -0.027639609, -0.07731479, -2.3384438e-05, -0.03522721, -0.028704429, 0.030758942, 0.06542271, 0.015421359, 0.018475333, -0.0064495895, 0.021914123, 0.034834106, 0.063213296, 0.017171234, 0.05772375, 0.08449339, 0.04591641, 0.08438781, 0.06714323, 0.012074402, 0.011155096, 0.0034897213, -0.031313613, 0.015902696, 0.008208264, 0.021247432, 0.014205074, 0.04368261, -0.026222667, -0.0160247, -0.014294917, 0.04319539, 0.04969726, 0.016879117, 0.021148236, 0.04174986, 0.035053264, 0.021182347, 0.030160343, -0.004757955, 0.05387614, 0.104594044, 0.080845304, 0.102918416, 0.05035969, 0.027935032, 0.06943918, 0.065435894, 0.036463413, -0.030099086, -0.022632768, 0.024057608, 0.020736212, 0.024582423, 0.008036288, -0.022524115, 0.05855577, 0.014470843, 0.019651318, 0.0010791697, 0.046298295, 0.04350169, 0.057846285, 0.025157748, 0.05060309, -0.0023789639, -0.0033967101, 0.006622757, 0.05898264, 0.06389146, 0.06786643, 0.100871824, 0.064057454, 0.032423887, 0.021367522, -3.96722e-05, -0.040198494, -0.018099602, 0.003311508, 0.020526366, 0.026059384, 0.03345787, -0.01700136, 0.020302232, -0.017186856, -0.004205115, 0.039003756, -0.0015998298, 0.047351167, 0.057476733, 0.02515001, 0.0536143, 0.040441524, 0.048401147, 0.002594418, 0.046029963, 0.042583544, 0.082894884, 0.02753006, 0.07092412, 0.07742956, 0.02109936, 0.009923783, -0.013898202, -0.032023203, -0.02236973, -0.024026446, 0.012990765, -0.007063249, 0.01304182, -0.029713687, -0.017924188, -0.019387463, -0.0008093213, 0.0006442196, -0.004796464, -0.01872461, -0.0054913205, 0.021006858, 0.04447052, 0.06579672, 0.06834406, 0.008635551, 0.016161313, 0.0053899176, -0.0100953635, 0.02037295, 0.03310081, -0.0037007607, 0.015635736, 0.027189214, -0.0035236606, 0.01252411, -0.0056170644, 0.008029524, 0.017476577, 0.0157579, 0.008531123, 0.027838606, 0.005307661, -0.0033830237, 0.04574161, 0.0056311837, 0.028981011, -0.0010977014, 0.06516557, 0.03675802, 0.019429795, -0.025146708, 0.021657238, 0.0488676, -0.00926793, 0.014165733, -0.016761258, -0.0015740468, 0.023038356, 0.03933625, 0.022549056, 0.036576685, 0.05226874, 0.03134845, -0.00022735808, -0.0017432339, -0.010761717, -0.008116911, -0.024058085, 0.02520489, 0.0031129871, 0.0038892364, 0.042011287, 0.00646044, 0.011111471, 0.03154848, -0.038985323, -0.009697665, 0.012240142, -0.043826964, -0.0023329982, 0.028456775, 0.011419054, 0.017958606, -0.016769696, 0.016586775, -0.013800308, -0.015294562, 0.051419925, 0.033936907, 0.039042667, -0.031430043, 0.032680005, 0.043529697, 0.029061865, 0.034891788, 0.013318645, 0.014296145, 0.00985583, -0.0024447874, -0.0037805121, 0.004461806, -0.024204055, 0.0014069974, 0.011838187, -0.0340715, -0.025845515, 0.018771917, -0.025281938, -0.008037978, 0.0018932301, -0.0017837823, 0.00032898298, 0.019928731, 0.004528494, -0.04000222, -0.0042777397, 0.038002364, -0.0434826, -0.048746113, -0.015824657, 0.0470088, 0.011844812, -0.007151252, -0.01259312, 0.06551509, 0.06515713, 0.024607176, -0.048245102, -0.02201149, -0.044512626, -0.034965374, 0.012834753, -0.0028936113, -0.020057572, -0.010802847, 0.025223373, -0.0140521815, 0.044628832, -0.005454159, 0.011694959, 0.0007940042, 0.0118448725, 0.022374442, 0.0064352057, 0.0022659895, 0.020088429, -0.045451064, -0.013135115, 0.014209562, -0.025264243, -0.013915038, 0.031606052, 0.019899255, 0.0056813094, 0.008481969, 0.0019910987, -0.0070616486, -0.017798547, -0.0036436566, -0.02013251, -0.0025299855, -0.037827495, -0.000859931, -0.021197623, 0.0051286514, -0.01134225, 0.0115874, -0.0007226435, -0.0199176, 0.021401279, 0.011303309, 0.0142005645, -0.005376279, 0.0054558367, -0.017250555, 0.009534583, 0.0205873, -0.009917813, 0.05740493, 0.0137533415, -0.009643225, 0.0016550676, 0.036620796, -0.020992406, 0.012448392, 0.0030366508, -0.008077635, -0.002241655, 0.013459395, -0.009211949, -0.0076850164, 0.0059403325, 0.0021841163, -0.029207421, 0.013816989, 0.012017758, 0.0076868404, -0.010745602, -0.003478778, -0.02043682, 0.018741824, 0.011050662, 0.03187341, -0.0015655535, -0.00019393953, -0.008808763, 0.028157098, 0.016167613, 0.032610815, 0.004919352, -0.00083947, 0.021403806, 0.012055382, 0.009448541, -0.0028283438, -0.0020290345, -0.035829786, -0.0020797332, -0.002168382, -0.022270663, -0.012409069, 0.01018766, -0.007891808, 0.0003493515, 0.0058351415, 0.01605777, 0.00898104, 0.010056185, 0.0050681373, 0.0012736089, -0.019758621, 0.012421808, 0.0030297167, 0.03070426, -0.0021373115, 0.038924526, -0.013770555, -0.037204348, -0.02962491, -0.031140676, -0.014648188, -0.018961642, -0.0014787134, 0.005492853, -0.019506818, -0.013619948, -0.012382673, 0.00022267712, 0.003031421, 0.0057479553, 0.0203623, 0.026790615, -0.008876428, 0.005111335, 0.004127265, -0.051547963, -0.0073631792, -0.0015478948, 0.005941924, 0.0066095893, 0.025588349, -0.010004447, -0.006934767, -0.014029528, -0.011138815, 0.019776253, -0.027238399, -0.020779584, -0.010813524, -0.022945961, -0.006624368, 0.0183548, 0.023409221, 0.008770037, 0.002888106, -0.007964248, 0.003935955, 0.012356721, -0.0096480725, 0.004726627, 0.0021944258, -0.009886728, -0.02506239, -0.0072849784, 0.0028240327, -0.044653703, -0.021840656, 0.006508465, 0.010205737, -0.014707941, 0.010611514, 0.0004462948, -0.019383874, 0.0072090775, -0.047110375, -0.042895306, 0.009769242, 0.021993382, 0.013603946, -0.014652846, -0.017445259, -0.0037107691, -0.018103404, -0.013643949, -0.023028824, -0.009220167, 0.00010194617, 0.010363257, 0.014495588, -0.009129135, -0.01492121, -0.04217491, 0.006701254, -0.01728004, -0.0074322713, -0.049298186, -0.05172944, 0.014121821, -0.024975585, 0.011792778, 0.033683565, -0.017299645, -0.027047925, -0.032956503, 0.003355665, -0.011627495, -0.011590569, -0.03593538, -0.024799632, -0.040622417, -0.012869757, -0.026226774, -0.02699233, -0.02572332, -0.030729664, -0.022469627, 0.0014360204, -0.0032717483, -0.008281115, -0.01195193, -0.030262738, -0.0012727482, -0.01935531, -0.01317644, -0.011212, 0.021323241, -0.022592789, 0.00019313044, -0.00084394414, -0.0016205892, -0.049047828, 0.027209517, -0.024094772, -0.0071539716, 0.01424108, -0.023576895, -0.0073828264, -0.0029562197, -0.028943883, 0.001793979, -0.018139785, -0.020726828, -0.022457166, -0.032082718, -0.010463371, 0.008831841, 0.016975688, 0.029664032, 0.018747421, -0.042799942, -0.037279513, 0.011850201, -0.04279698, -0.028635565, 0.034072623, -0.015165092, -0.027253805, 0.0038738106, -0.006928252, -0.06600854, 0.0035056353, 0.02212641, 0.056447864, 0.046465587, 0.026878532, 0.023638865, 0.013670291, 0.012108805, -0.020409502, -0.028236436, -0.042032972, -0.064705424, -0.024020119, -4.2131087e-06, 0.05762077, 0.03326289, 0.055535417, -0.033158, -0.012382356, 0.0063857934, -0.05731821, -0.024471924, 0.001862687, 0.00050200697, -0.000758377, -0.04240737, -0.05757821, -0.025267038, -0.04294449, -0.0011220066, 0.033101212, 0.01880456, 0.0319066, -0.008206656, -0.023171866, -0.03105669, -0.02910029, -0.047829233, -0.025630683, -0.0063801184, 0.007854314, 0.09229887, 0.07233123, 0.04897073, 0.059077818, 0.043770354, -0.017629039, 0.018969825, -0.007132952, -0.031908587, 0.03955888, 0.0246145, 0.020130958, -0.010474883, -0.024763204, -0.034673154, -0.063187465, -0.04558335, -0.06258157, -0.0477598, -0.07311981, -0.0781572, -0.082004815, -0.059325203, -0.05071187, -0.029473357, -0.009443634, 0.033733908, 0.07717258, 0.11558264, 0.06638351, 0.041504994, 0.037762403, -0.009282288, 0.018048214, -0.007485946, -0.04356396, -0.00510071, 0.039687324, 0.0018062046, 0.010793812, 0.028435465, 0.019563572, -0.04156476, -0.0701672, -0.08519252, -0.100236565, -0.070789926, -0.096766174, -0.08825588, -0.052478097, -0.011012869, 0.029431066, 0.03536293, 0.07583516, 0.074961044, 0.07896684, 0.05937231, 0.074186035, -0.002594572, -0.036027517, -0.021615172, -0.026264569, -0.02953589, -0.0442759, -0.02499081, 0.06324012, 0.019154593, 0.038619433, -0.0046285554, 0.0009892827, 0.034481067, -0.0061475895, 0.0071133263, -0.038309235, -0.0015686072, 0.023867255, 0.06762663, 0.0931065, 0.10223326, 0.08861247, 0.10457174, 0.09299083, 0.07832996, 0.06497706, 0.011531389, 0.009445885, 0.01020466, -0.015822155, 0.0058243717, -0.044056598, -0.022381883, -0.0022908088, 0.021807143, 0.04135357, 0.02043955, 0.025170565, 0.06546479, 0.06662141, 0.070071496, 0.10092303, 0.10969927, 0.14099932, 0.13173425, 0.17900619, 0.18750247, 0.18053965, 0.12627244, 0.11659915, 0.089079075, 0.0519716, 0.048782267, -0.0003740038, 0.005274828, -0.045478173, 0.005706746, -0.014401375, -0.007226416, -0.051945798, 0.029821062, 0.043565426, 0.04671029, 0.030896338, 0.04806378, 0.06487329, 0.039736852, 0.055926267, 0.10908096, 0.10358554, 0.10403669, 0.15284684, 0.21276267, 0.20635569, 0.18191591, 0.14577089, 0.07568107, 0.015662337, -0.008689506, -0.007234938, -0.0035551814, -0.0036019918, 0.017067837, 0.009855447, 0.006592115, -0.04984468, -0.03248381, -0.0065233656, 0.03240016, 0.00662244, 0.004148778, -0.011583795, -0.011961546, 0.036933776, 0.029096836, 0.06930829, 0.07784649, 0.10045837, 0.0627393, 0.08284606, 0.061326515, 0.039076246, 0.031163154, -0.06654911, -0.1075319, -0.113276444, -0.08294283, -0.021947179, -0.040240996, 0.0065275994, -0.004228649, -0.043343328, -0.034110878, -0.0712746, -0.07095938, -0.02079247, 0.047834866, 0.04086577, 0.025726812, -0.017182704, -0.042140007, 0.016556706, -0.00429186, 0.013949384, 0.059279766, 0.0040234085, 0.036440462, -0.044607785, -0.031565353, -0.12472772, -0.15466711, -0.13654605, -0.14335781, -0.10964632, -0.121526115, -0.14016391, -0.09726017, -0.07184001, -0.08403436, -0.0305239, -0.093089476, -0.08281866, -0.044303536, -0.027494375, -0.007501901, 0.009419481, -0.017390406, -0.029138, 0.002699836, -0.0463112, -0.10816995, -0.036088314, -0.051689617, -0.03608392, -0.070241585, -0.08047023, -0.1205038, -0.15489392, -0.17048045, -0.2421328, -0.282552, -0.3220941, -0.30232313, -0.22178963, -0.1271165, -0.09960159, -0.07440093, -0.06051015, -0.07625737, -0.09852383, -0.050517954, -0.030989965, -0.012112255, -0.015526386, -0.017516002, -0.031403255, -0.0050639994, -0.07190413, -0.14432067, -0.15204625, -0.1687693, -0.21733958, -0.26237544, -0.3035365, -0.33452356, -0.3702385, -0.35041443, -0.314753, -0.29819205, -0.24834763, -0.22010842, -0.12756091, -0.08973299, -0.006137407, -0.07343958, -0.045017924, -0.063266024, -0.050067805, -0.03420554, 0.00021852787, -0.0019060032, 0.010547737, 0.007709317, 0.025788812, -0.009693832, -0.032442164, -0.12648807, -0.12367201, -0.2212909, -0.21556693, -0.26245672, -0.2507674, -0.25485638, -0.23557776, -0.23696573, -0.16420434, -0.15128127, -0.119239785, -0.0773526, -0.04496287, 0.013614212, 0.006018278, -0.044876542, -0.0029686403, -0.034761038, -0.07792735, -0.079971, -0.024117934, -0.035829674, -0.036898278, -0.029388534, -0.003479763, 0.01700797, -0.053841017, -0.08041165, -0.099409536, -0.17214803, -0.14394365, -0.17393191, -0.14176656, -0.15628013, -0.115549915, -0.087018386, -0.0351144, -0.0116669005, 0.022277815, 0.02208419, 0.026118945, 0.022166615, 0.037092533, 0.016662788, 0.01984564, -0.02851756, -0.0004187549, -0.057079025, -0.01916779, -0.015402301, -0.010441754, 0.026018757, 0.003991832, -0.020434447, -0.028385852, -0.038309358, -0.04392624, -0.10656265, -0.0668662, -0.12056446, -0.09622406, -0.034517825, -0.0417834, -0.002022709, 0.039945114, 0.03304623, -0.016988069, 0.019023843, 0.022458252, 0.026705325, -0.00078357913, -0.034904663, -0.033446006, -0.012311822, -0.023390168, -0.0120181665, -0.010922707, -0.029725121, -0.005914973, 0.009322219, -0.018800998, -0.036583062, -0.026325604, -0.0051689367, -0.020148488, -0.07116216, -0.04031041, 0.0086314455, -0.020271491, -0.028422933, -0.010674008, 0.020912113, 0.045855295, 0.03254135, 0.022715453, -0.00014453693, 0.061328605, 0.018363297, 0.03993607, 0.009419965, -0.024937904, 0.006080208, -0.00096167764, -0.033034276, 0.0023945963, -0.028846301, 0.017182343, 0.0061412677, -0.0053609144, -0.009173075, -0.025970345, -0.009847554, -0.017067268, -0.026797723, 0.0043702764, -0.011285798, -0.017247338, -0.00044899262, -0.049730558, -0.032583598, -0.018891461, -0.034383155, -0.022458227, -0.042307843, -0.057555053, 0.02305911, -0.022852886, -0.046839494, -0.026877278, -0.023178127, -0.00044086674, 0.02825907, 0.019542783, -0.01871159, -0.0300724, -0.009686168, -0.018035114, 0.0038331626, -0.02389834, 0.01250568, 0.031017482, 0.012700517, 0.0029055886, -0.06901631, -0.031586103, -0.055205595, -0.059256062, -0.090698004, -0.064627185, -0.09015338, -0.029407388, -0.058992956, -0.03829787, -0.035470247, -0.016098035, -0.03278476, -0.0037077742, 0.03998016, -0.024563923, -0.0025845622, 0.011977286, -0.033285856, 0.028749911, -0.01784699, -0.010604555, -0.010884438, -0.010654918, -0.030587604, 0.01844066, 0.005816755, -0.0395223, -0.019807646, -0.10038466, -0.083023585, -0.11753682, -0.12356725, -0.15447076, -0.1256134, -0.09480084, -0.07850325, -0.0784288, -0.059140954, -0.06348797, -0.027441803, 0.025727341, 0.03967521, 0.020753916, 0.027576495, 0.017621618, 0.012514417, 0.01929381, 0.026767615, 0.01557546, 0.028292296, -0.011733189, -0.0139816655, -0.000375726, -0.058999345, -0.012706331, -0.0787153, -0.06446053, -0.103729144, -0.12327138, -0.1546134, -0.1332204, -0.07176207, -0.071471915, -0.05319746, 0.004386093, -0.023820912, -0.033344567, -0.02378745, -0.031412628, -0.0019109371, -0.0028604532, 0.022508202, -0.00034004793, 0.026934536, 0.024692504, 0.0056007877, 0.019456986, -0.010385314, -0.003450599, -0.025828063, -0.03796254, -0.09084911, -0.056275614, -0.10646628, -0.14780007, -0.12680954, -0.1520082, -0.16062048, -0.07358347, -0.05243681, -0.033561666, 0.018024078, -0.017412, 0.03149024, -0.036901277, 0.011204917, 0.055786807, -0.041867316, -0.056922257, -0.056867506, -0.04047553, 0.006088668, 0.001164398, -0.021621108, 0.011544988, -0.0019653859, -0.010645068, 0.0027326103, -0.06337354, -0.06399181, -0.12437544, -0.100254215, -0.12674488, -0.097051896, -0.16910389, -0.083995, -0.033628516, -0.008428266, -0.015038462, -0.013053892, 0.028454917, -0.0035623058, 0.021865226, 0.025151417, -0.032660186, 0.018014431, -0.06339708, -0.0058518914, -0.025746124, 0.0010107206, -0.017074825, 0.006438597, 0.028017322, -0.006549092, -0.013651187, 0.010162302, -0.05975818, -0.05501911, -0.1289347, -0.106494084, -0.08377476, -0.10347279, -0.05916377, -0.016909206, 0.004899862, -0.023169955, 0.0026210397, -0.0036996868, 0.0026049085, -0.0025936065, 0.026418312, -0.023507586, -0.03649829, -4.4713972e-05, -0.02997378, 0.0020748517, 0.01950061, 0.05432577, 0.011875274, -0.03764304, 0.032648887, 0.011617509, -0.038866613, -0.055951953, -0.073381916, -0.10991343, -0.06019766, -0.08365402, -0.019668242, -0.0060065123, 0.0130645195, 0.020837208, 0.03117376, 0.036134254, 0.032856032, 0.02045735, 0.016546756, -0.020688968, -0.018172381, -0.0321061, -0.018926347, -0.07297723, -0.055184342, -0.014793096, 0.021588638, 0.010816436, 0.029043619, 0.010264498, 0.0031140882, -0.031777464, -0.0059062983, -0.0922013, -0.11034666, -0.12126272, -0.027133899, 0.023891922, 0.07081075, 0.02145876, 0.021858122, 0.026710846, 0.043349873, 0.0048296736, 0.053839765, 0.028977057, 0.03803541, 0.019005742, 0.020064157, -0.046845607, -7.7258286e-05, -0.03521647, 0.039139435, 0.04695307, 0.009464639, 0.022755418, 0.005902773, -0.03467895, -0.008598542, -0.056272294, -0.070017114, -0.098684974, -0.077782325, -0.09179296, -0.015545191, 0.055320695, 0.11282433, 0.053792063, 0.04835055, 0.026096014, -0.000631478, 0.01950866, -0.011931968, 0.028520314, 0.0033844803, 0.054885853, 0.023812577, 0.053854443, 0.012153831, -0.018326433, 0.0017755346, 0.036654837, 0.011488943, -0.0052532414, 0.010758869, -0.034733597, -0.03259562, -0.047632918, -0.08475324, -0.058621775, -0.114982344, -0.055583972, 0.058291316, 0.101389155, 0.11134877, 0.07309216, 0.06949662, -0.006352911, -0.005150528, 0.004418755, -0.0064051645, -0.02411787, 0.013428268, 0.023725556, 0.05784236, 0.049487703, -0.024624499, -0.039178714, -0.021553392, -0.02311318, 0.05517619, -0.013446054, 0.019094858, 0.0248635, -0.04228209, -0.055383373, -0.074497916, -0.10010931, -0.09362118, -0.018429447, 0.054457836, 0.09649839, 0.1007923, 0.064614736, -0.02007181, -0.07457604, -0.05170441, -0.0031068774, -0.040926285, -0.06746915, -0.10275897, -0.023167126, -0.012286447, 0.037328623, -0.031699907, -0.0778752, -0.026059775, 0.014300891, 0.047535334, 0.043698207, 0.044450007, -0.003930748, 0.008078828, 0.005520432, -0.058122367, -0.085585125, -0.06355674, -0.019180411, 0.07470519, 0.0961287, 0.07451408, 0.027102742, -0.08233128, -0.15627079, -0.039702058, -0.025498629, -0.045776024, -0.07659223, -0.15564331, -0.07749047, -0.015764091, 0.0068017645, 0.01199427, -0.07545805, -0.061521795, -0.030139739, -0.0019335268, -0.012018636, 0.03678156, -0.0075749126, -0.011421762, 0.0142754875, 0.01210912, -0.004157813, -0.07506577, -0.0043179137, 0.076785326, 0.097368516, 0.0714211, -0.005286212, -0.10294556, -0.08840862, 0.01846965, 0.080989234, -0.01841212, -0.071772955, -0.12029566, -0.069313, 0.0006268246, 0.034436844, -0.05056158, -0.071620606, -0.027072411, -0.021383844, 0.006699122, 0.024874285, 0.009547006, -0.0014102493, 0.024267586, -0.005430749, -0.04445107, -0.03171365, -0.011670165, -0.006320008, 0.033397324, 0.0482613, 0.076725654, -0.007993631, -0.11085408, -0.06835553, 0.055050205, 0.08642067, -0.002276133, -0.053087033, -0.021995725, 0.012370224, 0.0037542076, 0.04424723, -0.036850322, -0.038669817, -0.049428605, -0.031726837, 0.027835542, 0.01713108, 0.037568778, 0.015122599, -0.02823508, 0.025967225, -0.0062437197, -0.0065456056, -0.0031418737, 0.018910896, 0.048934158, 0.048062075, 0.03285514, 0.016912635, -0.053952523, -0.0008698948, 0.12512219, 0.057936504, -0.023089714, -0.010118003, -0.053128675, -0.017221192, 0.0009522841, -0.029578045, -0.04548663, -0.035776276, -0.009978114, -0.015129278, 0.040397055, 0.048673052, 0.046177424, -0.004407344, 0.007647475, 0.009105346, -0.02197421, 0.01193202, -0.014470292, -0.012313943, 0.01786259, 0.0680377, 0.06778619, 0.031647395, 0.021609101, 0.026455496, 0.06263906, 0.060380045, -0.018861951, -0.0006885665, 0.0008858321, -0.006034967, -0.04837807, -0.04960814, -0.05054844, -0.08037735, -0.03025367, -0.035902053, 0.035290424, 0.056527045, 0.031536814, 0.009990403, 0.015733978, -0.034440637, -0.0069839554, -0.005609473, 0.0029301844, -0.0026134655, 0.050169554, 0.084570155, 0.053957116, 0.0055098035, -0.0011004199, -0.004473441, 0.030371156, 0.019384574, -0.024449976, 0.008422162, 0.0008539236, -0.044303447, -0.0094229365, -0.05834796, -0.046557173, -0.033018082, -0.04182816, -0.03554894, 0.027040346, 0.03841129, 0.057500213, -0.028816286, 0.013738501, -0.029572997, 0.03746055, 0.045149017, 0.03422184, 0.028301746, 0.027171897, 0.044209994, 0.04973707, 0.012666817, -0.029667133, -0.010562859, 0.0008031509, 0.014333236, -0.0063616387, -0.031897184, -0.013700857, -0.011597296, -0.0122396685, -0.044361804, -0.026098156, -0.07995002, -0.07491109, -0.019186955, -0.011337518, -0.017108679, 0.027371027, 0.008729913, 0.036204956, -0.0086413715, 0.045272354, -0.007998418, 0.019975044, 0.021380931, 0.08191415, 0.07629229, 0.0437622, -0.016415574, -0.02534028, -0.06800221, -0.016723339, -0.0233746, 0.034847792, -0.022823477, -0.05839358, -0.016610725, -0.030965535, -0.06991633, -0.0128307985, -0.046837162, -0.045439243, -0.058156013, 0.018754013, 0.013406512, 0.005185765, -0.045111485, -0.02242967, 0.0049720276, -0.011769617, 0.049421072, 0.0071792626, 0.050937995, 0.051737506, 0.057243474, 0.019402212, 0.017416637, -0.06529291, -0.040594473, -0.022690179, -0.012950808, -0.020416934, -0.0049002958, -0.0012080288, -0.03333643, -0.03451933, -0.06681816, -0.033558503, -0.01762806, -0.031623498, 0.002884928, -0.010225902, -0.0110122245, 0.05733952, -0.015560362, 0.002712325, -0.0105732195, -0.030652633, 0.04564442, 0.00557923, 0.04709664, 0.020990243, 0.044837464, 0.0530424, 0.026887095, -0.03609882, -0.05895169, -0.0497156, -0.048068784, -0.021652356, -0.03263292, -0.0653564, -0.04332095, -0.05952154, -0.03236456, -0.019516347, -0.030926147, 0.019867077, -0.035070088, 0.034387, 0.010289916, 0.00047630706, -0.036422934, 0.008553718, -0.0033413335, -0.02980548, -0.0074564964, -0.014259171, 0.027540365, 0.0255896, 0.06771748, 0.044699926, -0.025922023, -0.03213219, -0.029169306, -0.01574839, -0.040889442, -0.057055123, -0.03866951, -0.087891534, -0.024997447, -0.032147143, -0.016997997, -0.056274213, 0.021990456, -0.045736115, 0.02334318, 0.06519688, 0.048523538, 0.007895811, -0.008840602, 0.0032258574, -0.033044018, -0.05144455, -0.027814953, 0.004676632, -0.01960835, 0.008444916, 0.013918451, 0.0070887245, 0.02409766, 0.016072998, -0.023851499, 0.0012074548, -0.0498615, -0.04262095, -0.050887953, -0.027699279, -0.036167007, -0.05148855, -0.020306801, 0.015419942, -0.017453555, 0.030242916, 0.021290509, 0.031971578, 0.039731797, 0.034850173, 0.019090505, -0.036700185, 0.023727207, -0.043919954, -0.058640637, -0.017215466, -0.05510507, -0.019207956, 0.005904078, -0.022379415, -0.036400504, -0.018350918, -0.0020187264, -0.012389183, 0.008003299, -0.024240753, -0.06281242, -0.049627632, -0.040133234, 0.011933751, -0.04849639, -0.042338725, 0.018685414, 0.027936919, -0.013429584, 0.057501197, 0.024275497, -0.029634995, 0.017242186, -0.004991151, 0.022836152, -0.040526513, -0.049764946, -0.013736066, -0.022615075, -0.057201307, -0.02366032, -0.04263395, 0.0021858118, -0.0063544163, 0.0020216003, -0.020327365, -0.048136562, -0.01629597, -0.051809438, -0.046834826, -0.026464049, -0.032470614, -0.047513325, 0.006873037, -0.0128728375, 0.03534036, 0.0025642386, 0.041661378, -0.0122322785, -0.028805679, 0.010197646, 0.0017554926, -0.031480756, -0.03928604, -0.018438715, -0.035209365, -0.025680281, -0.044411343, -0.067153625, -0.021571932, 0.01841317, -0.013415462, 0.002948957, 0.0027410286, -0.03243561, 0.0011030915, -0.027171228, -0.048252776, -0.0046468885, -0.04318595, -0.012881366, 0.006374325, -0.0031888536, 0.041960295, 0.027582988, -0.036619503, -0.005791178, 0.011566276, -0.024541046, -0.0153608015, -0.004313678, 0.03963174, -0.030669525, -0.0055212555, -0.035057057, -0.026598843, -0.03458022, -0.035761263, -0.06232647, 0.0073470986, -0.031915545, -0.019884827, -0.038852572, -0.016846357, 0.036269896, 0.034309663, 0.0060255057, 0.00613835, 0.015937004, -0.023433821, 0.017323652, 0.0038059535, -0.0064926594, 0.035037618, 0.019133145, -0.016240414, 0.014982715, 0.0066300854, -0.024514992, 0.006251987, -0.009489957, -0.042301923, -0.006802685, -0.031031357, -0.033681355, -0.027696732, -0.008420593, 0.000989242, -0.0019444793, 0.00809233, -0.05483588, -0.030744655, -0.038903162, -0.07226912, -0.018589506, -0.0660312, 0.0013756626, -0.0001921371, -0.010732823, 0.0020574166, -0.010681068, 0.00077245076, 0.0238906, 0.031720456, -0.0049094055, -0.00020082081, -0.0017890724, 0.036752414, -0.009578417, -0.0124803595, -0.029319495, -0.027322074, -0.07543934, -0.0516114, -0.0701391, -0.04274905, -0.0663089, -0.03224317, -0.08665416, -0.11685846, -0.07539634, -0.07148567, -0.044844978, -0.034825504, -0.00606451, -0.04324065, -0.032362226, -0.019793145, 0.008516658, 0.026430784, -0.031989876, -0.017179472, -0.02256617, 0.022311457, -0.005963935, 0.01550762, -0.0026711028, -0.054375455, -0.07793466, -0.10349256, -0.10065949, -0.10995922, -0.059912954, -0.031094445, -0.06445412, -0.08845638, -0.11995707, -0.113828346, -0.113622926, -0.10055746, -0.102942355, -0.09942267, -0.06849885, -0.025676828, -0.024523847, -0.057736173, -0.049724646, 0.017477427, -0.046739083, 0.02324885, -0.027600005, 0.014621487, 0.011460293, -0.004518093, -0.0077432636, -0.09437881, -0.07589307, -0.059584413, -0.07964227, -0.070265085, -0.06323471, -0.122316055, -0.09718496, -0.07254167, -0.06083622, -0.08349201, -0.08716355, -0.07203604, -0.077619195, -0.071779355, -0.030668503, -0.05477795, -0.037149996, -0.04975808, -0.058771424, 0.020411411, 0.022384897, 0.030997813, -0.0033482788, 0.012366416, -0.028419532, -0.03290564, -0.04931561, 0.015424583, -0.018785464, -0.04754767, -0.10647486, -0.08673525, -0.07929339, -0.10885756, -0.09326169, -0.13632332, -0.12249649, -0.08808561, -0.10529518, -0.099097215, -0.11824248, -0.06256136, -0.03585922, -0.0768284, -0.008327865, -0.016779015, -0.06150249, 0.008645561, 0.028458428, 0.035553884, 0.00648325, 0.028344376, -0.0102998605, 0.041968465, -0.033259384, -0.019514356, -0.051813982, -0.014024949, -0.081154205, -0.11258328, -0.07961333, -0.055258885, -0.09820138, -0.109886885, -0.06806503, -0.086745605, -0.063539185, -0.07224097, -0.09866109, -0.07679191, -0.01261052, -0.076255605, -0.020186275, -0.07039938, -0.042203516, -0.030485258, 0.028389808, 0.044636644, -0.02985559, 0.041635126, 0.048044495, 0.079917915, 0.055345174, -0.020015573, 0.01085929, -0.012929911, -0.100439295, -0.070369795, -0.10027582, -0.05277, -0.06751444, -0.047323737, -0.059187155, -0.064453274, -0.048489057, -0.049951628, -0.04492684, -0.050447203, -0.04885768, 0.0020607982, -0.0038549649, -0.014698503, -0.038976185, 0.013525609, 0.03744127, -0.021261984, 0.0074049416, 0.07416524, 0.048098803, 0.025458053, 0.09312597, 0.062112324, 0.034954656, -0.04512412, -0.02796998, -0.045294, -0.053743377, -0.01944448, -0.07601989, -0.028870983, -0.06634026, -0.025618764, -0.00381325, -0.003283134, -0.0073717283, -0.03305725, -0.0369615, 0.007873124, 0.03552516, 0.016568322, -0.001716052, 0.008323123, 0.017630652, -0.03425069, 0.016972207, 0.05285627, 0.038799435, 0.0718562, 0.055832878, 0.04181739, 0.020780284, 0.018698221, -0.014742203, -0.028634377, -0.025023395, -0.07717855, -0.054230392, -0.03676227, -0.052862123, -0.022064133, 0.009239363, -0.017308919, -0.031623077, -0.029555174, 0.027753603, 0.029812962, 0.00820222, 0.0026889583, -0.003535094, 0.032972742, 0.021468848, -0.0058482764, 0.04264784, 0.030195745, 0.089300156, 0.020601647, 0.06746438, 0.048027426, 0.022422243, 0.03733927, 0.04012459, -0.01903489, -0.034440767, -0.052630685, -0.054905575, -0.08563409, -0.035149574, -0.079692535, -0.052712437, -0.094658844, -0.07227135, -0.020793943, 0.022039304, 0.06627542, 0.028727707, 0.029698579, 0.027768234, -0.006409288, -0.0035254168, 0.02052516, 0.003980476, 0.025272205, 0.083994046, 0.057793092, 0.085087106, 0.0945629, 0.09670026, 0.05144975, 0.055037092, 0.044112008, -0.06465788, -0.091236316, -0.106303394, -0.13677974, -0.09283217, -0.12740737, -0.11182906, -0.08378646, -0.015547236, 0.010489627, 0.04449852, 0.020793114, 0.008576226, 0.06191278, 0.04653043, -0.011916203, -0.0022451698, 0.047397442, 0.0049475674, 0.05424101, 0.034285136, 0.023370428, 0.09086591, 0.12413605, 0.13446626, 0.12855779, 0.0735698, 0.10464668, 0.020796565, -0.012318683, -0.060345855, -0.101995446, -0.061150044, -0.059816856, -0.0615925, -0.007965586, 0.015526939, 0.0204047, 0.0061747204, 0.0027142928, 0.014422576, -0.004087631, 0.04272653, 0.026558906, 0.044185754, 0.029008614, 0.027777886, 0.0138249155, 0.06844553, 0.04082696, 0.06212712, 0.083642, 0.07964195, 0.070483424, 0.15266931, 0.1324477, 0.13951465, 0.06704675, 0.038962282, -0.014161955, -0.040084824, 0.031741474, 0.016289601, 0.031601995, 0.052761, 0.0048228167, 0.001369788, 0.028029118, -3.0461995e-05, -0.014366728, -0.010039306, -0.0007093533, -0.0049430737, 0.008856563, 0.040804446, 0.034142002, 0.044571593, 0.0578266, 0.07669889, 0.031961866, 0.055068173, 0.05173101, 0.09297416, 0.0677152, 0.0989639, 0.10630005, 0.069834664, 0.04463068, 0.048134293, 0.073777914, 0.1277294, 0.07446383, 0.03627178, 0.008219866, 0.016975021, -0.022812264, -0.0027559039, -0.0061889295, -0.00985704, 0.04488418, 0.032114662, -0.0053109634, -0.018446237, 0.022891223, 0.025609763, 0.009140968, 0.037232757, 0.00015100345, -0.015289948, 0.009346623, 0.0042769057, 0.052714754, 0.030265562, 0.058559474, 0.09257048, 0.076525465, 0.06813058, 0.06342535, 0.05579698, 0.037654076, 0.04746926, 0.03158126, -0.032373108, -0.03085024, -0.0144096315, -0.002648066, 0.010271587, 0.032707527, 0.0097845765, 0.036162242, -0.025728174, -0.027996328, -0.018840242, 0.021582007, 0.009371922, -0.03824423, -0.037897572, -0.04680188, -0.02467048, 0.011771498, 0.0056474213, 0.016609749, 0.038663317, 0.057602096, 0.028886154, 0.040540386, 0.048479088, 0.024627032, 0.060422547, 0.017139077, 0.0073757344, 0.00029289245, 0.005379397, -0.021592293, -0.021832377, 0.011512119, 0.010629973, -0.004556452, -0.036681093, -0.018458966, 0.010453288, -0.013544129, -0.025673239, -0.04857316, 0.0031723573, -0.0012533384, -0.025593804, -0.03972295, -0.044943705, 0.017009001, 0.031439785, 0.027835079, 0.0015241271, 0.02848527, 0.008747779, 0.028970603, 0.052329887, 0.03127113, 0.013438457, -0.023576569, -0.0070281425, -0.04665282, -0.029730543, -0.020668102, -0.04589581, -0.04019788, -0.015770467, -0.0018154029, -0.021619672, -0.004303568, -0.040439032, -0.03791381, -0.0075878836, -0.02250867, -0.009481486, 0.013950958, 0.028645586, 0.00032377618, 0.018223286, 0.010535611, 0.022751048, 0.0494772, 0.033179156, 0.039316125, 0.07168009, 0.042926792, 0.034379076, 0.011110647, -0.021500947, -0.023298804, -0.033314373, -0.03376484, -0.029428873, -0.014557784, -0.003969995, -0.023294201, -0.050880406, 0.012596672, 0.027992968, -0.028579632, 0.03677802, -0.0039123306, 0.019833561, 0.0033698194, -0.0012666772, 0.039923597, 0.010764321, 0.02346077, 0.026554445, 0.08847035, 0.03535659, 0.024187451, 0.07407508, 0.06490446, 0.030877788, 0.00023985638, -0.019410584, -0.012924315, -0.039002262, -0.047145635, -0.05507075, 0.0010763401, -0.018632365, -0.00047583997, 0.017836086, 0.013696533, -0.0058903615, -0.0020087112, 0.008785953, -0.0051179593, 0.042607006, -0.0042510647, 0.00341184, 0.038203157, 0.013458447, 0.054396663, 0.070109785, 0.038680796, 0.06294224, 0.059131227, 0.042792294, 0.062427416, 0.018433524, 0.01483526, -0.041180458, -0.008686885, -0.041747957, -0.05045854, -0.011725776, -0.06290877, -0.010601758, -0.011079058, -0.016181098, -0.017450616, -0.0011931078, 0.023079824, -0.016746089, 0.04814746, 0.014863763, 0.011560571, 0.066826016, 0.0022667646, 0.0089624375, 0.021464162, 0.048523005, 0.042114284, 0.043893617, 0.05006622, 0.062168, 0.06247823, 0.002425694, 0.018115392, -0.007840596, -0.03087127, -0.024984848, -0.041460376, -0.04610583, -0.037900016, 0.010242353, -0.03969001, -0.022381395, 0.021858552, -0.017414266, -0.007809504, 0.011838262, 0.013419485, 0.040252194, 0.047215953, 0.0122505305, 0.036990404, 0.019688372, -0.008915908, 0.026431838, -0.032471497, 0.036683157, 0.0615492, 0.023507588, 0.009649281, 0.0042647654, -0.0007308826, -0.031464875, -0.054002132, -0.016291939, -0.038038418, -0.004750576, 0.011394353, 0.023984514, 0.020205135, -0.018581444, 0.03480856, 0.023245523, -0.023349283, 0.015301903, 0.032019064, 0.017491588, 0.0098793795, -0.0021562465, -0.038747452, 0.02448823, 0.027883137, 0.02897303, 0.00099838, 0.027130315, 0.046099998, 0.01676009, 0.042860698, -0.018493459, -0.034747105, -0.044756737, -0.040000364, -0.035185866, -0.0069961515, 0.008924108, 0.015408325, -0.011165753, 0.007660216, -0.0137259485, 0.014243204, 0.0031586261, 0.0039683445, 0.019448677, 0.01681658, 0.031394802, 0.015748855, 0.011883252, 0.0056449976, -0.0012046619, 0.03209958, 0.014191928, 0.036641147, 0.03324522, 0.061480995, 0.027399136, 0.031354323, -0.0065297275, -0.020197192, -0.029342672, -0.05412857, -0.07877583, -0.035236724, 0.0037898999, -0.050773654, 0.0014639548, -0.00049203035, 0.013389148, -0.018361676, -0.014719489, -0.004442028, 0.021793127, -0.00057299156, -0.030015891, -0.032152448, 0.025509106, 0.01051192, -0.011510578, 0.021191321, 0.016181817, 0.030099649, 0.027170496, 0.027613813, 0.0129172085, 0.054706156, -0.011079367, -0.047240146, -0.054357525, -0.043910615, -0.021273125, -0.026067931, 0.016722979, -0.015333464, 0.012613952, -0.030069642, 0.029833429, -0.0020393613, -0.049553685, -0.011665021, 0.00045372124, -0.025452318, -0.041802425, 0.03242253, 0.014350065, -0.031229716, 0.037376903, 0.022796191, 0.0016349409, 0.054006323, 0.028638275, 0.036108032, 0.029576369, 0.0034891558, 0.013328122, -0.050204366, -0.035458133, -0.07231569, -0.05209389, -0.0054037515, -0.00046288126, -0.009553601, -0.011550163, -0.044771016, -0.037361808, -0.030053461, -0.0008686903, 0.029802317, -0.027397575, 0.0035930667, -0.033380315, -0.005527201, -0.013254737, 0.022936255, -0.004651273, 0.0237422, 0.041621946, 0.057545155, 0.020153683, -0.009802331, 0.040083494, 0.010076837, 0.023992958, -0.02682722, -0.017447297, -0.014109009, 0.013426008, -0.00170125, -0.0018950554, 0.023760635, -0.006022211, -0.032047298, -0.034621734, 0.03805747, -0.0019761778, -0.016896259, -0.015105506, -0.0057028197, 0.011837119, 0.0015463856, 0.017252875, -0.012449508, -0.0056264303, 0.03251884, 0.038075242, -0.0091842655, -0.0104924645, 0.043985903, 0.026243052, 0.03503943, 0.063321054, 0.07721842, -0.007666126, -0.00068121793, 0.030777628, 0.021654623, 0.0009951701, -0.0071337353, 0.0017157011, -0.025689866, -0.006193459, -0.016141344, 0.027734336, -0.01518419, -0.028292479, -0.008214457, 0.031020248, 0.044424597, -0.001185566, 0.012516476, 0.045544125, -0.0009842293, -0.001005968, 0.04461068, 0.026850631, 0.0141738895, 0.0043451204, -0.0030240691, -0.031688944, 0.017958453, -0.031183606, 0.035289433, 0.009734897, 0.038473237, -0.020386713, -0.016715234, -0.008359114, 0.0050859693, 0.0031447671, -0.01847741, -0.029404335, 0.004412666, -0.0045494013, -0.007934134, 0.017742364, -0.00908886, -0.013006702, 0.030802099, -0.0029326652, -0.033545975, -0.0145692015, -0.021366771, 0.018594608, -0.040132917, 0.034465685, -0.030137014, -0.052251518, -0.00036372343, -0.028948456, -0.006983544, -0.03447125, 0.025418397, 0.016559664, 0.020006957, -0.008474167, -0.0036756785, -0.030001866, 0.0061549926, 0.0012175052, 0.001376706, -0.006961939, 0.019261815, 0.015875736, -0.02293463, -0.026162975, -0.030295743, -0.044302788, 0.015420171, 0.005000362, -0.015474063, -0.025414543, 0.007951357, -0.015803516, -0.022662088, -0.024551352, 0.010544254, -0.0069097113, -0.07620015, -0.037485104, -0.032187082, 0.040353563, 0.02073195, -0.01209675, 0.00921814, 0.012797102, -0.011084142, 0.023746679, -0.012822006, -0.036720477, -0.050825365, -0.06823406, -0.052065767, -0.024790643, -0.002925984, -0.045183934, 0.023617856, -0.018243859, -0.017118456, -0.011766913, -0.025998255, 0.01106856, -0.0091339, -0.02386338, -0.035398677, -0.025889976, -0.020401055, -0.018875308, -0.029536592, -0.015872227, -0.0005074232, -0.009069546, -0.030942459, 0.016017403, 0.027312526, -0.0029579015, -0.005043644, -0.01669978, -0.017011674, -0.0229367, 0.0006316983, 0.011796035, -0.020304618, 0.014494115, -0.034034062, -0.007185733, -0.0058545065, -0.022800177, -0.028506441, 0.006389589, -0.0058063758, 0.009136501, -0.016538512, -0.0140758995, 0.04021981, -0.006952398, 0.0029677611, -0.02862398, -0.0025864472, -0.019067, -0.00236592, 0.014827602, -0.027011646, 0.019228833, -0.039601237, 0.009569368, -0.04400812, -0.0020910406, -0.03352154, 0.017263697, -0.021952119, 0.0077358577, 0.026791183, 0.004955044, 0.0062124445, 0.018246667, 0.0044616316, -0.0015795841, 0.002704252, 0.054779287, -0.040088426, -0.03508085, 0.012237175, -0.015929801, -0.006821188, -0.045958333, -0.04228925, 0.012771948, -0.031800065, -0.025465839, 0.042111903, 0.0024809015, 0.033730257, -0.0048600873, 0.02341399, -0.0063713454, -0.031138204, -0.014828956, 0.00022155029, -0.010142147, 0.019755669, 0.0023379873, 0.00782242, -0.018356884, -0.0038545774, 0.024147311, -0.01624045, 0.0013626879, -0.034329914, 0.0014690962, -0.0032698307, -0.014725269, -0.0035873386, -0.016947739, 0.015352423, -0.023092458, -0.041294638, 0.019762708, 0.04364696, 0.029726353, 0.0011780808, 0.021886107, 0.027789056, -0.021400668, 0.0342818, 0.02670886, -0.028209288, 0.009153626, -0.010112513, 0.008832508, 0.0112165455, -0.010521752, -0.0064100903, -0.024723172, -0.014530436, -0.031873353, -0.039753843, -0.003261772, -0.04921369, -0.015774399, -0.02753596, -0.0013339671, -0.034951925, -0.040294804, 0.0041550975, 0.050496176, 0.036748845, -0.019654913, 0.010516608, 0.022723218, -0.0037436031, 0.028146772, -0.00022650733, -0.017211873, -0.009089047, -0.013090272, -0.013995568, -0.017562568, 0.0056340666, 0.0097909225, -0.0053798184, -0.004790167, 0.015453894, -0.010268264, 0.008281556, -0.0013896145, 0.0035035594, -0.009809685, -0.013029086, -0.012097677, -0.008675648, 0.00285757, -0.016161323, 0.023453342, -0.030012028, -0.0014226248, -0.054712072, 0.013283398, 0.012129742, 0.00156742, 0.018444061, 0.004720385, 0.0045939106, 0.0022924433, -0.0065850765, 0.017351788, -0.004010481, 0.02028419, 0.021136416, 0.0046262797, 0.04001626, 0.009387857, 0.056251895, 0.012077246, -0.025018232, 0.013547515, -0.02017147, 0.01681032, 0.045229886, -0.008397717, -0.011766689, 0.032370757, -0.03754024, -0.0053772274, -0.01596586, 0.018280398, 0.024977231, 0.013861254, 0.013310544, -0.003704691, -0.0020204524, -0.0043938323, -0.0066469307, -0.0029886586, 0.0063166423, 0.014725153, 0.04939914, 0.05588409, 0.044902034, 0.051617783, 0.035795417, 0.0236108, -0.035146005, 0.035486374, 0.010395614, -0.014587425, 0.049129445, -0.016854841, -0.04188742, 0.0071728243, 0.009042925, -0.020920128, 0.012321791, 0.03524576, 0.010113034, 0.0393001, 0.019832598, 0.040695127, 0.016852792, 0.013171828, 0.0007460557, 0.019966524, 0.016849592, 0.017471824, 0.045810375, 0.01832545, 0.047546364, 0.042970695, -0.010359782, 0.02702191, -0.036226027, 0.00025677754, -0.019907404, -0.020188265, 0.03694575, -0.029442592, -0.03373868, -0.024011727, -0.018947085, -0.02156742, 0.0023042464, -0.025907189, -0.012807239, 0.025461871, 0.017208032, 0.014671538, 0.035921335, 0.021588046, 0.005009892, -0.008582221, 0.012806569, 0.00900828, 0.005432645, 0.020328518, -0.009861466, -0.019534778, -0.03037754, -0.05801124, -0.006235655, -0.0050423197, 0.0032157616, -0.013631214, 0.027215123, -0.02772842, 0.0100776, -0.020362949, -0.008485586, -0.007579583, 0.0058856783, 0.002831988, -0.0030654888, 0.002944755, 0.027985308, 0.03622551, 0.021661282, 0.023058841, 0.008404539, 0.023408575, 0.012990905, 0.036102362, 0.008268404, -0.031424105, -0.05152865, -0.024131132, -0.059116315, -0.023088694, -0.06979934, -0.018728765, -0.027957246, -0.027145177, 0.07123526, 0.019698584, -0.030084703, -0.003717465, -0.035464607, -0.044321172, -0.012392878, -0.019084746, -0.017951818, -0.0043348577, 0.035598744, 0.005915381, 0.033176124, 0.017986815, 0.020123355, 0.042606283, 0.021651126, 0.00013364355, -0.00089406845, -0.007053743, -0.06484824, -0.027139962, -0.027481696, -0.050012704, -0.018383993, -0.02442343, -0.00067773805, 0.01747037, 0.037616264, 0.0054698046, -0.023207787, -0.011754388, -0.004464615, 0.011332671, 0.020679992, 0.010449431, -0.019104343, -0.046499565, -0.020195955, 0.004533206, -0.011057794, -0.008852663, -0.003798366, -0.03358394, -0.033286124, -0.043263763, -0.046322715, -0.05296799, -0.04264882, -0.018068142, -0.013760949, -0.008791122, 0.009002718, 0.014691132, 0.012204509, 0.052287377, 0.04661224, 0.004821741, -0.008110748, 0.020239947, -0.0062800907, -0.015044963, 0.00895054, -0.035191454, -0.0019592834, -0.049156263, -0.058221955, -0.07701334, -0.07262228, -0.08687673, -0.085749805, -0.07995288, -0.0629542, -0.068104886, -0.071216285, -0.077968635, -0.0021174366, -0.0064997063, -0.0016419403, -0.009382368, 0.061912756, 0.039429344, 0.022671746, 0.012455335, 0.06082989, -0.029990133, -0.0028194021, -0.037931353, 0.031457484, 0.03452506, -0.010894869, -0.038771473, -0.011399321, -0.024158383, -0.04536084, -0.055533018, -0.08225869, -0.056949005, -0.053920455, -0.069440454, -0.077265285, -0.044088807, -0.022882339, 0.046251178, 0.035704907, 0.049480543, 0.06395746, 0.06153212, 0.07783042, 0.0708781, 0.07742034, 0.07941832, 0.010853146, -0.0075854063, 0.055809118, 0.031283263, -0.0046728547, -0.0137558365, -0.022912277, -0.043524187, -0.042840123, -0.052518174, -0.05384421, -0.055273127, -0.080855206, -0.060928196, -0.026302136, -0.0166824, 0.03992268, 0.08567628, 0.13370857, 0.11436733, 0.09994861, 0.087607786, 0.08879572, 0.09897964, 0.07290898, 0.076554514, 0.033485048, 0.012741494, 0.05313001, 0.0085409405, 0.040977806, 0.021528019, 0.0074007413, 0.049714953, 0.014881726, -0.015315386, 0.012367226, -0.03891031, 0.0014344828, -0.0015924354, 0.02002429, 0.054087795, 0.09706306, 0.16877538, 0.16473526, 0.15657063, 0.1566176, 0.121657185, 0.10410037, 0.14968473, 0.096577905, 0.10269301, 0.09466835, 0.08609538, 0.0487991, 0.008631089, 0.036798537, -0.026157029, 0.042787388, 0.049711917, -0.0069150873, 0.016681042, 0.071588, 0.015248896, 0.092034236, 0.072069556, 0.10107726, 0.11690656, 0.17004223, 0.16571395, 0.17710893, 0.19433054, 0.14459926, 0.12695853, 0.114616126, 0.10532371, 0.123919494, 0.093285106, 0.1314638, 0.117192395, 0.10869574, 0.112658255, 0.071001455, 0.0074625793, 0.013126448, 0.0029100552, 0.020648206, 0.026386622, 0.07361748, 0.00475599, 0.08224155, 0.09048938, 0.07054069, 0.09844087, 0.14579567, 0.14030135, 0.18256514, 0.17602237, 0.17724034, 0.1755882, 0.13823062, 0.10813264, 0.10700219, 0.12530877, 0.119708315, 0.12449723, 0.091523014, 0.051719967, 0.09821626, 0.08950616, 0.094105236, 0.06164408, 0.027542409, 0.055177696, 0.07428984, -0.00458009, 0.004768115, 0.0039922553, 0.030865142, 0.06219185, 0.077290736, 0.091389775, 0.13079363, 0.13759561, 0.14365125, 0.1481595, 0.15664211, 0.12060472, 0.15012144, 0.09630776, 0.08198954, 0.11092713, 0.098327935, 0.061954584, 0.102311045, 0.07249351, 0.06684144, 0.082897455, 0.057925977, 0.041804727, 0.014637083, 0.040642977, -0.023887895, 0.03775707, 0.0139987115, 0.0104532745, 0.03086809, 0.04549965, 0.040889937, 0.07402906, 0.08075401, 0.102603406, 0.10288262, 0.12065992, 0.092531405, 0.12885642, 0.08039545, 0.10765999, 0.07259805, 0.10120772, 0.04014134, 0.010037763, 0.025694568, 0.010950015, 0.06581947, 0.013157453, 0.011379177, -0.0018494526, -0.0031209171, 0.029075433, 0.0048739435, 0.06209675, -0.0222143, 0.04341681, 0.06466238, -0.00090062467, 0.037475366, 0.08704518, 0.08276329, 0.08813036, 0.1026774, 0.12067853, 0.11189993, 0.07493499, 0.08785115, 0.05765331, 0.058281563, 0.05200393, 0.0521698, 0.067490146, 0.018634928, -0.005750007, -0.0076241014, 0.057670992, 0.043617792, 0.010974327, -0.017839018, 0.015005953, -0.021553084, 0.024300529, 0.024273686, 0.019019112, 0.038347125, 0.03116962, 0.05569039, 0.061879143, 0.04911342, 0.076934464, 0.05785734, 0.05530572, 0.06307551, 0.052346148, 0.07877905, 0.012508489, 0.057916578, 0.05818151, 0.011120238, 0.020596491, 0.04140409, 0.0063615376, 0.019283641, 0.010098963, 0.022662958, 0.01102759, 0.03636457, -0.030263755, -0.013477049, 0.010329415, 0.023335738, 0.013911701, 0.01159323, 0.04156595, 0.062673375, 0.015142072, 0.055048995, 0.06880877, 0.09641243, 0.036720317, 0.031060435, 0.06726489, 0.03162828, 0.022403326, 0.0442852, 0.0142104365, -0.012932949, -0.044527397, -0.004421076, 0.0232077, 0.005858168, -0.021674212, -0.017435927, 0.0004946786, -0.011395004, 0.0053448156, -0.009114262, 0.03555157, 0.0029554872, -0.027058143, 0.008632213, 0.054840803, 0.056616813, 0.017640097, 0.003851376, 0.003487518, 0.050310064, 0.01349385, 0.0036957911, 0.02999221, 0.0032570832, 0.009651615, 0.013931234, -0.024609145, -0.005190715, -0.04237753, -0.008524978, -0.03534441, -0.06967253, -0.020732902, -0.00292069, -0.0058627245, 0.023229387, 0.00582188, 0.026924055, 0.023686454, -0.0058820546, 0.021962235, -0.025972717, 0.039488833, -0.010716266, 0.0049189646, 0.0017032308, 0.026636817, 0.022664279, -0.028162068, -0.0014549013, 0.029175531, -0.021517383, -0.017543178, 0.020552304, -0.0040078135, -0.0066822404, 0.023995984, 0.02271001, 0.005601055, 0.042249437, 0.023385065, -0.024067957, 0.026634581, -0.008051924, 0.018841837, -0.028056985, 0.0003346212, -0.026242372, 0.028531838, -0.011974679, 0.019139715, 0.035686027, 0.011674994, -0.0138735585, 0.05224011, -0.038951542, -0.03861535, -0.02780307, 0.014789906, -0.044539742, -0.019358946, -0.026948694, -0.029611463, 0.012613488, 0.026701478, 0.01655457, -0.019652126, -0.029381368, 0.02932006, -0.014071269, 0.016768686, 0.006206882, 0.014759503, -0.018694537, -0.02662413, -0.007413975, 0.0038273947, 0.01522724, -0.015459222, -0.005841278, -0.03797083, 0.00094886863, -0.019368926, -0.005300511, -0.018636, 0.0029658473, -0.009332797, -0.031625304, -0.03423687, -0.02580182, -0.031732325, -0.02524286, 0.031225298, -0.03608687, 0.03411233, -0.026270242, 0.01990704, 0.010000791, 0.016467812, 0.023998018, 0.013203863, -0.019037113, -0.0029297261, -0.03990228, -0.03689086, -0.004556271, -0.041957054, -0.055437777, 0.03625266, 0.0493184, -0.010238661, -0.034104228, 0.0064722067, -0.03229165, -0.0031175371, 0.012332006, -0.02787137, 0.011361902, -0.003168225, -0.03454555, -0.02243006, 0.010750671, 0.020421304, 0.026336145, -0.045615528, -0.054638855, -0.04289059, -0.0058613955, 0.0037427852, -0.029284937, -0.035306364, -0.036983922, -0.015289143, 0.0045400467, -0.009742934, -0.019385202, 0.010193742, 0.0009541479, -0.009447151, -0.051246077, -0.0025186103, -0.0467528, -0.064315535, -0.031123975, -0.028381577, -0.046618424, -0.023043483, -0.006436529, 0.025564656, 0.0054180506, 0.066248804, -0.0068514203, 0.034454133, 0.0056150095, 0.04678631, 0.023980984, -0.025552696, 0.0031417308, -0.013718727, 0.0056771184, 0.021263981, 0.0087761935, 0.015615897, -0.00036271132, 0.006294487, -0.0140135605, -0.03623288, -0.015139792, -0.05951875, -0.025302026, -0.077240035, -0.059390757, -0.033569116, -0.05805255, -0.0020378714, -0.02491779, 0.009006961, -0.010167321, 0.0062563615, 0.016715242, 0.05161089, -0.017539745, 0.0066290637, -0.0015598339, -0.037870307, 0.031154884, -0.032833442, 0.0033759107, -0.024274142, -0.024207728, -0.005468064, 0.0140949525, -0.023768522, -0.013052933, 0.0020573093, -0.0365177, -0.0273578, -0.0019950864, -0.055759843, -0.04826516, -0.015177239, 1.3818251e-05, 0.006203052, 0.019620825, 0.030549698, 0.017551655, 0.026605206, 0.016920006, 0.0011233047, -0.008187514, 0.076754324, 0.03886899, -0.0060284915, -0.007954329, -0.003616148, 0.01518562, -0.031887688, 0.0060653375, -0.009294934, -0.0054457737, 0.02797726, -0.032543432, -0.023374893, -0.0078100017, -0.032057386, -0.037575405, -0.008880094, -0.03887185, -0.017324843, 0.02917225, -0.01787097, 0.0357075, 0.008592186, -2.6104037e-05, 0.021127025, 0.017405534, 0.054119136, 0.02186139, 0.03858567, 0.013041417, -0.046019744, -0.05875736, 0.0062100925, 0.032654684, -0.01273746, 0.017660731, 0.045232438, 0.004834025, -0.020704258, -0.00410015, 0.0041766968, -0.0057618, -0.016208582, -0.019518666, -0.034571372, -0.0007109397, -0.0027576087, -0.0038240089, 0.0044383085, -0.01521678, -0.022603655, -0.0032853275, -0.010507891, -0.005584212, 0.005112402, 0.0028009263, 0.023596535, -0.020128742, 0.012343016, -0.00545233, -0.0074496227, 0.033643298, -0.014548538, -0.009021229, -0.0058928183, -0.037463725, -0.01119459, -0.014585465, -0.007297787, 0.011317553, -0.012653587, 0.0040804916, -0.0030584233, -0.018844003, 0.00294462, 0.017141584, -0.006487352, -0.0036407972, 0.0068275966, 0.021560885, -0.017823603, -0.020024631, 0.0026540402, 0.008037133, 0.014934483, 0.013415532, 0.0053730896, -0.020381473, -0.017799122, 0.027018962, 0.017489858, -0.031112973, -0.007711783, -0.0037243287, 0.0027896392, -0.036200352, 0.013161989, -0.023051461, -0.026079733, -0.029241249, 0.0010072284, 0.006372545, 0.0019811175, -0.0054850667, 0.034302898, 0.020215772, 0.024770882, -0.017098371, -0.036310796, -0.04127381, 0.033967264, 0.04052828, 0.045354538, 0.00746803, -0.010143918, -0.022637598, 0.041798737, 0.03428689, -0.018477429, 0.033563714, -0.0040600165, -0.021482602, -0.054526888, -0.02406858, 0.0048607923, -0.03709136, -0.008383009, -0.028685365, -0.014537087, -0.018584112, 0.015547741, 0.0029002323, -0.0065454342, 0.03277982, 0.0016622551, -0.03129322, 0.0010529069, -0.030439503, 0.022438215, -0.0041099717, 0.027343323, -0.019210001, -0.007387555, 0.013125864, 0.012774466, 0.011225951, 0.03829194, 0.042172525, 0.01069808, -0.020511076, -0.036201395, -0.032833967, 0.0034415051, -0.02190415, 0.0011229445, -0.017912554, -0.015792115, -0.01539259, -0.0077091376, 0.023158478, 0.019852025, 0.004168163, 0.027342273, 0.009080437, 0.020180522, -0.01909928, -0.04084562, 0.030433493, -0.054581683, -0.04659278, -0.036428828, 0.0028034917, 0.029377202, 0.007725735, -0.0018167335, 0.0044066943, 0.024609765, 0.0125969965, -0.032079853, 0.0011725676, -0.023303898, -0.013168039, -0.004729281, -0.022842549, -0.038957976, -0.020584922, -0.0038833008, -0.0059949844, -0.020163283, 0.010596863, -0.008018138, -0.0010670591, 0.02688135, -0.006947523, -0.003141851, -0.03115841, -0.043060333, -0.061118357, 0.007210677, -0.039306957, 0.014991743, -0.038288638, 0.012122365, -0.020608628, -0.014262871, 0.015413251, 0.034498144, 0.031284228, 0.01494726, -0.016264785, -0.01805159, -0.007936535, -0.009587064, -0.044848118, -0.03883619, -0.027733015, -0.046523996, 0.04623831, 0.050014593, 0.07469814, 0.053069327, -0.012989723, -0.04155928, -0.043684993, -0.032638226, -0.07951818, -0.020815257, -0.028174134, 0.05050309, -0.013409717, -0.004976172, -0.01847484, 0.021605551, -0.013950034, -0.017611902, 0.0063907057, 0.023663236, 0.03291043, 0.015230783, 0.0036181763, -0.020360552, -0.02959652, -0.082697436, -0.060144275, -0.024070049, 0.07088925, 0.07892083, 0.069145426, 0.037934452, -0.062408973, -0.105262645, -0.10107888, -0.06365554, -0.07474593, 0.01343899, 0.0006144836, 0.022787109, -0.012389191, -0.030270007, 0.0047597066, 0.0037764343, -0.008724549, 0.0380625, -0.010829434, 0.027316874, 0.039021797, 0.0052931057, 0.005997017, -0.03265054, -0.031644337, -0.07783734, -0.01310632, 0.10149489, 0.10616651, 0.10062041, 0.029298136, 0.0018267122, -0.116061054, -0.17133217, -0.149766, -0.08100844, -0.06285845, -0.02988792, -0.037612915, 0.008866311, -0.028158681, 0.005871584, 0.018807173, -0.0012172573, -0.019438727, -0.015315865, 0.00026813473, 0.00022651281, -0.03474188, -0.018316954, -0.026084065, 0.0073206457, 0.016477574, 0.03792861, 0.079586476, 0.11482662, 0.11602947, 0.080547, 0.021021899, -0.08374116, -0.2295815, -0.23300615, -0.113159746, -0.089926094, -0.060962897, 0.010705917, 0.012496185, -0.050093208, -0.028699106, 0.03854515, -0.032534752, 0.00013414177, -0.023953797, -0.03854145, -0.03965194, -0.06326805, -0.07836164, -0.06714038, -0.020235157, 0.018542372, 0.058687456, 0.07772656, 0.1077603, 0.095981725, 0.08595831, 0.009610406, -0.06519956, -0.19798364, -0.23362902, -0.21157058, -0.09530831, -0.06934926, -0.007096077, 0.033296753, 0.0058536367, -0.025364883, -0.027192818, 0.019620363, 0.02410455, 0.013830742, 0.0020866243, -0.0063716015, -0.03474809, -0.041792598, -0.05422314, 0.035079982, 0.053929023, 0.10567511, 0.08780011, 0.104801685, 0.10532494, 0.09765866, 0.027715541, -0.06756168, -0.20005384, -0.29661322, -0.26364946, -0.15907392, -0.14546776, -0.08684218, -0.06632326, 0.017511714, 0.003938818, -0.049016487, -0.042427704, -0.016283428, -0.03386009, 0.0138962, -0.0022263618, 0.02029604, 0.0021705013, 0.04680899, 0.0638111, 0.08826011, 0.11710576, 0.13507424, 0.09355106, 0.071396545, 0.055387158, 0.0052374266, -0.07185281, -0.21453106, -0.3270213, -0.2567311, -0.2272288, -0.14706433, -0.06793929, -0.03565933, -0.05538338, 0.024126353, -0.019423494, 0.015114519, 0.00587884, -0.009097011, 0.017620768, 0.009912682, 0.050723705, 0.038018964, 0.05054377, 0.07014635, 0.11050094, 0.14588809, 0.1222107, 0.096260674, 0.07585466, -0.00045801702, -0.03279874, -0.13287441, -0.2221629, -0.34754246, -0.33181572, -0.24468184, -0.18744834, -0.1540441, -0.04065473, -0.028079256, -0.007861925, -0.008809063, -0.040409412, -0.020401202, -0.02932369, -0.021253213, 0.03417259, -0.010222282, 0.06043754, 0.05752322, 0.092783906, 0.05150777, 0.07834387, 0.09458986, 0.0458631, 0.02812318, -0.077187695, -0.12996252, -0.21825352, -0.33804297, -0.3313895, -0.32430422, -0.24729736, -0.19687843, -0.12947853, -0.09028738, -0.026921542, -0.04707019, -0.022870773, -0.020476408, -0.00024921537, 0.034680907, -0.015878724, 0.009228866, 0.00019778356, -0.0077858646, 0.014277291, 0.0068471474, -0.0105705, -0.008045903, -0.02073231, -0.056954935, -0.13043168, -0.23183258, -0.28305158, -0.30881453, -0.34349802, -0.2935305, -0.29149175, -0.23951414, -0.1587495, -0.14744872, -0.09560662, -0.06714616, -0.054994218, -0.041958544, -0.035999168, 0.011432166, 0.010150944, -0.04405627, -0.010889369, -0.037430856, -0.033237547, -0.055410795, -0.069725655, -0.11329836, -0.07563952, -0.10633426, -0.20253198, -0.28833857, -0.32803562, -0.3189454, -0.32091323, -0.2656053, -0.2672098, -0.18481636, -0.17679691, -0.16470869, -0.159399, -0.10770697, -0.07999789, -0.05573738, 0.01187379, -0.042113107, -0.029287169, 0.021753307, 0.008526688, 0.0052954378, -0.044952154, -0.047635835, -0.07740316, -0.1061843, -0.18886743, -0.21950755, -0.25649866, -0.27591184, -0.24280547, -0.24813223, -0.22250368, -0.25940967, -0.182813, -0.17976888, -0.18305019, -0.14179863, -0.11257175, -0.13222803, -0.09302266, -0.08684674, -0.05189979, -0.04180775, 0.0148342615, 0.02118337, 0.010537118, 0.0035242103, -0.027674245, 0.002867643, -0.010067148, -0.030867487, -0.07909299, -0.092348866, -0.13302447, -0.14367223, -0.16794264, -0.19510116, -0.14037535, -0.18251742, -0.1580984, -0.119982705, -0.1268892, -0.11522642, -0.12006799, -0.038640067, -0.063670516, -0.07799152, -0.038562186, -0.023528159, 0.011774152, 0.0023693836, -0.026876958, -0.00043602783, -0.02491033, -0.03208356, -0.0009006608, -0.012565249, 0.011591611, -0.064558625, -0.05678946, -0.1067884, -0.0798299, -0.09292288, -0.09847693, -0.09228286, -0.036732364, -0.08052108, -0.10830232, -0.07186097, -0.039034445, -0.06704586, -0.024370974, -0.05784555, -0.047590595, 0.015209649, 0.0024342686, 0.010984724, 0.018870158, -0.017718438, 0.013218636, -0.0292538, 0.007874951, 0.034427863, 0.032939855, -0.012215564, 0.009152465, 0.006422647, 0.0068371645, 0.015389859, -0.04748515, 0.01997225, -0.014353094, -0.023313405, 0.0092184525, -0.030609677, 0.006412284, -0.044389874, -0.043359485, -0.064338185, -0.010276588, -0.008733128, -0.006189686, -0.049225867, -0.048615325, -0.020283652, -0.045744013, 0.0016875847, -0.025892783, -0.02619638, -0.008849438, 0.014214095, 0.0036959874, 0.023244405, 0.032440513, -0.03755016, -0.011731624, -0.0431905, -0.03655036, -0.0015797197, 0.0050288914, -0.027726801, 0.055507522, 0.014470128, 0.00977125, -0.05833513, -0.09508526, -0.016613489, -0.06860044, -0.08650165, -0.003565943, 0.0044913953, -0.02702545, -0.018627208, 0.010340715, -0.0018882242, -0.021471636, 0.012411772, -0.030425401, -0.012949429, -0.008025272, 0.006069579, -0.022346854, 0.03153079, 0.013910043, 0.0057047936, 0.022164045, 0.023929005, -0.040345304, 0.021383481, 0.0025968752, -0.01633701, -0.010532408, -0.041236002, -0.033930175, 0.0017164728, -0.033847187, -0.09197191, -0.04820455, -0.009101678, 0.0044093905, -0.029185029, 0.0014896623, 0.003871018, -0.03107407, 0.019552004, 0.019104375, 0.0013683625, -0.028546281, -0.03258702, -0.033729717, 0.00028426186, -0.037126873, -0.045229707, -0.036432415, 0.002259059, -0.025463408, 0.032173045, 0.024257645, 0.05913092, 0.021606017, 0.018984282, -0.004724314, 0.008618731, -0.01967995, -0.0068577477, -0.030423826, -0.010132245, -0.040558543, -0.023212394, 0.030016296, 0.020317005, -0.014843004, 0.035547156, -0.02541079, -0.011100993, 0.00052631256, 0.030345622, -0.02635676, -0.047892697, -0.006227724, 0.015476604, -0.0233233, -0.011682018, 0.012918469, 0.013782246, -0.0023128, 0.015180263, -0.0022002899, -3.618319e-05, 0.013982685, -0.024070935, 0.0009459451, -0.0015426574, -0.00991662, -0.023910182, 0.0015978031, -0.0028690582, -0.002281659, 0.0011153792, -0.059877917, -0.05466098, 0.001618117, -0.016267639, -0.009889531, -0.027800463, -0.012386373, -0.010111755, -0.07161267, -0.005292066, 0.0071687694, 0.012722627, 0.008334662, 0.006413271, -0.00434166, -0.017583923, 0.029353853, 0.002581959, -0.0036289329, 0.0050864243, -0.018145543, 0.013423761, -0.03345251, 0.0026996643, -0.013463227, 0.014191728, 0.017389234, -0.051649157, 0.011417524, -0.055191584, 0.031731606, -0.008819832, -0.007875535, -0.05003985, -0.044893067, 0.016399665, 0.030172853, -0.023724578, -0.010525214, -0.0144227445, -0.0015640421, 0.0011017914, 0.022400625, -0.0062349183, -0.011596308, 0.008331131, -0.01240259, 0.00031698844, 0.016409928, -0.024293412, 0.01431822, -0.019441757, 0.019853443, 0.023464072, 0.00492074, -0.013517349, -0.02281587, -0.0574579, -0.010996627, 0.025402598, -0.011039169, 0.0123326555, 0.005099293, -0.050831035, 0.023506848, 0.017054314, -0.0062452187, -0.0019519301, -0.0047487807, -0.0018993772, 0.0038538103, -0.0074791475, -0.0029573294, 0.016055198, -0.010129185, 0.0055467566, 0.0048755035, -0.0059958086, -0.015688075, -0.0030645775, 0.0030239876, 0.0125995455, 0.0019234343, -0.020650547, -0.02156222, 0.0052572084, -0.0030933132, 0.041315842, 0.019964848, -0.025450177, -0.06254035, 0.0045235544, -0.02650056, 0.015876655, 0.011367841, -0.002363257, -0.022166088, -0.00618587, 0.022038162, -0.0024110808, 0.003224875, 0.019254236, -0.009030467, 0.0029407656, 0.005393451, -0.020522797, 0.010288434, 0.02939629, -0.0014185321, 0.0108105745, 0.03510754, -0.060305122, -0.020407163, -0.012294771, -0.04196077, 0.005754978, 0.038568284, -0.0013377134, -0.020166248, -0.011493192, -0.011577813, 0.03228421, -0.019940667, 0.008715299, 0.012881199, -0.01443407, 0.011073742, 0.0072681825, -0.00856072, 0.00548061, 0.002182256, 0.008189413, -0.025234617, 0.025405845, -0.0028469982, -0.01217856, 0.0101414025, -0.0011243443, -0.037404712, -0.0019826673, -0.03828569, -0.046401422, 0.008402067, 0.038893297, -0.020256827, -0.03587215, -0.009116315, -0.060621634, 0.024998574, -0.014722127, -0.008993631, -0.009552313, -0.016853591, -0.01655732, 0.004853652, -0.0026223003, 0.0079553425, -0.00016670421, 0.007956232, -0.012275965, 0.0053678914, -0.013899898, -0.008313866, 0.010072852, -0.007476202, -0.015829336, -0.02831335, -0.022675559, -0.09083559, -0.023302585, 0.0041075326, 0.00663759, -0.036312416, -0.05748736, -0.046738267, 0.015189744, 0.023619786, 0.028153427, 0.013874922, 0.013984877, 0.007194767, 0.008027216, -0.012854043, -0.0049230168, -0.016404277, 0.0015455086, 0.0065169414, -0.025309142, -0.0099622635, -0.005022584, -0.002306585, -0.016008537, 0.0017875779, -0.005369377, -0.032257494, -0.05409661, -0.019071547, -0.019014731, -0.005766856, 0.03462375, -0.019634472, 0.010367808, 0.0034551737, 0.028210675, 0.009067896, 0.003159822, 0.009953048, -0.008129573, 0.0044027125, -0.007203117, 0.006811763, -0.0112931635, 0.008901398, 0.019668493, -0.008046976, -0.023037072, -0.009940902, -0.021169856, -0.031112226, -0.020406704, -0.006725289, -0.026390593, -0.06001498, -0.06661226, -0.081354365, 0.008284358, -0.025118211, 0.0004254645, 0.024274537, -0.0064815925, 0.008703971, 0.012381022, 0.036628142, 0.024946297, 0.013005039, -0.0022459903, 0.010607906, -0.000486759, -0.0061220117, 0.009601504, 0.005272266, 0.009918349, 0.005450161, -0.013544218, -0.002804195, -0.010376816, -0.009815786, -0.0054647094, -0.009179797, -0.011575122, 0.010276032, -0.04402686, 0.024826005, -0.021916766, -0.016128542, 0.024136428, 0.043946754, 0.02537499, 0.0056746937, 0.014526958, -0.005634621, 0.016102765, 0.011859904, 0.0053349426, -0.028964719, -0.011829145, -0.0004176788, 0.012831978, -0.0042222347, 0.012233979, -0.0019160929, 0.023245784, 0.005877857, -0.016679784, -0.016330864, 0.0048661437, 0.039880168, 0.02614386, -0.005698699, -0.0036861391, -0.010148189, 0.046794213, -0.004637091, 0.02565717, 0.040265698, 0.024618745, -0.037037276, 0.00933714, -0.038482696, -0.042304613, -0.024023416, -0.016678156, -0.02838563, -0.016258832, 0.028297039, 0.011596067, -0.036679454, -0.00806863, 0.014240855, 0.03732159, 0.0051768576, -0.016845185, -0.025734805, -0.040976286, -0.0085617555, 0.009107952, 0.024028119, 0.023127588, 0.024972538, 0.04005209, -0.029197354, 0.027867641, -0.021223908, -0.032520354, -0.041594107, -0.03899966, -0.04860127, -0.036582034, -0.030793613, -0.054636236, -0.01351237, 0.008723925, 0.060043763, -0.025846768, -0.076620385, 0.009324332, 0.043966837, 0.019892327, 0.037486658, -0.014688383, -0.06579943, -0.016068423, -0.0039052814, 0.045300167, 0.005405871, 0.033575747, -0.034695987, -0.015375434, -0.019188667, -0.019732438, 0.010409223, 0.015034694, -0.04250299, -0.01357729, -0.05082944, -0.031374875, -0.03420442, -0.03328083, 0.009692331, 0.07116641, 0.06047108, -0.07770022, -0.114601895, 0.06978437, 0.06349443, 0.010159005, 0.08218307, 0.012588432, -0.09010454, -0.045444634, -0.045360427, -0.0032151942, 0.042942736, 0.01955098, 0.018663524, -0.005802667, -0.018123472, 0.023367295, 0.024646714, -0.02165178, -0.0067865206, 0.018980077, -0.02106773, -0.015646106, 0.04028578, 0.022213785, 0.100952044, 0.076256014, -0.0069890213, -0.12086372, -0.09813403, 0.121109374, 0.07897122, 0.054752693, 0.11882509, -0.02794076, -0.113855675, -0.09767239, -0.04687745, 0.010240901, 0.006793762, -0.002959004, 0.013121582, 0.013264939, -0.014851899, 0.003865589, -0.0074723326, 0.024127776, 0.038245928, 0.069883846, 0.076177984, 0.052590717, 0.07418611, 0.11812838, 0.11268875, 0.041194614, -0.08630245, -0.23095307, -0.014483212, 0.18792927, 0.08791068, 0.090493515, 0.15388677, -0.01837609, -0.122226015, -0.087089345, -0.08944735, -0.039824955, -0.049718793, -0.051540997, 0.026729213, -0.04580667, -0.030201815, 0.03180378, -0.0023131743, -0.011399835, 0.03589617, 0.0820256, 0.12527877, 0.10864938, 0.13308096, 0.123212576, 0.039285183, -0.053719394, -0.14553756, -0.1839066, 0.067496926, 0.20735855, 0.09754529, 0.14212556, 0.12523907, -0.03369961, -0.10656867, -0.1478678, -0.098989144, -0.07182088, -0.09656516, -0.049365457, -0.04441574, -0.028492665, -0.019343078, 0.025985474, 0.0039546154, 0.055886775, 0.0036442503, 0.087372646, 0.09971797, 0.11624267, 0.072883956, 0.02069894, -0.07960328, -0.15968896, -0.18939313, -0.1028637, 0.045814686, 0.14798154, 0.10950986, 0.10500716, 0.11585682, 0.015991617, -0.10989027, -0.13925985, -0.15318578, -0.112606235, -0.036720596, -0.0026366361, -0.048676893, -0.0015898033, 0.0064001023, -0.0019806384, -0.032492872, 0.048437454, 0.08009811, 0.05687104, 0.09243558, 0.042908207, -0.021281347, -0.10357414, -0.17687364, -0.2213581, -0.1953577, -0.08168691, 0.052971732, 0.12245094, 0.06524794, 0.087389514, 0.08918498, 0.025970135, -0.116363704, -0.16919659, -0.11462546, -0.12450504, -0.08230587, -0.05802823, -0.049797785, -0.007538062, 0.008661425, -0.046474535, 0.024866525, 0.009827141, 0.031706743, 0.031468768, 0.020496411, -0.016905582, -0.08120643, -0.23857878, -0.24005622, -0.2454591, -0.10426397, -0.035218403, 0.071484834, 0.06898882, 0.11952293, 0.13077754, 0.09479859, 0.017864952, -0.093641244, -0.13940345, -0.14057203, -0.095052354, -0.09460896, -0.057236858, 0.0024886269, 0.0020914127, -0.009793182, 0.01831747, -0.03353382, 0.008798888, 0.007284188, -0.029675886, -0.02867175, -0.085067324, -0.17167714, -0.2456258, -0.26832682, -0.20968533, -0.08594449, -0.024942491, 0.054562945, 0.096435755, 0.12534341, 0.10757753, 0.10298439, 0.031073142, -0.020615984, -0.11999097, -0.14196913, -0.094967, -0.053632714, -0.06514906, -0.042090736, -0.03709896, 0.0070181536, -0.031447727, 0.008188053, -0.038103312, -0.013913766, -0.048423283, -0.102368034, -0.13082652, -0.162173, -0.18448773, -0.19520368, -0.1323933, -0.035335943, 0.029487438, 0.08515666, 0.06782736, 0.11170561, 0.068855286, 0.079581134, 0.056853108, -0.004785289, -0.07364276, -0.047361698, -0.081278756, -0.09485688, -0.037559085, -0.011495031, -0.00060739904, -0.0072140764, -0.012432665, 0.023445724, -0.049485106, -0.06589042, -0.06214057, -0.061446335, -0.111072935, -0.092264794, -0.18015155, -0.14948606, -0.051930867, -0.043238338, -0.003243371, 0.032628413, 0.06925756, 0.07148307, 0.07145185, 0.064121224, 0.04993398, -0.023249863, 0.008410699, 0.010974682, -0.018293494, -0.04999874, -0.017264431, -0.028005144, -0.0050861924, -0.027246026, -0.018880628, -0.02263325, -0.007862046, -0.012494745, -0.0107908705, -0.030489419, -0.069879346, -0.04267552, -0.112983525, -0.05130625, -0.03392207, 0.032102313, 0.028889935, 0.051499467, 0.07690033, 0.020021606, 0.079164304, 0.042267654, 0.047186434, 0.0120707005, -0.016649073, -0.011913298, 0.008057822, -0.018904312, 0.022683458, 0.012162244, -0.017215144, -0.012922512, 0.0020843819, 0.029866908, 0.028156023, -0.02804099, -0.024685394, 0.016774297, -0.009371783, 0.031691223, 0.04125643, 0.00936148, -0.037203148, -0.043287992, -0.06724921, -0.01457766, -0.035030812, -0.013849933, -0.024518237, -0.034175698, 0.0021350353, -0.037920605, -0.0633325, -0.03861571, -0.01144681, -0.010983431, 0.014306923, -0.0065641217, 0.031612124, 0.013519295, 0.005347021, 0.019918535, 0.030219804, 0.003531938, -0.01712591, -0.02122757, 0.017015627, -0.02748256, -0.0122594265, -0.042142093, -0.078027375, -0.036804218, -0.018643547, -0.04444851, -0.05495937, -0.060650777, -0.008428562, -0.07290719, -0.008748657, -0.02873847, -0.06287106, -0.02239811, 0.01758953, 0.020824546, 0.00247263, 0.0051526614, 0.026252866, -0.03306873, -0.0318528, 0.02807076, 0.03273012, 0.024228033, 0.026189186, -0.044726208, 0.001775082, -0.0074619213, -0.003791822, -0.0263068, -0.02773022, -0.02339348, -0.055018716, -0.03798723, -0.04518024, 0.0018039158, -0.034223758, -0.04392262, -0.030077923, -0.008729854, -0.054250937, -0.033177663, 0.027694609, -0.00045542995, 0.0006895527, 0.020652272, -0.015950613, -0.020445906, 0.00980996, -0.03606947, 0.032495826, 0.03608437, 0.0034059435, -0.055814262, -0.022158584, 0.00033504935, -0.007889256, -0.0135146845, -0.037994668, -0.08328491, -0.030360103, -0.08642685, -0.08760195, -0.030989787, -0.058943357, -0.022538137, -0.0132246595, -0.04087741, 0.003445778, -0.0019111923, -0.01224485, 0.019474603, -0.04513714, 0.013307723, 3.5369685e-05, 0.0073848856, 0.03366285, 0.018080402, 0.005033125, 0.012872252, -0.0021405541, -0.015485164, 0.0065256446, 0.012818966, -0.0073141237, -0.048172977, -0.07695526, -0.036574434, -0.106686935, -0.073691905, -0.08308321, -0.03716023, -0.01531994, -0.07126559, -0.015888013, -0.011977169, -0.06294877, 0.010097437, -0.059599943, -0.0650418, -0.05989869, -0.005600582, 0.03172242, -0.02375733, 0.039030675, 0.0012202595, -0.023488019, 0.023846965, 0.043495454, 0.028990898, -0.022180969, -0.006452886, -0.00553993, -0.05311296, -0.011821691, -0.0058070105, -0.033633713, -0.020081777, -0.029660868, -0.041930098, -0.06216457, -0.021605741, 0.012025449, -0.0455929, -0.045943934, 0.010420169, -0.033180546, -0.026460733, -0.049948856, 0.017552169, 0.0122691225, 0.010798012, -0.0033765673, 0.006792378, 0.054984376, 0.011253206, 0.011541467, -0.005899331, 0.036288083, -0.01780411, -0.05067831, -0.06720811, -0.02542965, -0.016161641, -0.024488337, 0.030418612, -0.033349376, -0.022556985, -0.027692616, -0.0053406446, -0.0029218215, -0.023589453, -0.013348578, -0.03706857, -0.031989086, -0.013651611, -0.020982858, -0.04753856, 0.005265229, -0.013366677, 0.02357695, 0.019647196, 0.0032562872, 0.029528517, -0.019403648, 0.028507426, 0.02450904, -0.027263137, 0.01574401, 0.009083108, -0.002450962, -0.031257488, 0.030048003, 0.015416967, -0.040670134, 0.004888899, 0.004489957, -0.01963505, -0.036307026, -0.0011464269, -0.039404, 0.0075890515, -0.055298913, -0.03554141, -0.04984646, 0.036765445, -0.03361535, 0.01851976, 0.037705917, 0.025161123, 0.0052665826, 0.026996912, 0.05507722, 0.016978655, -0.01000307, 0.0021464534, -0.008592343, -0.02530998, -0.004913533, -0.041051697, 0.023060119, 0.05842379, 0.027849153, -0.010714378, -0.0019664797, -0.053901326, -0.030410888, -0.05477636, 0.019109104, 0.0074643, -0.009332242, 0.016874453, 0.01561746, -0.024647757, -0.00034811418, -0.01684855, 0.050635096, 0.036945693, 0.046697646, 0.039675727, 0.050922915, 0.023312766, -0.011154137, 0.0020724847, 0.013570828, 0.0018774364, -0.027817706, 0.016437417, 0.019790899, 0.07144385, 0.043998558, 0.01705482, 0.013439416, -0.008770401, -0.017071562, 0.01168449, -0.0013880352, 0.06381515, 0.012983253, 0.048319645, -0.008501015, 0.049027707, 0.0063040894, -0.027685482, 0.026160464, 0.016802097, -0.0013529038, 0.0037005865, -0.015965937, -0.0057877847, -0.0010809123, -0.022351563, 0.00324957, 0.0054726433, 0.028637, 0.027457241, -0.0053916005, 0.013574392, 0.040720303, 0.04435868, -0.00927192, -0.02631637, -0.014848752, -0.024339948, -0.009564806, 0.033667944, 0.01984803, 0.0508388, 0.006673486, 0.014156903, 0.023606958, 0.00605453, 0.021319646, 0.016896537, -0.009965671, -0.0015392918, -0.0233047, 0.020789027, 0.040284973, 0.005934998, 0.042004943, 0.021629704, 0.025798682, -0.025183018, -0.0030885665, -0.02379561, 0.037012894, 0.03396217, 0.0018945769, 0.005878399, 0.004643027, 0.01703821, 0.021878932, 0.0063484656, 0.079551764, 0.046723727, 0.026546614, -0.009341369, -0.031508744, -0.014700575, -0.010938887, 0.03392062, 0.022204429, -0.014724777, 0.034600865, 0.004886048, -0.0363223, 0.026848674, -0.0048081195, 0.011492878, 0.042331066, 0.014580281, -0.020616423, 0.007842659, 0.04753816, 0.04410097, 0.012459033, -0.024318833, -0.03174952, -0.016896382, 0.005432957, 0.06221907, 0.026352484, 0.10309274, 0.046358496, 0.03820844, -0.0023696176, 0.0059612975, 0.033561174, 0.019771593, 0.05562283, 0.05281612, 0.021039553, 0.0028848737, -0.02363343, 0.010738109, -0.0076749423, 0.041593503, 0.04518237, 0.0029936135, 0.045693602, 0.015592891, 0.044370588, 0.048126705, 0.037812237, 0.021221884, 0.005362022, 0.02978031, 0.04379973, 0.10139678, 0.06624276, 0.09297908, 0.09225818, 0.051347423, -0.012505617, -0.06810131, 0.022559749, 0.05076209, 0.011977657, 0.012304685, 0.0033416718, 0.01935625, -0.026039384, 0.013915279, -0.01736644, 0.016328022, -0.0033227904, -0.014242537, 0.047111094, 0.0536282, 0.02208614, 0.015856497, 0.058431234, 0.051304683, 0.031548675, 0.046065968, 0.10394527, 0.10065695, 0.06327963, 0.0847458, 0.1061992, -0.0015458078, -0.01029752, -0.056520358, 0.024228279, 0.020758979, 0.0132114105, 0.06660039, 0.02468891, 0.0015482029, -0.039576948, -0.034091264, -0.046329703, -0.053208802, 0.038835384, 0.0025533938, 0.056557767, 0.006866022, 0.020757379, 0.026781589, 0.007213325, -0.014281524, 0.04929611, 0.08904463, 0.10321534, 0.07302862, 0.10787776, 0.09121852, 0.037168074, 0.033166327, 0.023211, 0.0138015365, -0.027577411, -0.0030400348, 0.036550313, 0.090307586, 0.029222544, 0.0301922, -0.06556148, -0.09097033, -0.09566244, -0.019466687, 0.004678986, 0.02031442, 0.036006946, 0.010633971, -0.026097665, 0.027592251, -0.031640537, -0.017525032, 0.033371948, 0.07190766, 0.065145455, 0.059429727, 0.07228585, 0.009847343, 0.052438866, 0.03297199, 0.0121936, -0.014918363, -0.023548748, 0.05575913, 0.02525106, 0.06025689, 0.041176423, -0.00991186, -0.0736571, -0.11813006, -0.18423994, -0.055907443, 0.041480623, 0.044451293, -0.0058217924, -0.014246328, -0.031053241, -0.0020076751, 0.007461796, 0.016055958, 0.050113164, 0.01890168, 0.012297647, 0.069444165, 0.043607865, -0.02139408, 0.02873776, 0.030099392, -0.05397776, 0.01598075, 0.011042536, 0.028364087, 0.048849296, 0.03358126, -0.016926536, -0.046337854, -0.10503317, -0.16861472, -0.2060054, -0.062311497, 0.0064337985, -0.0028745267, -0.0006329057, 0.017047308, -0.010473184, -0.033641286, 0.013444446, 0.041410062, 0.012549975, 0.045722727, 0.012360145, 0.010814599, -0.0031160072, 0.025863128, 0.0016156631, -0.041031886, -0.010968549, 0.012178404, -0.026484855, 0.03942423, 0.024730023, 0.0117453765, 0.012681497, -0.025111156, -0.05744004, -0.18411231, -0.24474154, -0.08697035, 0.015112449, 0.049578894, 0.012359172, 0.042642802, -0.017578335, -0.011337291, 0.0241328, 0.031072441, 0.02999677, 0.041439474, -0.016486805, -0.015594007, -0.01991033, -0.054712586, -0.008938071, -0.058820996, -0.034203872, -0.031177381, -0.037303727, 0.009999078, 0.01002895, -0.028305897, -0.024516463, -0.023771625, -0.12056133, -0.18756598, -0.23567526, -0.14256608, -0.04459009, 0.021187944, 0.03428046, -0.021139186, 0.04325215, 0.025160996, 0.012703719, 0.0033793198, -0.00036529367, 0.02624163, 0.02682458, -0.02327672, -0.04803131, -0.06031247, -0.03689024, -0.07053427, -0.047899254, -0.015922673, 0.011584052, -0.014572113, 0.028708173, -0.007179525, 0.0056256033, -0.03710442, -0.10644496, -0.19120507, -0.17048225, -0.14345093, -0.047981147, 0.05249536, 0.02092325, -0.01789816, 0.037735276, -0.02229279, -0.015441803, -0.008974104, 0.032016665, 0.010018612, 0.02123427, -0.036492158, -0.045424223, -0.052246477, -0.08158667, -0.042233534, -0.016410355, -0.0016327127, -0.003577564, 0.012739807, 0.006492146, 0.002087008, -0.03510995, -0.0019400759, -0.08004382, -0.16076463, -0.19259441, -0.17387189, -0.07599233, -0.026053352, 0.035220645, -0.0030232747, 0.0036018523, 0.045566063, -0.000977556, -0.0034000543, -0.0015950268, 0.012798982, 0.0008622751, -0.013454092, -0.02579194, -0.071405485, -0.052562736, -0.062714405, -0.005462843, -0.016295398, 9.3950766e-05, 0.029753093, -0.008060587, 0.03574765, 0.018358514, -0.030712252, -0.057294983, -0.11551398, -0.1576289, -0.15081754, -0.12466789, -0.056067936, -0.0008106356, 0.028927185, 0.002723176, -0.0109395245, 0.021488892, 0.040432446, 0.04912853, 0.04213409, -0.011902784, -0.012886974, -0.023003012, -0.04288883, -0.03547349, -0.03671002, -0.025403656, -0.010256332, 0.002999428, 0.023284927, -0.04548354, -0.0045819944, -0.016057089, -0.0058033257, -0.028741077, -0.10422171, -0.10359162, -0.077849895, -0.1563047, -0.08205386, -0.025094656, -0.022289827, -0.013732451, -0.007916012, 0.027408842, 0.021284787, -0.017135415, 0.020039877, -0.022197125, -0.051339205, -0.02498326, -0.0241169, -0.026545716, -0.08811387, 0.0023529204, -0.03256759, -0.003988054, -0.00064445543, 0.0132374475, -0.03604227, 0.011227841, -0.021518165, -0.047884163, -0.050845873, -0.1336672, -0.12757589, -0.10983638, -0.12072003, -0.09479206, -0.036288615, 0.009227707, 0.008949054, -0.016548002, -0.008212974, -0.0296643, -0.006170189, -0.031219993, -0.024886934, -0.04230246, -0.045910466, -0.06393613, -0.03264148, 0.01379912, 0.00065861153, -0.03443331, 0.0069581596, -0.029092096, -0.019052569, -0.03861043, -0.0018936497, -0.013842723, -0.07836922, -0.06859239, -0.056946095, -0.08376781, -0.06922492, -0.026658172, -0.03727811, -0.05503143, -0.0010767909, 0.005443287, 0.044870842, 0.0005106735, -0.019966139, 0.027344259, -0.043684244, -0.012082258, -0.014973094, 0.0032926092, -0.008777423, -0.0048405565, -0.018947843, -0.013647513, 0.012386092, 0.024646128, 0.017251821, -0.05053629, 0.0035734593, 0.0058273026, -0.014107302, -0.053964727, -0.036657836, -0.032374952, -0.033321027, -0.0794172, 0.0050943564, -0.0328019, -0.0038601994, 0.015192467, 0.00636286, -0.019894052, -0.004957429, 0.009787682, -0.006939591, -0.022080673, -0.022932272, 0.012784427, -0.013599752, -0.0063665984, 0.0054768734, -0.013229942, -0.031944033, 0.022857174, 0.034149956, -0.029290607, 0.03111297, -0.0221688, 0.038644, 0.0032154012, 0.021741023, 0.037447132, 0.058584705, 0.01273053, 0.0008358888, 0.011039163, -0.007166199, 0.0029704731, 0.02770644, -0.006679563, 0.011847791, 0.024898753, -0.017128307, 0.014601848, -0.02864166, -0.019505654, 0.030763231, -0.016610082, -0.017453352, 0.020212945, -0.010983549, 0.026163919, -0.028424937, 0.010681724, -0.0047321585, 0.038099077, -0.016800392, 0.0025236767, 0.051366746, 0.02423388, -0.013198153, 0.026782248, -0.014560617, -0.018445127, -0.01760243, -0.007527547, 0.0033222756, -0.017334443, -0.032807615, -0.057636105, -0.01518845, -0.02405627, 0.023558391, -0.02173537, -0.022372544, -0.028446866, -0.032951653, 0.019488662, -0.028690642, 0.027876917, 0.035025537, 0.009877772, 0.026772274, 0.06135536, -0.01578085, 0.00066089345, -0.05077648, 0.0026055695, -0.0076077613, -0.054849364, -0.013610741, -0.083858795, -0.04042914, -0.04398145, -0.031815782, -0.051385134, -0.10536753, -0.05729943, -0.059480283, -0.0016226, 0.027692245, 0.032784786, 0.026495848, -0.021119291, 0.02267669, -0.007366415, 0.0009893413, 0.02856071, 0.02151127, -0.025322348, 0.036713157, 0.00013368852, -0.0111628575, -0.021332927, -0.005604554, -0.014503373, -0.049386036, -0.021203905, -0.06373777, -0.0543686, -0.0042633507, -0.07283561, -0.050028905, -0.077542655, -0.10790449, -0.03337234, -0.052155577, -0.015087205, 0.008159866, 0.046594188, 0.027207216, -0.0277551, -0.0018400096, -0.020540655, 0.010825134, -0.0020586606, -0.018478716, -0.046932954, -0.0057188775, -0.0069554737, -0.022731965, -0.05578455, -0.072276875, -0.056318987, -0.03686232, -0.021819353, -0.007110484, 0.015289333, -0.035927128, -0.08149358, -0.08970699, -0.035485283, -0.08012471, -0.04105482, -0.004060238, -0.027427644, -0.0043403134, -0.022087105, -0.006849651, 0.014545118, -0.012567994, 0.023362454, 0.023041418, -6.482407e-05, -0.02240982, -0.0109443925, -0.0059868377, -0.007770643, -0.010777348, -0.01587387, -0.028351417, -0.03549779, -0.02941327, 0.036577344, -0.014939327, -0.016025066, -0.04354934, -0.049980722, -0.03220352, -0.07770643, -0.022696676, -0.022226864, -0.019019427, 0.008864621, -0.0117412675, -0.0013578485, -0.0035426442, -0.022021018, -0.015683172, -0.030771125, -0.017274674, -0.035876155, -0.0024884709, -0.051994573, -0.016763093, 0.006728607, 0.00820659, -0.022740254, -0.036237568, -0.00034309895, 0.0019658022, 0.016835764, 0.012841891, -0.024556013, -0.052103568, -0.027357006, -0.033582874, -0.028680801, -0.018107034, -0.014249807, -0.023415951, -0.024264082, 0.013714802, -0.001489572, -0.035613988, -0.013547302, -0.019025976, -0.02420471, 0.0015788678, -0.0074103996, -0.056158986, -0.0052279504, -0.027832404, -0.04174694, -0.03738012, -0.036482252, -0.039562803, 0.0015894701, 0.013171093, 0.03105734, 0.009221366, -0.03129178, -0.05306153, -0.048471916, -0.028646154, -0.016900942, 0.01122443, -0.053121366, -0.0014272543, -0.06235646, -0.013474887, -0.06120043, -0.04949713, -0.010262642, 0.002134658, 0.028929131, 0.0003337758, 0.0031170782, 5.462791e-05, -0.01879385, 0.015386381, -0.020073734, -0.047693696, -0.05905461, -0.020056989, -0.03154521, 0.032833986, 0.027912524, -0.00494369, -0.04368592, -0.037264142, -0.029080728, 0.002632113, 0.026597697, -0.0040348545, -0.012468055, -0.05793287, -0.027414015, -0.0041026203, -0.0585224, -0.047117975, -0.01125021, -0.0147158215, -0.016401263, -0.029394764, 0.014133088, -0.050618116, -0.017309424, -0.038198635, 0.007445415, 0.0063265995, -0.006709888, -0.03085005, -0.012703926, 0.046565298, 0.020603051, 0.014113454, -0.036473624, -0.03191505, -0.0023482582, 0.044182673, 0.02083184, -0.0050257356, -0.027004167, -0.025815623, -0.015578892, -0.03951572, -0.046718676, 0.0060882983, -0.009653921, 0.013574202, -0.031521782, -0.0040422846, -0.03105736, -0.061391152, -0.0113445325, -0.0101064, 0.0025758946, 0.008352988, -0.008672815, -0.031254705, -0.022835772, 0.028605744, 0.05729871, -0.0029744643, -0.028366972, -0.0023930753, 0.013037939, 0.030948186, -0.0060103093, 0.007882791, -0.05735056, -0.02903906, -0.01081195, -0.0013548181, -0.033778872, -0.050458807, 0.006241482, 0.0012757734, -0.020434365, -0.009100058, -0.028287025, -0.04911254, -0.006359086, -0.0073572607, -0.025420437, -0.008430815, -0.037493967, -0.029457, -0.015219815, -0.0008234052, 0.02069723, -0.010534971, -0.0665279, -0.011028065, 0.032316137, -0.021571497, -0.031977557, -0.06301642, -0.03420019, -0.02183597, -0.072596975, -0.09109438, -0.086379685, 0.0057122936, -0.035288688, 0.022625767, -0.020255137, -0.021580227, -0.057068866, -0.06557955, -0.038136166, -0.074059755, -0.0360849, -0.021357838, -0.04881512, -0.04363692, -0.039526597, -0.014812449, -0.034283333, -0.08802702, -0.086456776, -0.048514623, -0.061229616, -0.067341916, -0.09936926, -0.09644208, -0.0834, -0.09113197, -0.0969222, -0.10101636, -0.07333066, -0.026053477, -0.01522187, 0.035394993, -0.031630393, -0.006308958, -0.0048526255, -0.025132826, -0.04822621, -0.069473155, -0.08114915, -0.07284053, -0.07934199, -0.0694143, -0.049204674, -0.061495665, -0.09401663, -0.13372889, -0.092190675, -0.08670065, -0.12416473, -0.13271627, -0.1390088, -0.107784025, -0.101099245, -0.13722742, -0.09978727, -0.0811358, -0.05608641, -0.04906723, 0.028204553, 0.001929198, -0.0038777562, -0.035218842, -0.036677066, -0.05895863, -0.029345706, -0.040031, -0.048887, -0.034526374, -0.046183717, -0.028871303, -0.011805555, 0.015691994, -0.0032690438, -0.02062304, 0.00450939, -0.00025506757, -0.028213695, -0.032662645, -0.056255266, -0.054900963, -0.05165771, -0.06623272, -0.09090074, -0.018843878, -0.05405072, -0.013018427, -0.010775495, 0.025303585, 0.017120283, 0.004050181, -0.036219638, -0.015382758, 4.5370734e-07, -0.02532284, -0.0025580958, 0.0035553058, 0.009572186, 0.053632837, 0.07502741, 0.06986443, 0.078575656, 0.10258295, 0.13160375, 0.134132, 0.09396669, 0.08513506, 0.08131809, 0.08987568, 0.048993893, 0.035982963, 0.027920805, 0.052515693, 0.048152264, 0.00741149, 0.005896376, 0.077801935, 0.03875523, 0.026738035, 0.03027294, -0.010765825, -0.0014672787, 0.04863818, 0.084614985, 0.057901256, 0.08708428, 0.06976282, 0.084823005, 0.079351276, 0.08982413, 0.098410666, 0.12468354, 0.13142054, 0.10980324, 0.11335302, 0.112057544, 0.1255438, 0.15692852, 0.12989825, 0.112649165, 0.09700655, 0.074294984, 0.029659089, 0.0940057, 0.045617484, -0.022315754, 0.006521532, 0.019799352, 0.010162745, 0.043790895, 0.073101446, 0.057847362, 0.04811703, 0.022890437, 0.02103329, 0.033589825, 0.021556884, 0.060938705, 0.052193254, 0.06462405, 0.06755958, 0.06490808, 0.08128224, 0.08905294, 0.13151184, 0.08983244, 0.08348229, 0.07389427, 0.06506197, 0.097537674, 0.08644695, 0.03214196, 0.037902225, 0.042439755, 0.00793988, 0.031725626, -0.002723362, -0.009244508, -0.0006356292, -0.008035716, -0.008416903, 0.031443395, 0.00073235587, -0.004308861, -0.0033785887, -0.016050866, -0.008901631, 0.011945606, -0.01198175, 0.030229812, 0.033269394, 0.039356384, 0.02702226, 0.013472138, 0.05657475, 0.020758528, 0.041984223, 0.022296865, 0.005263879, 0.042055584, 0.042094436, -0.005350475, 0.061622873, 0.009508747, -0.028119186, -0.009756877, -0.037112106, -0.037472676, -0.081943594, -0.04727726, -0.026480198, -0.005614355, -0.044657774, -0.020818451, -0.04032078, -0.061891727, -0.08162001, -0.07928782, -0.01655426, -0.0018048504, -0.023425065, -0.021895379, -0.0432715, -0.068636656, -0.005972594, 0.0039728754, -0.0017226163, 0.011527701, 0.011318887, 0.02467215, -0.02035238, 0.027560426, 0.0067657162, -0.008781022, -0.015460353, -0.06892657, -0.05296007, -0.03888377, -0.04562522, -0.023884106, -0.0058417455, -0.04325126, -0.030289272, -0.034143545, -0.076392196, -0.065712504, -0.07149937, -0.085568964, -0.056284312, -0.049914476, -0.06905014, -0.08281777, -0.06312628, -0.077190705, -0.022147335, 0.052022215, 0.043868296, -0.020575633, 0.034468267, 0.006675047, 0.014653143, -0.027810995, -0.04957076, -0.026270896, -0.051626943, -0.061056983, -0.049296517, -0.015998771, -0.02658446, -0.006092241, -0.049373273, -0.022265162, -0.03973966, -0.05914558, -0.08495201, -0.041506216, -0.07529953, -0.09974273, -0.11323402, -0.1046079, -0.13632621, -0.08290597, -0.063670635, -0.020211041, -0.0250822, -0.019848363, -0.00027152605, -0.03763957, -0.016381187, -0.025066484, -0.05550546, -0.061530177, -0.05048637, -0.038079333, -0.024377707, -0.05938213, 0.004628536, -0.016987277, -0.03981285, -0.022478987, -0.025269097, -0.028750826, -0.041337725, -0.025824303, -0.07514777, -0.072191626, -0.0474598, -0.115839735, -0.08950895, -0.061601676, -0.038911533, -0.012019731, 0.0020360963, -0.0051071416, 0.027548214, -0.017189102, -0.046495162, -0.041034482, -0.04923107, -0.0963216, -0.025526533, -0.06073774, -0.042050496, -0.053952623, -0.007167342, -0.007932469, -0.014108819, -0.01498366, -0.027797807, 0.0005581863, -0.028467271, -0.012598724, 0.017517675, -0.057101216, -0.04269633, -0.051779553, -0.05618354, -0.03583765, -0.037115406, -0.02479365, -0.037723895, -0.025570497, -0.035815403, 0.0062089693, -0.06688908, -0.06513903, -0.07348871, -0.08983796, -0.10754931, -0.03687002, -0.06839856, -0.048463505, -0.019465456, -0.044377938, -0.0054487824, -0.0015238895, -0.026281942, -0.0092559615, -0.009569671, 0.0036874886, -0.0050625443, -0.054520037, -0.023421288, -0.0024909738, -0.07293895, -0.019168116, -0.036763314, 0.010430711, 0.02210937, -0.0022347549, -0.014660112, 0.027910842, -0.0151438285, -0.0012216619, -0.04095252, -0.06623909, -0.0354898, -0.06010638, -0.06438966, -0.0015887724, -0.037587892, -0.05483879, -0.055053305, -0.031422578, 0.009097309, 0.027665902, 0.0064121583, 0.043726802, 0.0025690878, 0.01630156, -0.035457514, -0.031710632, -0.028542219, -0.01201922, 0.0011964199, 0.022290478, 0.002653704, 0.0035994127, 0.021435829, 0.032798816, 0.023289157, 0.009509654, 0.004113015, -0.04491308, -0.018750772, -0.021421244, -0.041942596, -0.0022977323, 0.030563677, -0.031522702, -0.023588032, -0.046316054, 0.0027770866, 0.009798574, 0.056669608, 0.011416595, 0.015254532, 0.033433802, 0.017439779, -0.032706507, -0.00053716707, -0.033084054, -0.04669833, 0.021574253, -0.028329464, -0.010965297, 0.02482925, 0.0088896165, 0.0073793856, 0.007285033, -0.051269393, -0.03286507, -0.04270542, -0.017585125, 0.02393005, 0.005641811, 0.0021154839, -0.059723176, -0.009302367, -0.043415613, -0.050099213, 0.02618149, 0.008580996, 0.007281005, 0.0038760602, 0.005078864, -0.04912359, -0.007353186, 0.01526903, -0.032259047, 0.0065128882, 0.035531852, -0.032910526, 0.007904012, 0.015934013, -0.008185761, 0.015179921, 0.0012797493, -0.0068115992, -0.015726946, -0.003194308, -0.02388763, 0.009049253, -0.03198077, 0.0120392265, -0.02135554, -0.050592184, -0.039556928, -0.046615254, -0.012287981, -0.020596799, -0.020395024, -0.025973089, 0.03371593, -0.006125302, -0.025140554, 0.03441964, 0.021136906, -0.013236166, -0.035777103, -0.031614468, 0.019484382, 0.023667064, -0.0131714735, -0.031055251, 0.010276401, -0.030377373, -0.010366607, 0.029118631, 0.039219987, 0.0014353736, 0.026812118, 0.0047251387, -0.009901932, -0.006577659, -0.046344284, -0.063255735, -0.041185934, -0.022621168, -0.02674265, -0.025877101, -0.043963037, 0.007660273, 0.007746717, -0.015718808, -0.017682899, 0.022597866, 0.018265512, 0.01611596, 0.026850302, -0.02640503, -0.016159296, -0.036533806, -0.016449159, 0.034738094, -0.0115663735, 0.013627632, -0.016057106, 0.030609287, 0.036862344, -0.032303315, -0.0219605, -0.072752886, -0.06723937, -0.04539387, -0.049900364, -0.06791328, -0.011623912, -0.023091618, -0.013007757, -0.075125754, -0.05636974, -0.056088943, -0.0013448474, 0.011804623, 0.02020321, -0.016320402, 0.007147219, 0.0360513, 0.03612415, -0.0137973, -0.030001752, 0.007588161, 0.06253636, 0.019894069, 0.07412834, 0.0060689244, -0.0041151843, 0.02036733, 0.0023558594, -0.055993367, -0.017193122, -0.049015593, -0.076913, -0.02424197, -0.06939945, -0.06727147, -0.026976477, -0.054070007, -0.055348683, -0.031692937, -0.062897414, -0.0031311696, -0.015967472, 0.02907865, -0.005222034, 0.013259936, 0.05132633, 0.019049438, -0.026080752, -0.009983962, 0.047694024, 0.0776027, 0.071727484, 0.055105276, 0.02725542, 0.009720909, -0.008493885, 0.0051542167, 0.03300477, -0.025179412, -0.014506758, -0.018137485, 0.013415087, 0.0044989847, -0.013103374, 0.004321719, -0.010297714, 0.02933343, -0.0115565965, -0.0035690407, 0.0042438954, 0.02726759, -0.011086467, 0.038541388, 0.05005344, 0.031781454, 0.0012780702, 0.058796916, 0.0716694, 0.072784945, 0.03886057, 0.01950868, 0.042852957, 0.06150363, 0.035247624, 0.00057018234, 0.026655499, -0.017133508, 0.004040384, 0.02279961, 0.033786573, -0.0074777775, -0.012354317, -0.015012433, -0.017313395, 0.043723382, -2.4224379e-05, -0.0019628857, 0.07146052, 0.059236847, 0.01261734, 0.021171715, 0.03598184, 0.001584449, 0.04779347, 0.03208301, 0.064519696, 0.02752002, 0.024709044, 0.06271293, 0.0694567, 0.0595367, 0.068965144, 0.025559016, 0.045340948, 0.027860811, -2.895959e-05, 0.019691981, -0.0065819626, 0.001077738, 0.044078596, 0.045542657, 0.019662226, 0.015491535, 0.029648667, 0.021510284, 0.0088970885, 0.0063712294, 0.044429127, 0.030431418, 0.026332537, -0.00072697754, -0.011156853, 0.0010117652, 0.036585163, 0.061133888, 0.04502986, 0.022999302, 0.08232007, 0.059897877, 0.02531706, 0.068061955, 0.024298266, 0.009833196, 0.044975925, 0.013715404, 0.00074005214, 0.019448878, 0.0072211996, -0.006428945, 0.036605194, 0.008055566, -0.00697019, 0.047297295, 0.049540658, 0.03263977, 0.037431467, 0.047236837, 0.035631426, 0.04437505, -0.017195024, 0.025844237, 0.019401176, 0.021377562, 0.006367833, 0.03739016, 0.01975915, 0.025700744, 0.026157359, 0.012800753, -0.0053921323, -0.00025968143, 0.04196907, 0.016958589, 0.014309536, 0.011929979, 0.023681412, 0.034708306, -0.03496958, 0.008208978, -0.005572155, 0.024461368, 0.037335288, 0.051588733, 0.012315636, 0.03471525, -0.008773839, 0.0008234839, -0.030297536, -0.0048651495, -0.023260744, -0.041582126, -0.020793045, 0.012998919, 0.035967316, 0.012092625, -0.029622663, -0.024269154, 0.003512151, -0.03182464, -0.013041244, 0.017331174, -0.0040550786, -0.025376253, -0.033856317, -0.009234336, -0.027057216, 0.01623417, -0.024705686, -0.0057673343, 0.045108657, 0.045914195, 0.03572614, -0.016255055, 0.010189707, -0.016619572, -0.02945109, -0.0746263, -0.07712511, -0.022336584, -0.0065739066, 0.038721204, 0.017854672, 0.078210056, 0.02867734, 0.023447832, -0.041481353, -0.036937807, -0.05408244, -0.069625765, -0.016619954, -0.011982861, -0.01750972, 0.004632742, 0.03552027, 0.027091155, -0.04923676, -0.021747462, 0.036804758, 0.07062927, 0.042710517, -0.049609933, -0.052172825, -0.039736815, -0.07859496, -0.052235592, -0.09652599, -0.09115793, -0.058918823, -0.016929138, 0.083212726, 0.09584616, 0.06683277, 0.054538433, 0.049469024, 0.047186647, 0.033764962, 0.05665461, 0.07104014, 0.024198893, 0.0682013, 0.03950601, 0.044462755, 0.020761412, -0.031082226, 0.022826703, 0.045495737, 0.00094293227, 0.024533171, -0.019653581, -0.085188404, -0.053092886, -0.112157695, -0.13852961, -0.14159471, -0.10260615, -0.09581144, -0.07020801, -0.011506157, 0.027344255, 0.09228774, 0.07718132, 0.105316125, 0.14166869, 0.1379471, 0.15311067, 0.10319353, 0.085437, 0.02298515, 0.021430427, -0.013934771, -0.04586565, -0.024425387, -0.05350761, -0.045914415, 0.013443416, 0.008228389, -0.0064017456, -0.04486117, -0.088957146, -0.0895034, -0.067926206, -0.046458278, -0.07248454, -0.078770876, -0.06467676, -0.05216785, -0.050455876, -0.034417197, -0.06543056, -0.056350794, -0.001065609, 0.027367454, 0.0009091156, -0.0083942395, -0.011868867, 0.019368839, -0.041347053, -0.038585044, -0.079409614, -0.051871017, -0.00785835, -0.028285742, -0.035363562, 0.02409863, -0.068526916, -0.009437399, -0.088058785, -0.05005282, -0.0014419061, -0.018322099, -0.014319268, -0.009417774, -0.0064406646, -0.02437636, -0.018671976, -0.0597873, -0.09923873, -0.113296576, -0.1371294, -0.07288017, -0.068593875, -0.039295282, 0.028160797, 0.045546517, 0.0368207, -0.0072212005, -0.010243926, -0.03470603, 0.04149818, 0.03380878, 0.027067168, 0.015968865, -0.009027364, -0.067428626, -0.007970758, 