#include "nn.h"


int num_hidden_layers = 3;
int width_hidden_layers = 100;

double hidden_layer_weights[][LAYER_WIDTH_PLACEHOLDER] = {
{-0.02929995, -1.148507e-05, -0.007463455, 0.010137893, -0.025754265, -0.022181423, 0.009505566, 0.0020035426, -0.011744333, 0.0127099715, -0.034587163, -0.029079743, -0.016633077, -0.022317579, -0.06020525, 0.014164325, -0.010710257, -0.05506427, -0.014178763, -0.020171458, -0.036323465, 0.00689098, 0.014590392, 0.028542472, -0.014987389, 0.032417707, -0.014571561, 0.015756905, -0.03419234, 0.03468897, 0.017923776, -0.008511483, 0.01530974, 0.04561394, -0.007263238, 0.038221814, 0.004719082, 0.01874354, 0.037439972, 0.018589951, -0.025924042, -0.02246388, 0.021465153, 0.022887744, -0.006128181, 0.031153925, -0.012076253, -0.048602715, -0.008324243, 0.008294815, -0.03451431, -0.017430505, -0.032717995, -0.0015861129, 0.019109534, 0.030126486, -0.02232137, 0.012340369, 0.030620018, 0.016800059, 0.018732045, -0.020172933, 0.0046971235, 0.028890358, 0.0039896104, -0.01058472, 0.0012038046, -0.04429089, -0.039342962, -0.013719451, 0.0035111345, -0.019460013, -0.022950856, -0.02393957, -0.02648092, -0.005482061, 0.037009712, -0.025135282, 0.017375736, -0.008489035, 0.041254815, -0.015259651, -0.038474414, -0.0056591053, 0.016428981, 0.025907764, 0.030331424, 0.042438593, 0.031906623, 0.0123853525, -0.016974816, 0.011197872, -0.024761185, -0.011558591, -0.013654936, -0.0023146686, -0.0009804505, -0.030230148, 0.00647738, -0.033370897, 0.01057969, -0.027029468, -0.0027910548, -0.02504068, 0.028650125, -0.04352676, 0.030999938, -0.014179032, 0.01337122, 0.00090999197, -0.0023682152, 0.00941675, -0.01574032, 0.014626407, 0.037083074, 0.0295225, 0.039324336, 0.000292666, 0.0045548547, -0.038985025, -0.031449724, 0.0170371, -0.028983131, -0.03874, 0.013664366, 0.026809756, -0.009557725, 0.017283438, 0.010950105, 0.0038016036, -0.017750995, 0.013147225, -0.007543926, -0.016586242, 0.0034019586, -0.008089069, -0.0010139507, 0.017186034, 0.046674907, 0.016285218, -0.0007316362, -0.01691284, -0.007006549, -0.040440723, -0.019851448, -0.011225059, -0.005416298, -0.017090498, 0.0027298245, -0.0020932509, -0.0018616098, -0.014511226, -0.010247352, 0.0037789773, 0.02057916, 0.006519558, 0.009774784, -0.01246862, -0.014093056, -0.00071143545, -0.0041286633, -0.042428456, -0.018165322, -0.033846006, -0.020033736, -0.036068372, 0.0021435884, -0.0022330864, 0.013585379, 0.03369081, -0.010046195, 0.017823754, 0.0095650125, 0.027319778, 0.0072378796, 0.041223444, -0.016628124, -0.0075234086, -0.01427441, 0.011030863, 0.002432214, 0.0030660646, -0.0052776877, -0.00053772633, 0.01976766, -0.0018696551, -0.0009662038, 0.002613063, -0.003757318, 0.009827105, -0.011424935, 0.029334612, -0.0073706303, -0.029723836, 0.0129354615, -0.018978884, 0.017731436, 0.03760758, -0.0048067933, 0.024635801, 0.034647807, 0.008023761, -0.0033359835, 0.020018913, 0.020452986, 0.0023847949, -0.004206522, 0.007103125, -0.024079219, 0.010190447, 0.0007122743, -0.009743689, -0.03647863, -0.01080087, 0.0050458773, -0.0003813879, 0.009275915, 0.041706305, -0.012653459, 0.009554784, -0.00030516624, 0.029147977, 0.005338112, -0.008752553, 0.052915197, 0.04510285, -0.003976275, 0.024627397, 0.025724817, 0.014068775, -0.0020531432, 0.022200145, 0.032949127, 0.003351246, 0.0019567728, -0.009078369, -0.010465699, -0.015369101, -0.007293299, 0.018117193, 0.010346766, 0.010077132, 0.013735503, 0.019730559, 0.0028543628, -0.009949777, 0.015986927, 0.01320571, -0.001803013, -0.01415966, -0.026751284, -0.01036971, 0.045275494, 0.020142537, -0.02127356, 0.011349243, 0.018778007, 0.012523698, 0.015800126, 0.008673283, 0.011487072, 0.025516894, -0.0004282577, 0.020106763, 0.013683757, 0.016048452, 0.015966786, 0.015221679, 0.018097196, 0.0068854676, 0.012541055, 0.006479895, 0.013809118, 0.019665135, -0.0031553523, -0.008683984, 0.008044147, 0.02063383, -0.020862304, -0.027903985, 0.039640892, 0.008495575, -0.015257752, -0.037987042, -0.046495214, -0.04471989, -0.03488887, 0.005774797, -0.01300803, 0.0043032565, 0.017883081, 0.01490314, 0.02354079, 0.015153913, 0.01309818, 0.0037535017, -0.0027107317, 0.0009655103, 0.0033194593, -0.0077297473, -0.023917576, -0.01203043, -0.018497167, 0.01087016, -0.012574149, -0.0063280934, 0.003469748, 0.02370617, -0.007090164, -0.0017797404, 0.022267312, -0.00083525694, -0.025941867, -0.035174537, 0.0014009443, -0.054270305, -0.024069728, -0.0446272, -0.018712375, -0.01725938, -0.016537562, -0.027846461, -0.01622475, -0.01724251, -0.008484578, -0.012550833, -0.010922927, 0.0033206881, -0.023400893, -0.005694427, 0.002626193, -0.021928318, -0.0019473953, -0.007763756, 0.046566747, 0.054129872, 0.010689951, -0.036594052, -0.0024707713, -0.039577827, -0.017975036, -0.022176167, 0.020223456, 0.01323776, -0.028941244, -0.052181117, -0.05614682, -0.03218777, -0.020909308, -0.011529104, -0.004190742, -0.0075563528, -0.012422731, -0.009060057, -0.00039986282, -0.008029107, 0.028387267, -0.003668759, -0.005569989, 0.0023924336, 0.029813955, 0.028963482, 0.012972077, 0.0077541587, 0.04224593, 0.013985676, -0.056187425, -0.057611622, -0.016149996, -0.010948677, 0.053066358, 0.021658445, 0.051928796, 0.029571638, 0.013765724, 0.028689783, 0.015075468, 0.006222046, 0.0022767303, 0.010390955, 0.008501101, -0.0012436166, 0.007220461, 0.0015792247, 0.010450745, 0.022789326, 0.003209277, 0.0012081255, -0.032063153, -0.008296274, -0.04593768, -0.012979851, -0.010092829, -0.02177148, -0.08297804, -0.120022535, -0.13763809, -0.061744936, -0.011379441, 0.07985359, 0.11726613, 0.11728232, 0.11925922, 0.09404119, 0.09701119, 0.059993595, 0.028966647, 0.015452808, 0.016693115, -0.0024367569, -0.0069128755, 0.0024408998, -0.019065438, -0.0024572837, -0.011117772, -0.018396262, -0.06409664, -0.0534124, -0.025931409, -0.02537593, -0.022971136, -0.010071541, -0.08913612, -0.1579326, -0.16043364, -0.17019504, -0.14414537, -0.037447788, 0.032070734, 0.074274756, 0.097314626, 0.08886193, 0.07326654, 0.067985214, 0.04243896, 0.02807609, 0.0038129864, 0.004031884, -0.023243772, -0.006441115, 0.001245953, -0.034704722, -0.029907728, -0.011395723, -0.008042071, 0.03128448, -0.021350333, -0.013152637, 0.0538282, 0.0037240707, -0.07098095, -0.10452466, -0.20844918, -0.27557924, -0.3171048, -0.31597793, -0.24465287, -0.17997456, -0.10206224, -0.100737415, -0.071932524, -0.049196232, -0.033103563, -0.032758422, -0.00247873, 0.004848112, 0.015362853, -2.0697422e-05, -0.011592293, -0.009992312, 0.0006345217, 0.008085153, 0.0074392483, 0.042547192, 0.02863769, 0.025199149, 0.047387253, 0.024250584, -0.079953596, -0.067123406, -0.095079094, -0.20082894, -0.24421105, -0.37335348, -0.43318534, -0.40101486, -0.36205637, -0.26869342, -0.22931963, -0.11874311, -0.065352105, -0.03303324, -0.016789133, 0.004675243, -0.0041119894, 0.020683065, 0.0068954583, 0.010494546, 0.0016000994, -0.01693626, 0.006424426, 0.024053669, -0.0068037254, 0.034708437, 0.015936939, 0.019707775, 0.014813622, -0.017797543, -0.040266376, -0.043088194, -0.073828265, -0.083877616, -0.09435469, -0.13676405, -0.12417475, -0.0909112, -0.057404257, -0.044115625, -0.014516616, -0.005689919, -0.016051464, 0.0038910764, 0.008778994, 0.0035924546, 0.00041027227, 0.0233998, -0.00015534973, -0.013171108, 0.064378515, 0.045436345, 0.03672766, 0.035376683, 0.054438315, 0.011739679, 0.06285658, 0.03923518, 0.046778157, 0.038983025, 0.09743334, 0.10127286, 0.103413776, 0.13976656, 0.1533238, 0.14475329, 0.103160106, 0.07450521, 0.024288975, 0.02229605, 0.008337144, 0.014695374, 0.004020136, 0.016349174, 0.01187178, 0.030088548, 0.014041744, 0.028015146, 0.043298606, 0.0060916836, 0.048304636, 0.010831549, -0.005500729, 0.033966366, 0.04648715, 0.045556873, 0.06265117, 0.1329826, 0.11320892, 0.17078698, 0.16268256, 0.14044058, 0.12256542, 0.1148377, 0.08084805, 0.03218491, 0.01808993, 0.0073053488, 0.017281422, -0.01676018, 0.029233376, 0.0006653875, 0.04154437, 0.002510699, 0.012599027, 0.012711345, 0.02651372, 0.024371464, -0.01556063, -0.029525045, 0.036173027, 0.018141251, 0.01510044, 0.07349638, 0.10870997, 0.111503094, 0.10351948, 0.07449393, 0.06381973, 0.07564148, 0.050864097, 0.0152276745, 0.010534473, -0.0050620944, -0.004112591, -0.013495511, 0.0044208616, -0.00089735957, 6.363494e-05, 0.014475666, 0.010389954, 0.018509805, 0.02854103, 0.007964331, -0.022742987, -0.010988895, -0.0065989466, 0.0067217215, -0.00513634, 0.03462137, -0.011224312, 0.028325425, 0.06714471, 0.055930275, 0.04243656, 0.0652148, 0.019296573, 0.027929688, 0.010847899, -0.009636778, -0.022952659, 0.017112985, -0.018290438, -0.006903565, -0.018118855, 0.004312021, 0.01175988, 0.0027298848, 0.03943247, 0.026956353, -0.003421044, -0.004856483, -0.010287143, 0.0032056076, -0.047088314, -0.009306198, -0.010511974, -0.016737519, 0.031071387, -0.014549446, -0.008988584, 0.018062638, 0.0036797163, -0.013944344, -0.00323252, 0.016906898, -0.0038555115, -0.02715037, -0.01959868, -0.011212575, -0.0041259853, -0.03222652, 0.0038599628, -0.0033377577, 0.015561228, 0.005976702, -0.01327118, -0.031298567, -0.003464597, -0.010248043, -0.044817578, -0.009043828, -0.044428594, 0.024370195, 0.016094316, -0.0016412111, -0.01793961, -0.008033146, -0.03413853, -0.058135394, -0.05696489, -0.06756903, -0.054830395, -0.057920713, -0.049933657, -0.04961932, -0.012332371, -0.016919991, 0.009819922, -0.039435707, -0.009929044, -0.029855592, 0.012960493, -0.022661928, -0.014355246, -0.012976331, -0.051113866, -0.04377612, -0.015834777, -0.017143058, -0.0026239285, -0.007517127, -0.02870251, 0.018477796, -0.03656822, -0.034606874, -0.08001103, -0.034855083, -0.04283333, -0.09731898, -0.075755015, -0.06263791, -0.048716296, -0.04534365, -0.033908416, -0.026481152, -0.03228383, -0.02316151, -0.02944682, -0.032013573, -0.025415923, -0.04522592, 0.018609148, 0.014286659, -0.00033147048, -0.04558163, -0.020036193, -0.025261354, -0.028964499, 0.0035366735, -0.0015975586, -0.037807077, -0.009108053, -0.044743832, -0.021611188, -0.04234849, -0.028664518, -0.024244627, -0.05765082, -0.053324655, -0.030902777, -0.055129718, -0.007893637, -0.06888119, -0.06411731, -0.017364202, -0.07056038, -0.049606703, -0.008328753, -0.06339153, -0.053884014, 0.0023696397, 0.025745545, -0.034973416, -0.0025131828, -0.023551216, 0.037496995, -0.02631703, 0.008887164, -0.03254608, 0.034390442, 0.04457223, -0.022295654, 0.03639184, 0.0071533765, 0.024038665, -0.026600946, -0.048867956, -0.057922617, -0.036724843, 0.02347413, -0.028096262, 0.005539218, -0.041924093, 0.005732849, -0.030374283, -0.012003385, -0.026861345, -0.035248965, -0.014066162, 0.003818989, -0.022132268, 0.03522967, 0.008899171, -0.03357337, -0.005231006, 0.022967082, -0.0130016, 0.011909427, -0.03631791, 0.015694674, -0.039903186, 0.004831446, -0.04307648, -0.040888418, 0.027204895, 0.012072325, -0.047825128, 0.033081833, -0.036610823, -0.023658603, -0.05957903, -0.010302452, -0.008910712, -0.017054547, -0.033503734, -0.014771641, -0.040408824, -0.047161624, -0.042355582, 0.0041542966, -0.01771767, -0.026458342, 0.014276543, -0.011720555, 0.015988417, 0.029968813, 0.00078110624, -0.03969638, 0.02138638, 0.031525925, 0.005231004, 0.0071646757, -0.023664096, -0.00262309, -0.035616476, -0.06937061, -0.042826626, -0.04934853, -0.040354036, -0.01317285, -0.04135901, -0.0051407493, -0.03145591, -0.039497774, -0.09277464, -0.053952206, 0.0051784534, -0.039946772, -0.033092704, -0.01890782, 0.0023284114, -0.030006425, -0.014189093, 0.0070318263, 0.057798263, -0.006181343, 0.0361172, -0.019868271, 0.0022475375, -0.005797437, -0.0028345832, -0.06414848, -0.044135697, 0.0010199351, -0.04220062, -0.08405534, -0.060721107, -0.04606757, -0.04062704, -0.023762051, -0.046529118, 0.0019303483, -0.020423528, -0.0062037758, -0.070743024, -0.061059024, -0.04169677, 0.018473068, -0.02015997, 0.002289433, 0.0041624005, -0.0063835476, 0.009870017, -0.016879568, 0.01682275, 0.013131681, -0.029774962, -0.0026230663, -0.030076543, -0.018634561, -0.0146531565, -0.018361127, -0.09932465, -0.077868454, -0.07064843, -0.08027227, -0.02063683, -0.027519934, 0.013152562, -0.030970043, -0.045122806, -0.008212446, -0.022535872, -0.06806464, -0.081003785, -0.06149634, -0.044484463, 0.0018945546, 0.0036484294, 0.038766496, 0.043085102, -0.023516938, 0.03938034, -0.0073876046, 0.013866805, -0.008194697, 0.022189738, -0.034785897, -0.044485163, -0.03634043, -0.051028613, -0.042288575, -0.045819927, -0.03234167, -0.034108385, 0.0106944395, -0.022517983, -0.009590393, -0.037895415, 0.009041679, -0.03458478, -0.0066884574, -0.07470938, -0.039644185, 0.0004392488, 0.046826582, 0.001021071, 0.036897343, 0.01052718, 0.014997376, -0.0138427075, -0.04978203, 0.022071319, -0.007054433, -0.007491433, -0.06259067, 0.00075464067, -0.048718907, -0.0696758, -0.061034556, -0.040609356, -0.013157525, 0.013134794, 0.06483149, 0.042751893, 0.0220835, 0.03778319, 0.017630046, -0.044799447, -0.06280497, -0.07411963, 0.01158217, -0.0436276, 0.048458878, 0.05643787, 0.0057540233, 0.022375925, 0.0138210645, -0.034932382, 0.024171855, -0.037715532, -0.054272402, -0.06774116, -0.056011263, -0.08305242, -0.06521446, 0.0019354324, -0.067223705, -0.04709896, -0.042328767, 0.024699746, 0.073971584, 0.06546383, 0.033139437, -0.003387404, 0.023460232, -0.016953046, -0.040318467, -0.026767476, -0.049773466, -0.009831503, 0.0023479788, 0.02831628, -0.0033770793, -0.008586616, -0.0019787883, -0.024603678, -0.011143524, -0.052359167, -0.060317628, -0.078427255, -0.025181826, -0.05411226, -0.033895843, -0.08520194, -0.025937505, -0.055736907, -0.03187952, 0.034263868, 0.101652324, 0.07116841, 0.089560375, 0.025454435, -0.014158193, -0.029651461, -0.010747259, -0.027217442, -0.024208626, -0.036217168, 0.030218638, 0.013216635, 0.017499072, 0.050068397, -0.011784958, -0.03875114, -0.065212265, -0.097134106, -0.105056584, -0.054722752, -0.002158718, 0.007895892, -0.0053119957, 0.0015346454, -0.026700001, -0.029031403, -0.013722325, 0.0453903, 0.10307537, 0.08243469, 0.06641276, 0.0395904, -0.008460487, 0.051087588, -0.016265132, -0.011998897, -0.03633714, 0.012772881, 0.051017836, 0.051570967, 0.0363177, 0.043196492, -0.0038760405, 0.0033000475, -0.08851029, -0.078772455, -0.063554645, -0.0052925306, 0.0034394977, 0.035212703, 0.046180148, -0.016604394, -0.10029433, -0.04259866, -0.002019687, 0.048953786, 0.06750982, 0.06000597, 0.017740268, 0.040329855, 0.03626819, 0.043712866, 0.0040049525, -0.0048110806, 0.03338278, -0.014427308, 0.032048505, 0.0048516328, 0.053346053, -0.007374185, 0.0022859564, -0.016500713, -0.060525574, -0.027836137, -0.059792567, 0.030411307, 0.08624657, 0.05353236, 0.06075109, 0.012621232, -0.062379573, -0.017321998, 0.030047689, 0.03635942, 0.009021802, 0.002458934, 0.03666018, 0.06437943, 0.010598756, 0.049113035, 0.0110269245, 0.03211306, -0.042848993, -0.014213767, 0.005263074, 0.014539498, -0.026441887, 0.032428943, 0.023438143, -0.015591538, -0.0060891886, -0.019608526, 0.002051359, 0.06801276, 0.10939937, 0.11154373, 0.040682837, -0.012501706, -0.032120418, 0.04780211, 0.035734415, 0.03352614, 0.051105127, 0.0052981325, 0.046231586, 0.050912324, 0.055977784, 0.03483373, 0.038518906, -0.0064243246, 0.012015412, -0.039934233, 0.011534486, 0.02433515, -0.0022697605, 0.005588271, 0.02811676, 0.039595626, -0.017793255, -0.0008069812, 0.050872386, 0.08822575, 0.12796782, 0.1059344, 0.048674226, 0.061327085, 0.07845469, 0.066048115, 0.08278227, 0.02550534, 0.014043056, 0.010431021, 0.042103514, 0.0637247, 0.034589417, 0.07228192, 0.04505604, -0.01724947, -0.054347914, -0.031078825, 0.04316351, 0.0147201875, 0.0081951, 0.025156802, 0.0387417, -0.00040453463, 0.048451643, 0.049767736, 0.05843945, 0.059226915, 0.05986439, 0.049160793, -0.024175799, 0.06802053, 0.029912584, 0.06048927, -0.007565156, -0.021882012, -0.0014038528, 0.020729942, 0.06366793, 0.09732754, 0.050004296, 0.054047056, 0.10091111, 0.041573007, 0.036702372, 0.019330034, 0.03502056, 0.06084512, 0.04152175, 0.06688972, 0.11148685, 0.066330045, 0.07754122, 0.03629747, 0.060859155, 0.056867067, -0.036234677, -0.06276497, -0.02034571, 0.023662904, 0.025912022, 0.07447232, -0.005732122, -0.04752439, -0.013519496, 0.071812354, 0.11189578, 0.09439533, 0.059556086, 0.068368174, 0.026518976, 0.012180128, 0.03500866, 0.022836067, 0.07138925, 0.077009596, 0.07161809, 0.09890219, 0.09666436, 0.037275556, 0.052237533, 0.0702545, 0.0800537, 0.06079031, 0.005202955, -0.004468425, 0.007521965, 0.051670015, 0.073979914, 0.035911757, 0.023928458, 0.014049389, 0.03692615, 0.043718003, 0.10543223, 0.07530864, 0.031386714, 0.06982991, 0.059976783, 0.027924428, -0.013817517, 0.00020801902, 0.0698572, 0.10170859, 0.09893199, 0.09306844, 0.047153544, 0.08765057, 0.08854359, 0.086467125, 0.06874233, 0.08786961, 0.040658377, 0.053879067, 0.07903249, 0.049686354, 0.07064364, 0.019941937, -0.040011313, -0.017452804, 0.021404218, 0.03109755, 0.072798535, 0.07670547, 0.026367128, 0.06140239, 0.032545645, 0.04865922, 0.03356757, 0.00933146, 0.028807202, 0.07134553, 0.10091118, 0.06284128, 0.07432062, 0.0581409, 0.013242859, 0.04002515, 0.032106947, 0.033137295, 0.0604662, 0.07167266, 0.0869741, 0.04485238, 0.016227076, -0.02183367, -0.038467087, -0.002014876, 0.053610716, 0.06982498, 0.07781682, 0.044326138, 0.040783085, -0.019765284, -0.01514975, -0.010424851, 0.000903946, -0.0028291421, 0.08440673, 0.071033165, 0.03320382, 0.081554145, 0.041562546, 0.067448415, 0.005622253, 0.0032231624, -0.0016860504, 0.029124932, 0.07407892, 0.06597177, 0.07328853, 0.021428786, -0.029455647, -0.027816484, -0.027284237, -0.012785372, 0.025279254, 0.04691544, 0.04901901, 0.009716685, -0.015763784, -0.05862008, -0.04622254, -0.008741775, -0.039548226, 0.056619532, 0.04866176, 0.05653711, 0.020543035, 0.053304523, 0.054637335, 0.021253657, 0.055603724, 0.022320746, 0.028652072, 0.05751337, 0.07619509, 0.04292757, 0.05258135, 0.020034766, -0.012516093, 0.031901732, 0.028561968, 0.006171425, 0.034515977, -0.009597842, 0.0117587065, -0.048214525, -0.021720633, -0.060078263, -0.052926343, -0.05243063, -0.056256756, 0.02874357, 0.048915174, 0.009227044, 0.016630735, 0.0114650475, 0.029028848, 0.0659503, 0.044391915, 0.016102504, 0.03296245, 0.059380572, 0.082012646, 0.01859775, 0.08620008, 0.024507187, 0.009440502, 0.052328177, 0.004296702, 0.03070873, -0.011572439, -0.024875581, -0.017105978, -0.07683201, -0.030174183, -0.09877862, -0.05011578, -0.025193205, -0.04512344, 0.020077217, 0.019663315, 0.047586374, 0.06094981, 0.06425282, 0.001548766, 0.07352318, 0.027906172, 0.0067855045, 0.03897794, 0.047138046, 0.027665868, 0.06449097, 0.05123035, 0.018257152, 0.06370077, 0.040635787, 0.022972444, 0.0047761537, -0.02080198, -0.08820881, -0.06314731, -0.044883534, -0.09648983, -0.11109446, -0.042793375, -0.078803204, -0.026326932, -0.029264733, -0.019665528, 0.013689094, -0.029058037, 0.033010837, -0.026197812, -0.011426604, 0.03726892, 0.038498882, 0.04266717, 0.020804653, -0.006621158, 0.03185134, -0.010254338, 0.01245464, -0.014233182, 0.0057393624, 0.009261641, -0.034501787, -0.07176221, -0.058278415, -0.09556236, -0.090912305, -0.05852497, -0.12806597, -0.058697827, -0.066413745, -0.034995526, -0.025057778, 0.051787034, -0.0022011634, -0.036672216, 0.022123046, -0.013234464, -0.025882615, -0.021499151, -0.028128512, -0.0007107812, -0.0059942245, -0.0050110104, -0.028534932, -0.006503894, -0.0074390504, 0.003236533, -0.036971036, -0.028944967, 0.0037190707, -0.03377618, -0.054097343, -0.05623948, -0.092071556, -0.09438951, -0.056653786, -0.032953933, -0.061099432, 0.020175163, 0.020539107, 0.027968546, -0.013987604, 0.013140828, 0.0020236727, 0.0059874523, -0.016949773, -0.013618193, -0.031817086, 0.0037683109, -0.012575295, -0.038914, -0.023168322, -0.043905172, -0.012818158, -0.030595863, -0.03716779, -0.041648857, -0.079827115, -0.09122776, -0.06703892, -0.110445395, -0.08376059, -0.098515436, -0.08168796, -0.087187335, 0.00019917455, -0.002213015, 0.017285956, 0.027660446, 0.028173484, 0.041081354, -0.01375232, -0.02967591, 0.018831523, -0.018701453, 0.009708624, -0.039484065, -0.015813168, -0.031401984, -0.053226516, -0.03136096, -0.009691355, -0.014563091, -0.025871044, -0.06964845, -0.054013677, -0.054729182, -0.07806183, -0.040913574, -0.04007572, 0.0012950808, -0.029068511, 3.286187e-05, 0.0124318795, 0.020057129, -0.002907598, -0.00085841696, -0.024727808, 0.014902475, 0.029053561, 0.0317182, 0.009756068, 0.031429708, -0.008842149, -0.0067110304, -0.032688096, -0.020833123, 0.014024981, -0.05201832, -0.022328267, -0.057386525, -0.0460109, -0.03180883, -0.031690728, -0.030259611, -0.038277213, -0.05989196, -0.02347032, -0.00910021, 0.024611088, 0.034455806, -0.022214897, 0.027570989, 0.02721681, -0.007780038, -0.03456696, -0.01556169, 0.005693751, 0.05331215, 0.021412415, 0.004978435, -0.0038885192, -0.010319071, 0.0062884595, -0.01643132, 0.022524659, 0.03476883, -0.009476313, -0.006143237, 0.018160133, -0.039405182, -0.014980795, 0.009324505, 0.0015400753, 0.0060909414, 0.026508741, 0.025435267, 0.03105343, 0.016648209, -0.024624249, -0.007978516, -0.013014268, 0.0023066066, 0.007568322, -0.018659545, -0.031058928, -0.035998147, -0.01335334, 0.03166708, 0.022168294, 0.0019707917, 0.002529985, 0.0447845, 0.016014984, -0.0006130364, 0.030977355, 0.016308581, 0.031704262, 0.023151034, 0.03965556, -0.0015199609, -0.0026366373, -0.013206357, -0.034362033, 0.030429555, 0.007826299, -0.00051644706, 0.04213803, 0.030275788, -0.011246502, -0.018014649, -0.028250717, 0.008710814, 0.036259852, 0.0027811145, 0.036098797, -0.014741269, -0.009298644, 0.022386378, 0.07046942, 0.02406303, 0.00395886, 0.008979674, 0.059451323, 0.028870404, 0.034928832, 0.032702815, 0.022936128, 0.015880134, 0.0041086734, -0.05729081, 0.0060459026, -0.01843347, -0.012511886, -0.014947788, -0.026763614, 0.04128668, -0.027957285, -0.018999876, -0.008850838, 0.023178572, -0.012545115, -0.03448019, 0.020898629, -0.034656066, -0.0064001614, -0.023619993, 0.018580994, 0.009840288, 0.06123446, 0.05051971, 0.040501487, 0.009536531, 0.042507987, 0.051655058, -0.013945823, 0.015748862, -0.019668126, -0.03873281, -0.06103577, 0.0040612756, 0.022805331, -0.028536148, -0.013110411, 0.017502263, -0.03552383, -0.014251139, -0.02313644, -0.022731205, 0.019311927, -0.053522557, -0.03311041, -0.04613859, 0.02269996, 0.029057017, -0.018775841, 0.05881935, 0.044637013, 0.07760392, 0.0390254, 0.023806088, 0.062921, 0.003963847, 0.0063687097, -0.055195168, -0.03806191, -0.08037056, -0.004392967, -0.036151115, -0.014814034, -0.01911293, 0.034229767, 0.026245685, 0.022731371, -0.031135783, -0.011368178, -0.0058197165, -0.020357303, -0.057356257, -0.0025691544, -0.021026352, -0.021205809, -0.02292207, 0.031550992, 0.08968566, 0.032085434, 0.06234008, 0.075932056, 0.03402599, 0.026748156, 0.015751218, -0.045309342, -0.075906694, -0.072586834, -0.026071705, -0.026186574, -0.028466528, -0.031564754, -0.041549273, 0.007326047, 0.063634045, -0.0058861873, 0.007596823, -0.033648975, 0.002949946, -0.03142517, -0.032602064, -0.048660904, 0.018424282, 0.0010030017, 0.004742257, 0.0659038, 0.08103474, 0.089142725, 0.06393079, 0.04040344, 0.039897323, 0.006017757, -0.010723761, -0.11424588, -0.07049791, -0.07699853, -0.017290281, -0.03444752, -0.040129334, -0.046066236, -0.012142014, 0.003443559, -0.0147836795, 0.023159523, -0.018628152, -0.02115176, -0.06572342, -0.0391351, -0.04194349, -0.016295234, 0.004331664, 0.01551431, 0.026103934, 0.07335614, 0.06427713, 0.07042821, 0.05233893, 0.07501167, 0.05103148, -0.017445201, -0.08420252, -0.0696895, -0.06655324, -0.01436671, -0.0047876094, 0.005128659, -0.018406337, 0.024372071, -0.0008314736, -0.02184801, -0.0105223525, -0.011244579, -0.03938575, -0.011970904, 0.010963053, 0.0012476451, 0.011133179, -0.03681487, -0.02407044, 0.011371635, 0.04920037, 0.07562357, 0.081389636, 0.053076, 0.08439772, 0.04793309, 0.023396607, -0.06222606, -0.0309499, -0.05082145, -0.018184787, -0.0037405656, 0.011072903, -0.0034597707, 0.030626552, -0.02289587, -0.013599137, 0.0012504664, -0.023362365, -0.010821016, -0.020088306, -0.0044211373, 0.0130002815, 0.030722354, -0.007508942, -0.0014542323, 0.033127494, 0.0064081005, 0.04715884, 0.09455531, 0.05275897, 0.06647751, 0.09633527, 0.031090286, -0.016023174, -0.042703237, -0.027082354, -0.018219598, 0.006785098, 0.0049231807, 0.009574432, 0.022791635, -0.015574817, -0.022650607, 0.030866805, 0.04882364, 0.010692797, -0.009970032, -0.042232566, 0.015498937, -0.0018431831, 0.038045727, 0.055450276, -0.0054111187, 0.010751043, 0.02124971, 0.084887, 0.06138568, 0.07100511, 0.08528751, 0.044904742, 0.00042767986, -0.048559606, -0.025872098, 0.0004502674, 0.024298308, 0.057471137, 0.055125024, 0.03352583, 0.035295922, 0.036114655, 0.008630672, 0.028711986, 0.05382675, 0.032056756, -0.016254948, -0.02123419, -0.02107319, -0.010036256, -0.0009022676, 0.07881408, 0.04226268, 0.0577498, 0.033690635, 0.07158659, 0.05034013, 0.06691627, 0.0769326, 0.028988257, -0.031265054, -0.025867393, -0.0030150474, 0.0388835, 0.043885592, 0.047563013, 0.045681804, 0.04526948, 0.04969644, 0.052359223, 0.041215606, 0.05406313, 0.02115732, 0.029861737, -0.021253794, 0.008761354, -0.003871704, 0.03262651, 0.05257117, 0.034981754, 0.02277929, 0.059201673, 0.040714227, 0.052370813, 0.04550192, 0.06683266, 0.055011854, -0.028998856, -0.034600936, -0.012244965, 0.0021641685, 0.019058483, 0.026312688, 0.016260821, 0.007891564, 0.018879436, 0.0074214563, 0.014625369, 0.04221595, 0.05572397, 0.053998206, 0.018561207, 0.001767123, -0.022831362, -0.016590113, 0.028014151, 0.061704326, 0.032214273, 0.010829967, 0.02052436, 0.05034894, 0.030042628, 0.03107037, 0.050289452, -0.011239392, -0.03214765, -0.034705702, -0.011011849, 0.023645889, 0.009259796, 0.007233185, -0.0047631147, -0.013330419, -0.015388621, -0.011506546, 0.019531399, 0.021103647, 0.05713246, -0.0038090062, 0.04027755, -0.029226294, -0.008957532, 0.019636292, 0.057203, 0.018487364, 0.040229913, 0.04398093, 0.047316093, 0.046675988, 0.03992818, 0.025527816, 0.030808926, -0.031892214, -0.040997796, -0.013696873, 0.020780455, 0.030311313, 0.025878701, 0.02204036, 0.017336017, 0.0009338199, 0.0053787366, -0.01635516, 0.0072547114, -0.005656253, 0.03503605, 0.027571611, -0.023234332, 0.018229457, 0.015875252, 0.008753331, 0.027687192, -0.00027633837, 0.019774636, -0.020677127, 0.015122641, 0.0077702417, -0.009256744, 0.026187565, -0.0006296021, -0.018120471, -0.01830984, -0.009471341, 0.030922346, 0.046208847, 0.03789775, 0.020018531, 0.012175187, -0.007044795, 0.013786932, -0.0069399956, 0.0239246, 0.041642085, -0.027535332, 0.006199037, -0.0071979053, -0.056961138, 0.012390003, 0.0007561916, 0.03718818, 0.039955806, 0.0074149063, -0.006538837, -0.019806335, -0.0058532013, -0.024910871, 0.011344359, -0.030546552, -0.020764187, -0.004409669, 0.011874338, -0.004132897, 0.019379506, 0.012518571, 0.0012461008, -0.007535044, 0.019884035, 0.02457184, 0.026931016, 0.04381565, -0.009105218, -0.01995073, 0.00046799626, 0.000101207894, 0.012618099, -0.05316538, 0.02847589, 0.0351538, 0.013806031, -0.02005923, 0.02093786, -0.009543196, 0.007919516, -0.019776776, -0.0072609964, -0.00913097, -0.0026205657, -0.021962395, -0.022095932, -0.012185647, 0.003270512, -0.029163474, -0.015941164, 0.01231892, 0.04455443, 0.049074385, 0.049513437, 0.022056885, -0.019456554, -0.0021914057, -0.03308481, -0.030213678, -0.017117286, 0.0007479252, 0.035940118, 0.016230995, 0.0023946597, 0.02218977, -0.031045783, -0.008425278, -0.03351615, 0.006161557, 0.010328642, -0.016789014, -0.013194536, -0.041174285, 0.00450587, -0.0061945957, -0.011903372, 0.010461387, 0.0037829247, 0.03723056, 0.07409395, 0.053077783, 0.030681113, -0.015854914, -0.025148671, -0.058907226, -0.039839655, -0.035907235, -0.035478625, -0.057969674, 0.018775444, -0.042638972, 0.00039071156, 0.007470817, -0.03762042, 0.01284325, -0.0106898155, -0.024589568, 0.0058568874, -0.016792042, -0.013710579, -0.00495173, 0.009696652, 0.030551486, 0.011028205, 0.015498301, 0.031105185, 0.058885977, 0.05962144, 0.013647511, -0.014599693, -0.004685772, -0.069352455, -0.053830013, -0.1159047, -0.031738974, -0.03229721, -0.025015447, 0.02994446, -0.012566048, -0.0059244772, 0.018624572, -0.015402774, -0.057601776, -0.014406346, -0.0069969622, -0.02648238, 0.0043275068, 0.006855158, 0.014510486, 0.0410601, 0.053888924, 0.0671199, 0.04089067, 0.057908636, 0.042834543, 0.029884249, -0.0195607, -0.028644301, -0.06560937, -0.11148, -0.1191833, -0.11277963, -0.084921286, -0.025862323, 0.029479139, -0.016097879, 0.024116911, 0.038952947, -0.030069118, -0.05641901, -0.05547045, -0.07670781, -0.040375642, -0.021476706, -0.040202066, -0.007962196, 0.025956279, 0.027330918, 0.03335758, 0.019048778, 0.030900575, 0.022167897, 0.0010572193, -0.034435045, -0.068866655, -0.10731693, -0.16706403, -0.14397076, -0.2049734, -0.13710974, -0.038215023, -0.031238085, -0.03428083, -0.01598114, -0.046793144, -0.028480113, -0.036129665, -0.020430787, -0.040718336, -0.076050945, -0.06487419, -0.03918688, -0.033835117, -0.03939471, -0.011852241, -1.6701913e-05, -0.03301068, -0.020938411, -0.039246332, -0.074284226, -0.13670143, -0.18146427, -0.20522892, -0.20079644, -0.21300898, -0.19859637, -0.12858802, -0.09399262, -0.03397245, -0.045638602, -0.024372602, 0.015082122, -0.02814928, -0.052967362, -0.07796874, -0.027419519, -0.10731415, -0.110224836, -0.077785306, -0.041056167, -0.09173913, -0.10314096, -0.09972368, -0.11015202, -0.12364611, -0.1538749, -0.19704153, -0.25874504, -0.26781094, -0.27464727, -0.22395672, -0.23802471, -0.2476956, -0.17493378, -0.13408616, -0.058654256, -0.043095626, -0.029582659, -0.034215353, -0.021328276, -0.03667411, -0.010484574, -0.06206833, -0.08078227, -0.056343734, -0.07088554, -0.11114972, -0.13400894, -0.11669406, -0.14798144, -0.18211307, -0.22755568, -0.24211133, -0.24220958, -0.2761269, -0.2582903, -0.24289079, -0.20669168, -0.2299074, -0.20586509, -0.15068778, -0.096983366, -0.08397997, -0.052753575, -0.015706126, 0.023038168, -0.019398779, 0.0012404034, -0.043309834, -0.006004175, -0.055058572, -0.11026768, -0.14713556, -0.14154862, -0.1334429, -0.17455773, -0.11439097, -0.14439026, -0.17841719, -0.19962631, -0.19849753, -0.19340158, -0.17152354, -0.16255143, -0.19370265, -0.21987505, -0.13996565, -0.10571043, -0.075458586, -0.041299712, -0.03400476, -0.053065542, 0.011841828, 0.0050327894, -0.026902398, -0.03903598, -0.046293084, -0.06236674, -0.048898857, -0.06496634, -0.11665266, -0.07421781, -0.071503595, -0.0860491, -0.13032109, -0.13460185, -0.11372167, -0.12539257, -0.16107924, -0.09154853, -0.099544, -0.086838126, -0.1516994, -0.06472092, -0.06953519, -0.079811566, -0.07074366, -0.027414717, -0.033567905, 0.008391916, 0.004224734, 0.023094505, 0.022707466, 0.013095946, 0.009111396, 0.00069797016, -0.04512415, -0.030855067, -0.06527261, -0.02895711, -0.02623784, -0.028838238, -0.054857578, -0.054818753, -0.064079314, -0.07812233, -0.051516462, -0.05646178, -0.027575467, -0.046695407, -0.07143393, -0.026639652, -0.040993053, -0.009766978, -0.057983518, -0.037461817, -0.024078842, -0.0082315365, 0.009791619, -0.032164767, -0.03491171, -0.03252933, 0.0269536, -0.039161686, -0.038801428, -0.0071010576, -0.031778686, -0.01511481, -0.035436075, -0.023858355, -0.08016772, -0.052370224, -0.03170211, -0.055736966, -0.0013452952, -0.0055460995, -0.054894425, -0.0071543762, -0.02096309, 0.0005783143, -0.031058647, -0.034862787, -0.03872855, -0.013162724, -0.023046913, -0.008651499, 0.029316742, 0.0056713186, 0.034208033, -0.009927044, 0.015165646, 0.022666262, -0.010396543, 0.03004584, 0.014416179, -0.019663177, 0.042132974, 0.039932914, -0.011711365, -0.029803937, -0.005017889, -0.00830316, -0.011754544, -0.040545646, 0.024666054, 0.0026449985, 0.008738683, -0.004563472, -0.06847834, -0.0035800748, 0.0027651032, -0.034992624, -0.034331482, -0.0069697113, -0.029884994, -0.031028293, -0.004945526, 0.0024048723, -0.01957994, -0.003254896, 0.03445319, -0.014109949, -0.025979778, 0.017496547, 0.058804538, 0.0069644144, 0.036163546, 0.0072640786, -0.01672043, 0.0017085338, -0.00061425765, 0.00010164454, -0.014175333, 0.009731873, 0.013391029, 0.027628152, -0.0055571324, 0.011722547, 0.031975698, -0.023176726, 0.00059006765, 0.012942371, -0.017521815, 7.0800386e-05, 0.005489766, -0.027911142, 0.017027074, 0.029219493, -0.010805359, -0.0105066495, -0.0048293276, 0.025800228, -0.00818424, 0.011006236, -0.014954881, -0.03228936, -0.03854095, -0.018245012, 0.018830132, 0.03779529, 0.049968842, 0.05478801, 0.047179677, 0.043422177, 0.026079183, -0.0038099124, 0.039890394, -0.016114483, 0.0040582474, -0.006915774, -0.0077804048, 0.022747546, -0.00896737, -0.020080589, -0.015606526, -0.010113477, -0.032719463, 0.03546452, -0.050914768, -0.04350225, -0.040464293, -0.065158606, -0.03173491, -0.03970951, -0.041918043, 0.0050460496, 0.05152474, 0.06800108, 0.061680328, 0.062602766, 0.049579155, 0.025351137, 0.009547924, -0.001186333, 0.01097295, 0.032033663, -0.0111530805, -0.03234075, -0.036841553, 0.0044388967, -0.0037949036, 0.0025335515, -0.03602252, -0.048979163, 0.004293384, -0.04401064, -0.058805585, -0.056115966, -0.060503554, -0.06810642, -0.054395434, -0.03504947, 0.016655391, 0.046618897, 0.044893626, 0.07650497, 0.10972269, 0.058816105, 0.05316694, 0.020642081, 0.021809539, -0.007948999, -0.015483402, -0.0054990123, -0.02020513, -0.013902663, -0.030023493, -0.020527352, 0.032641727, -0.039461784, -0.003887484, -0.04197508, -0.08080636, -0.058896303, -0.08896997, -0.0557952, -0.061061494, -0.0724582, -0.04598658, -0.061654594, 0.00586673, 0.06430319, 0.07425364, 0.11750915, 0.109014705, 0.09582417, 0.05992834, 0.0053891097, 0.012559699, -0.030408736, -0.023900203, -0.0064080707, -0.021112798, 0.016433567, -0.047875095, -0.047288083, 0.032307368, -0.015575623, -0.043387003, -0.039534666, -0.029594086, -0.036155615, -0.087790705, -0.07498666, -0.10335513, -0.07987728, -0.0874439, -0.035077576, -0.02169993, 0.024674458, 0.027821634, 0.043114413, 0.06967174, 0.02850581, 0.050006185, 0.046893224, 0.03449435, -0.013186151, 0.009481148, -0.02022906, 0.017251404, 0.021008892, 0.009766727, -0.017961483, 0.014791271, -0.0067485385, -0.029312514, -0.043087866, -0.09205688, -0.036092035, -0.06356005, -0.042074323, -0.037886787, -0.07958408, -0.030805826, -0.08777654, -0.032729242, 0.0064877947, -0.0006506153, 0.020823658, 0.022431146, 0.0074371956, 0.025213778, 0.021761566, 0.057188366, 0.01993134, 0.0047517912, -0.032414112, -0.0011613633, 0.04077493, 0.02207525, -0.044300582, -0.003186126, -0.03524955, -0.0016848709, -0.019004906, -0.018182697, -0.03927428, -0.0037042506, -0.027910573, -0.047267657, 0.003741678, -0.004664796, -0.018676752, -0.019157223, -0.03269209, -0.019783335, 0.01246072, -0.018679332, -0.0018534786, 0.02733034, 0.052690867, 0.061542578, 0.047914624, 0.0033382496, 0.033758704, 0.052998167, -0.002436848, 0.0057296404, 0.025115537, -0.022707053, -0.03453233, -0.030032335, 0.0033936442, -0.048073914, -0.04575058, -0.009550415, 0.027421808, -0.025353074, -0.006055821, -0.025084604, 0.021950632, -0.061558105, -0.014880279, -0.04116629, -0.06147632, -0.042658422, 0.005933129, -0.0050590886, 0.03910264, 0.055930264, 0.046266, 0.013151314, 0.039979998, -0.013798816, 0.03292615, 0.038238272, 0.023279913, -0.014464645, -0.031996604, -0.0310482, -0.0044410303, -0.037852887, -0.04289796, 0.002537022, -0.027471198, 0.01861332, -0.028937502, 0.013698984, -0.015761854, -0.047763515, -0.037681337, 0.038372375, -0.056046676, -0.044977617, -0.06871605, 0.005153413, 0.020942366, 0.01710166, 0.02060394, 0.027791535, 0.0033863692, 0.011513889, 0.012304925, 0.02136074, 0.032934565, -0.053845476, -0.020411039, -0.06795052, -0.04866069, -0.046025094, -0.016505357, -0.016958032, -0.026236363, 0.009183787, -8.692089e-05, 0.020433078, -0.04599541, 0.0003132121, 0.02240426, 0.048882883, -0.008806227, -0.048388973, -0.017832087, 0.008447414, -0.009530205, 0.025085492, 0.037155773, 0.003507667, 0.008185697, -0.015389774, -0.0332881, 0.045970332, -0.017035687, -0.028383894, 0.022718024, -0.028274603, 0.008522075, 0.013855436, 0.011048925, -0.06222328, -0.056924183, -0.03341519, -0.027060296, -0.024203837, -0.031717792, 0.016441826, 0.10327585, 0.060531326, 0.020191045, 0.014831899, 0.016249573, 0.019088604, 0.010592687, 0.041051023, 0.05592645, 0.068738885, 0.048355315, -0.006967246, -0.0042628935, -0.0105998805, -0.0352843, -0.018381706, -0.03570359, -0.027229661, -0.026821654, -0.042174365, -0.06290041, -0.049185228, -0.018755103, -0.05069196, -0.031076899, -0.018554501, -0.011749749, 0.036928877, 0.093696706, 0.03179289, -0.013946582, 0.025251951, 0.022793353, 0.012000489, 0.026421268, 0.024012847, 0.046977006, 0.059964877, 0.03652243, 0.05171489, 0.023382379, -0.004909056, 0.017021922, -0.03123113, 0.016047332, -0.043055546, -0.045215085, -0.06662007, -0.062890634, -0.0655548, -0.04512341, -0.029610502, 0.047677536, 0.018287003, 0.05858428, 0.08695975, 0.06350955, 0.041791584, 0.011090299, 0.02130894, 0.029278364, 0.031539217, 0.036918744, 0.0033203494, -0.0048560137, -0.016312607, 0.04199294, 0.031256583, 0.0018765416, -0.023296164, 0.02829996, 0.020921284, 0.013962483, 0.016458783, 0.006036018, -0.028447434, -0.031395696, -0.07755936, -0.013292234, -0.014537375, 0.0009836461, 0.08971436, 0.06329905, 0.083146855, 0.06060907, 0.056098446, 0.03449079, 0.012448635, 0.055595405, 0.04922162, 0.041022263, 0.03983157, -0.011155053, 0.004202874, -0.025251538, -0.011449354, -0.013077851, -0.01700575, -0.010896009, -0.0055866847, 0.033552274, -0.033205513, 0.01294876, -0.009883131, -0.041572202, -0.07688206, -0.024171513, -0.0007437447, 0.030880954, 0.05560744, 0.067218885, 0.030871714, 0.049936958, 0.055914525, 0.065181755, 0.06263827, 0.020824112, 0.008344941, -0.034385856, -0.004993904, -0.03207242, -0.012283758, -0.04364945, -0.027991837, -0.010528074, -0.008011103, 0.02721873, 0.012793338, 0.021871887, 0.011850421, 0.012204761, -0.012972633, -0.03582311, -0.030787569, -0.05610157, -0.013883418, 0.05187279, 0.004410856, -0.004548974, 0.00549714, 0.05957683, 0.0754246, -0.017592873, 0.0083970325, 0.014196989, -0.034825917, -0.019727902, -0.058055185, -0.025815636, -0.056039553, -0.06182302, -0.025829446, -0.027566262, 0.026137916, -0.0061966623, -0.017228007, 0.030512258, 0.02901932, 0.0048304237, -0.028372051, -0.009450132, -0.024047282, -0.0017927911, -0.023995077, 0.00861038, -0.0022357597, 0.008963231, -0.002603294, 0.050412264, 0.02683758, -0.030469002, -0.020206701, -0.06458749, -0.012892166, -0.015010264, 0.00256905, 0.007345944, -0.044508725, -0.022396732, -0.0133186765, -0.0072395676, -0.03145675, -0.015291142, 0.03300943, 0.016057191, -0.027233165, 0.023556283, -0.024830285, -0.029123435, -0.005178815, -0.018449966, 0.011805961, 0.021131532, 0.029562427, -0.011310801, 0.010738569, 0.030664425, -0.008965822, -0.0024311512, 0.0069342656, -0.02635836, 0.0014375204, -0.056197952, -0.040428944, 0.004012798, -0.016321119, -0.048721604, -0.022742411, -0.016130013, 0.026952686, -0.0049916375, 0.018169494, 0.037543684, -0.014738852, 0.03080825, -0.041488145, -0.04821065, -0.012340048, -0.0033252623, 0.0042954623, -0.003393744, -0.0028574022, -0.03423657, 0.01266073, 0.03525065, 0.014356935, 0.019379415, 0.03845868, -0.031818297, -0.04539704, -0.028783845, -0.040680226, 0.026251435, -0.019691836, -0.034251668, 0.0027897481, 0.012995794, 0.010403926, 0.03275602, -0.009958414, 0.03851966, 0.003569092, -0.031709652, -0.00028004366, -0.03662773, -0.01166676, -0.028323242, -0.021634564, -0.0442831, -0.045280952, -0.007873226, 0.046109457, 0.027864726, 0.034605376, 0.028743794, 0.025578337, -0.0048781764, -0.0015220168, 0.026293702, -0.020360589, -0.009419769, -0.0033696254, -0.0062019727, 0.0022100573, -0.03678164, -0.0029508239, 0.031366415, 0.03693368, 0.017627973, -0.0204615, -0.018251471, 0.014522502, -0.023398606, -0.04919482, -0.029815814, -0.061531678, -0.022475671, -0.010784747, -0.017210983, 0.03776221, -0.0035889023, -0.004848922, -0.001313693, 0.020632088, -0.016017577, -0.003496443, -0.0268275, 0.015462459, -0.010851023, -0.028575083, 0.0011764714, -0.0059344573, -0.0056419764, 0.017315261, -0.03629072, 0.007534862, 0.04891343, 0.02384332, -0.0040003983, -0.0073438897, -0.012846411, -0.05703364, -0.08415876, -0.07140212, -0.012052215, -0.032073513, -0.004909276, 0.031262983, -0.0045128684, -0.019182045, 0.009793987, 0.041565947, -0.024956644, -0.054205365, -0.020656763, 0.0056596636, -0.051213246, -0.041152883, -0.047390714, -0.041375272, -0.032082725, 0.025691474, -0.024699656, 0.030520324, 0.017939027, -0.015390047, -0.01874425, -0.05376792, -0.04789064, -0.017439945, -0.079154834, -0.006851746, -0.010026503, -0.014827359, 0.007274942, -0.007852873, -0.00684231, -0.007571655, 0.018893208, -0.0041262326, -0.0039576897, -0.0033083218, -0.019272584, -0.07706098, -0.039895613, -0.033466853, -0.053689647, -0.016381087, -0.019472457, 0.023387987, 0.009696838, 0.010812841, 0.029029097, 0.026333787, 0.027479308, -0.029328488, -0.003709633, -0.05303541, -0.05394487, -0.017748246, -0.0003252428, 0.008454568, -0.0136952195, -0.016493903, -0.0051041744, -0.020879678, 0.030256035, 0.031611226, -0.0066795396, -0.0900049, -0.03817059, -0.047839146, -0.022516388, -0.06420794, 0.01290848, -0.046379846, -0.022121197, 0.00494112, 0.0007352564, 0.033592947, 0.008513298, 0.02938247, -0.0012494333, -0.04930737, -0.027553875, 0.0253685, 0.02204919, 0.007308111, 0.015815362, 0.029488716, -0.0069344076, 0.043502707, -0.011259131, -0.00016394343, -0.017585207, -0.019511674, -0.011503658, -0.002030329, -0.0036465735, -0.008386681, -0.01748939, -0.03328588, -0.016400153, -0.032011934, -0.017042046, 0.003624388, -1.2772109e-05, -0.027723927, 0.00020097078, 0.03272638, 0.0062594214, 0.00032150475, -0.04781967, -0.05507002, 0.026411632, 0.036675353, -0.010709462, -0.014488899, 0.010933406, -0.021607524, 0.023544544, 0.032997776, -0.01491336, -0.03795519, -0.0044819093, -0.004137395, -0.03317801, -0.022500034, -0.05311572, -0.010250099, -0.013743975, -0.023940776, 0.009984883, 0.02710047, 0.03412917, -0.0061212573, -0.02752247, -0.0076759458, -0.019596517, 0.027777957, -0.047533114, -0.048148528, -0.05410762, -0.008755601, -0.050557524, -0.065992, -0.015785458, -0.080685735, -0.026648842, -0.0018993436, 0.0020145932, -0.012989323, -0.017630843, 0.0018411864, -0.007808386, 0.012193731, 0.011199036, 0.0408647, -0.016135633, -0.015750114, -0.022324068, -0.020294541, -0.03160331, 0.019994885, -0.006883396, 0.013319971, 0.012381623, 0.0046314453, -0.041785117, -0.024683949, -0.026447194, -0.011957395, -0.037850328, -0.013530366, -0.053896777, 0.020505602, 0.046266224, 0.04896071, -0.007356292, -0.010600684, 0.0005756081, 0.037042364, 0.012415608, -0.0119719785, 0.008771256, 0.024622098, -0.0056917532, -0.0028851817, 0.023662675, -0.035099555, 0.012733233, -0.0128651615, 0.013420226, -0.008014065, 0.015719278, 0.044755686, -0.0034519983, -0.036962464, -0.035617314, 0.0088475635, 0.017380454, 0.009475932, 0.03364499, -0.0127277905, 0.00710624, 0.042674385, 0.046203166, 0.0065899445, 0.03631734, 0.0066526267, 0.002292778, 0.0014681317, 0.012040444, 0.008506795, 0.046106525, -0.02722631, -0.00034128228, 0.0027464167, -0.012426613, 0.0029607676, -0.015430255, -0.03860809, -0.011605397, 0.024614679, -0.012337155, -0.0021653844, 0.046544623, 0.0016313227, 0.0422154, 0.017517908, 0.028918201, 0.04304476, 0.022076251, 0.054588906, 0.049221832, 0.057027966, 0.033824693, 0.015399231, 0.014868294, 0.0056430255, 0.025422135, -0.020749161, -0.029845411, -0.0073005967, -0.033899326, -0.0070247767, -0.020924235, -0.0070390557, 0.016158137, -0.005715518, 0.017152173, 0.03359274, 0.026646635, 0.0021906926, 0.0036513978, -0.003990513, 0.023384225, 0.018458726, 0.04604744, 0.019969583, 0.03599285, 0.03798949, 0.042478766, 0.022865886, 0.023724956, 0.05845537, 0.014075604, 0.0066969325, -0.0045322687, 0.03266401, -0.0027507131, -0.04179074, -0.005450533, -0.0037462295, -0.017884394, 0.018697746, -0.01604869, -0.011191296, 0.029003188, 0.06977356, -0.016872449, 0.03710551, 0.035367303, -0.019505665, 0.027367607, 0.064821094, 0.049287107, 0.06564417, 0.07827058, 0.069106594, 0.0498869, 0.05062217, 0.03285808, 0.045194022, 0.079132274, 0.06854561, 0.028221857, 0.05332296, 0.026816253, 0.038858645, -0.0331499, -0.023866376, 0.021066798, 0.026890434, 0.007018673, -0.005851184, 0.054684337, 0.015856553, 0.006650534, 0.017648714, 0.0033488898, 0.034978725, 0.048077818, 0.03396835, 0.026699608, 0.026363134, 0.042647135, 0.07334984, 0.050290074, 0.059535813, 0.05438758, 0.057706546, 0.04919904, 0.046375416, 0.04510131, 0.026590714, 0.004512558, 0.03150826, -0.057638403, -0.029507738, -0.023069127, 0.01626667, -0.033183325, -0.006156062, -0.017638152, -0.021947501, 0.011520316, -0.029238721, -0.01249318, 0.04134804, -0.0029218984, 0.05095838, 0.043557886, 0.048239104, 0.02156084, 0.04941812, 0.042852424, 0.06266565, 0.070842095, 0.037673708, 0.06270065, 0.025658611, 0.012223922, 0.003191607, 0.015984083, -0.014380532, -0.0035995801, -0.02851775, -0.02532523, 0.015423158, -0.018451659, 0.011494992, 0.014813735, 0.026855713, -0.03047109, 0.006065709, -0.007562444, 0.029703146, 0.029659113, 0.03422364, 0.037941214, 0.026151164, 0.06626269, 0.045052055, 0.041963086, 0.050460584, 0.0398785, 0.071277454, 0.035506263, 0.05870119, 0.027293187, 0.017334973, 0.014651527, -0.04354414, 0.0024231386, -0.013972334, -0.032999013, 0.021915916, -0.010984468, -0.0034947335, -0.009856924, 0.014935902, 0.011607242, -0.0056533217, 0.034226418, 0.02360016, 0.012077847, 0.009245015, 0.014039021, 0.055882126, 0.050381515, 0.06600627, 0.05364546, 0.08100369, 0.052556537, 0.027558042, 0.016895492, 0.010153744, 0.021278894, -0.03883062, -0.052649777, -0.036693767, -0.05717455, -0.03937225, -0.052843884, 0.018613592, 0.0326774, 0.020578021, -0.01687948, -0.0054524834, 0.03131032, 0.036035158, 0.000401621, 0.039197367, 0.026253352, 0.044345964, 0.048477624, 0.055421367, 0.078815475, 0.04986008, 0.023645667, -0.007067412, 0.0068841507, -0.015255005, -0.041407757, -0.034023225, -0.060326353, -0.05167015, -0.05435848, -0.0685893, -0.03518727, -0.096141405, 0.015837265, -0.0040320233, -0.007847245, 0.058588695, 0.04376309, 0.034701493, 0.022336433, 0.020099457, 0.013120492, 0.027079865, 0.036813047, 0.003989083, 0.001036684, 0.0057866015, -0.0051793554, 0.0014137774, -0.023502119, -0.0029475465, -0.044363946, -0.016945103, -0.043467633, -0.049846567, -0.05708667, -0.10319505, -0.086017415, -0.14369659, -0.09518027, -0.06562667, -0.06815278, -0.0004738252, 0.04660367, 0.012542036, 0.005121736, -0.011878843, -0.004740252, 0.0050313547, 0.013456987, 0.03397741, 0.041798513, -0.0021131937, -0.02585563, -0.037491053, -0.026777087, -0.03312929, -0.00987783, -0.03137374, -0.004569019, -0.009241528, -0.0023504843, -0.058530662, -0.05492916, -0.07211197, -0.13945748, -0.109836966, -0.07967139, -0.035025097, -0.059162322, 0.023078516, 0.024562778, 0.011553374, -0.002498713, 0.041120507, -0.009293628, 0.026677705, 0.03258783, 0.028071338, -0.013310051, -0.020826206, -0.06946322, -0.020033225, -0.042715833, -0.011958828, 0.0056366264, 0.0025242628, 0.005254065, 0.020695843, 0.024986956, -0.010314846, -0.044193506, -0.12717773, -0.1150704, -0.11002241, -0.064446, -0.06993089, -0.0057935338, -0.029238665, -0.008359376, -0.029713724, 0.03165046, 0.03414414, 0.05680836, 0.049748197, 0.043218333, 0.0012114088, -0.036099903, -0.03356679, -0.04109495, -0.024898542, 0.006597576, 0.025029158, 0.027432824, 0.018235393, 0.025110425, 0.011287961, -0.031297367, -0.07839677, -0.14808424, -0.1575893, -0.14615032, -0.13514431, -0.048735794, -0.051942468, -0.038458183, 0.016815053, -0.014741178, -0.0013415979, 0.025419833, 0.022508439, 0.0010800036, 0.04006476, -0.023518402, -0.014183955, -0.07271685, -0.036698498, 0.028902834, 0.026895106, 0.029944252, 0.033340167, 0.02571323, 0.01776856, 0.021112556, 0.00481511, -0.07414323, -0.1637278, -0.21762316, -0.21345696, -0.20154458, -0.10078336, -0.054349616, -0.08020081, -0.008454759, -0.024853066, -0.0036545007, -0.003414498, -0.015549672, -0.010402511, -0.02383739, -0.00783398, -0.016516834, -0.044802777, -0.030641595, -0.010623326, 0.015836073, 0.0373757, 0.004417671, 0.029968102, 0.036452413, 0.04630877, -0.008182042, -0.09396879, -0.18574694, -0.2826093, -0.26364693, -0.23118511, -0.20182131, -0.09958074, -0.09019353, -0.06811086, 0.0055337604, -0.02541404, 0.0055845515, 0.021060916, -0.000435278, -0.019845514, 0.014497038, -0.015096026, -0.016248787, -0.02853775, -0.013483422, 0.0072166594, 0.0126170125, 0.0063700364, 0.020845681, 0.061198536, 0.054021776, 0.014856301, -0.08631376, -0.17997648, -0.26926103, -0.27770826, -0.2554997, -0.19242416, -0.15801586, -0.13712159, -0.08626362, -0.06616863, -0.008445221, 0.037367202, 0.020647306, -0.0481081, -0.033984274, -0.013175143, -0.034170374, -0.010109376, -0.0011155921, 0.016786227, 0.0227565, 0.030882843, -0.005686572, -0.021672124, 0.014167833, 0.04000974, 0.02598075, -0.059567105, -0.14502925, -0.23365754, -0.29908827, -0.30491984, -0.20281525, -0.1546357, -0.10530795, -0.07024145, -0.096256554, -0.06348933, -0.025894918, -0.032387618, 0.0031300639, -0.01769531, 0.0067060096, -0.018081546, -0.002525479, -0.0055155554, -0.017266499, 0.009525737, -0.0060339323, -0.019978395, -0.0043981853, 0.0031094628, 0.041446418, 0.015379351, -0.004021498, -0.107539184, -0.19659124, -0.27744845, -0.3035361, -0.25465402, -0.19740328, -0.1390124, -0.0755306, -0.08057131, -0.046981685, -0.07060541, -0.01781608, -0.037945516, 0.010162231, 0.013293916, -0.013960398, -0.0047635674, -0.008013322, 0.011618713, -0.031127103, 0.008818699, 0.020535972, 0.0048660636, 0.028969249, 0.0330981, 0.025002038, -0.0029586582, -0.084292375, -0.12976062, -0.25791156, -0.31211674, -0.27734005, -0.25505775, -0.10630661, -0.07888789, -0.09875277, -0.01207274, -0.016810412, -0.047749676, -0.0003370126, -0.037490163, -0.023256902, -0.013618926, -0.029538378, -0.029102754, -0.01620648, 0.01564101, 0.0058355103, -0.0019449696, 0.005521687, 0.013827148, -0.0007319735, 0.030102763, -0.017111, -0.048886742, -0.104398966, -0.17835185, -0.22518261, -0.2803982, -0.2305623, -0.16307898, -0.11808307, -0.042088337, -0.07114527, -0.046422645, -0.016108736, -0.04665526, -0.041552164, 0.016022595, -0.005540857, -0.018217865, -0.012871052, -0.0015135651, 0.014817855, -0.015635725, 0.023264859, 0.020315532, 0.046454486, 0.0136557985, 0.013245723, 0.006128514, -0.032694772, -0.04780044, -0.10677147, -0.15031888, -0.22352284, -0.22286212, -0.19045843, -0.14676502, -0.060732014, -0.020681858, -0.06964771, 0.0017534861, -0.060434446, -0.026770368, 0.002485177, 0.028522754, -0.020495955, -0.045112755, 0.014423929, -0.00694746, 0.009537465, -0.0065344037, 0.022523671, 0.007927649, 0.01748893, 0.0031838675, 0.004748061, -0.028928129, -0.060844384, -0.05624882, -0.12546428, -0.17140353, -0.21395949, -0.21819483, -0.124981135, -0.12434263, -0.08661604, -0.08477155, -0.05236959, -0.0498341, -0.01552473, -0.0017244773, -0.03249694, -0.03810587, 0.034571633, 0.03857633, -0.0017447723, -0.015289081, 0.0035101082, -0.042638235, 0.015659379, -0.022982659, 0.0022107512, -0.04250159, -0.033574875, -0.07331646, -0.06310271, -0.052391626, -0.08368126, -0.15167151, -0.14055887, -0.17130794, -0.09731822, -0.063328005, -0.04755407, -0.03332244, -0.013852384, 0.024186531, -0.018115005, 0.014432355, 0.012193431, 0.02428159, -0.0031063573, -0.0029272311, -0.0011961132, -0.017877208, -0.027803343, -0.036025207, -0.012736777, -0.031222349, -0.023515716, -0.06599997, -0.05059834, -0.08414714, -0.030298727, -0.01345334, -0.02989381, -0.03858779, -0.12684529, -0.10070251, -0.083053954, -0.09041793, -0.037695993, -0.058517043, -0.054325968, -0.0023547898, 0.020711346, 0.011503377, 0.030188102, -0.009884889, 0.022272829, -0.015980108, -0.026380531, -0.036140047, -0.008028319, -0.08628478, -0.046583492, 0.0017853659, -0.03469851, -0.06157267, -0.04194896, -0.057882965, -0.023910595, -0.04454147, -0.004180035, -0.04143777, -0.09280125, -0.089201376, -0.086408764, -0.045882963, 0.0055134003, -0.03571045, 0.009702545, -0.0036390692, 0.0136001315, -0.035099037, 0.010245051, 0.006716244, 0.0070273806, -0.005401768, -0.01655697, -0.016515018, 0.039911065, -0.010094375, -0.01686455, -0.04746099, -0.029468436, -0.04863045, -0.04461263, -0.009331546, 0.0014936769, 0.022141567, -0.01849788, -0.012966787, -0.025732264, 0.015678486, -0.015955592, -0.021597378, -0.022119109, -0.02420196, 0.033833224, 0.019704483, 0.0007683635, 0.0030684248, 0.017422833, -0.029075565, 0.011915989, 0.03090439, 0.02345791, 0.026450386, 0.023867765, -0.054731134, 0.026216064, -0.04295445, -0.017863274, -0.07115483, -0.020663187, 0.0144080315, -0.010870108, -0.006896138, -0.005938082, -0.030002417, -0.026206119, -0.013455518, -0.04299988, -0.044731263, 0.027338102, -0.033588365, 0.0004436004, -0.015233497, -0.0055325944, -0.03636276, 0.007815897, 0.023837235, 0.01756424, -0.0026754867, -0.0067603746, -0.012990183, -0.03106467, 0.007331636, 0.041077323, -0.031435374, -0.031819697, -0.0013483361, -0.0029811317, -0.015463012, 0.017794598, 0.012808384, 0.0015020622, -0.04366642, 0.028363464, -0.00377666, -0.021463916, -0.00364665, -0.024266137, 0.014592283, 0.005541451, -0.038873907, 0.02015487, -0.00891904, 0.019945448, 0.0116759185, -0.0010851183, -0.016298115, -0.013324471, 0.039552454, -0.018411547, 0.009635133, 0.01570622, 0.03801364, 0.04787912, 0.012757782, 0.018115439, -0.013863024, -0.008352155, 0.026194397, 0.030158963, -0.03880946, -0.008536633, -0.027943483, -0.040978692, -0.035618532, -0.0601606, -0.00048686675, -0.03325086, 0.006803831, -0.04759345, -0.021939779, -0.036882125, 0.016991902, -0.0064219185, -0.013793182, -0.021607703, 0.0011597489, -0.027967075, 0.008121593, 0.0115877995, 0.033333316, 0.012742333, -0.0022896742, 0.023831282, 0.009302273, 0.027017102, 0.028161522, 0.021405263, 0.0354363, 0.00905432, -0.006997945, -0.031614147, -0.050265986, -0.063330434, -0.035982065, -0.022394778, -0.019896753, -0.018603284, 0.0417947, 0.0025164643, 0.00081519305, 0.0009686453, -0.021881241, 0.009685206, -0.009543168, -0.04500743, -0.011988804, 0.025213763, 0.0413146, 0.04391771, 0.057479516, 0.08502933, 0.034477085, 0.05835321, 0.06402835, 0.08394498, 0.06577309, 0.049329974, 0.0335204, -0.03489223, -0.06560399, -0.058226787, -0.069192104, -0.040772792, -0.0010042429, -0.04781201, 0.016648969, -0.00072549045, -0.0005262351, 0.009687825, -0.023327533, -0.004148384, -0.023174679, -0.012535264, -0.008411993, -0.007152268, 0.008354242, 0.023666069, 0.06668154, 0.07210782, 0.05442215, 0.056054402, 0.09099289, 0.06361331, 0.10740734, 0.035038676, -0.0011553218, -0.023875777, -0.062369123, -0.0187178, -0.040831134, -0.043888338, -0.047642205, -0.050006375, 0.02546287, 0.016681174, 0.040207665, -0.005117409, 0.033765014, 0.028867375, 0.009399672, -0.012450583, 0.03357546, 0.015290845, 0.0071668336, 0.04458673, 0.030560398, 0.04884554, 0.064043015, 0.058706623, 0.10941039, 0.069869496, 0.084148064, 0.03019632, 0.047920488, 0.04758375, 0.014310249, -0.035554238, 0.0035172505, -0.013663991, -0.04211403, -0.037557, -0.01863117, 0.0027300345, -0.013311272, 0.0096771065, 0.010364538, -0.028274573, -0.014124459, 0.029892793, -0.027314048, 0.04150905, 0.009401075, 0.03884012, 0.015759312, 0.046187133, 0.056624133, 0.06941785, 0.08309656, 0.06376978, 0.10712831, 0.076024435, 0.032613937, 0.04156615, 0.0041912184, -0.019136311, -0.048293468, -0.05530929, -0.0590106, -0.038183156, -0.009919977, -0.002678565, 0.009674176, 0.012196619, 0.014227089, 0.00021660783, -0.0050747003, 0.03692292, 0.0245423, 0.046143286, -0.017357046, -0.015586823, 0.0033941464, 0.057452146, 0.052809067, 0.016125739, 0.055322647, 0.057941142, 0.056353983, -0.0204955, -0.008413815, -0.012719218, -0.020612642, -0.007821088, -0.014624487, -0.034393977, -0.043462317, -0.0040948363, -0.013655268, -0.0070342543, -0.01846418, -0.0072075576, -0.022650518, 0.03208567, 0.060194295, 0.024316747, 0.07494466, -0.008215786, 0.027773974, 0.007933217, 0.052022394, 0.03278104, 0.0076455413, 0.009281561, -0.039160006, -0.06462181, -0.069891304, -0.077752426, -0.08607883, -0.059493188, -0.036808692, -0.065408185, 0.003845239, -0.041400094, -0.056409158, 0.028033754, -0.026495842, -0.012023169, 0.03676085, 0.006996661, 0.016437383, 0.011479338, 0.024353564, 0.038657103, 0.025111126, 0.04216441, 0.015229184, 0.03026374, 0.0032456357, 0.044546995, -0.028089846, 0.0159388, -0.036835574, -0.018064812, -0.04439446, -0.07153601, -0.045795348, -0.027300155, -0.036663733, -0.040883392, -0.043559134, -0.009178352, -1.25951865e-05, 0.013981815, 0.03865199, -0.001354113, 0.030150725, 0.0050713937, 0.05637452, 0.025140706, 0.073978096, 0.06910351, 0.073265955, 0.07018053, 0.05771006, 0.056762468, 0.018917276, 0.0058560516, 0.04312928, 0.005515693, 0.062466774, 0.045544993, 0.027960991, 0.0049596797, -0.010309653, -0.036959477, -0.023043057, -0.037184622, -0.035776317, -0.021915624, -0.06939465, -0.047752436, -0.021716, 0.031126179, -0.014967401, 0.038766135, 0.011208777, 0.038395893, 0.0631805, 0.09298168, 0.08944123, 0.05368918, 0.026771152, 0.045909338, 0.03180159, 0.038556658, 0.02453779, 0.031127784, 0.061279655, 0.052612174, 0.05353512, -0.010150027, -0.029408673, -0.06278837, -0.030611886, -0.057900377, -0.021696752, -0.010702181, 0.012482979, 0.012195106, 0.015242298, 0.012654135, 0.024087964, 0.06930475, 0.0044311006, 0.059136044, 0.04217209, 0.034480084, 0.0040406655, -0.0069060354, 0.017958092, -0.0144966375, -0.0057516214, 0.0045426902, 0.003277336, 0.07447135, 0.015773475, 0.024372466, 0.028799588, -0.0049765003, -0.04055531, -0.06112614, -0.0577382, -0.051951032, -0.021052897, -0.031328533, 0.006927805, -0.011361462, -0.03162124, -0.030622294, 0.0091310125, 0.0037518693, 0.038568296, 0.044812888, 0.009086846, -0.0026379314, -0.0075701913, -0.047970694, -0.037048113, -0.034422882, -0.047879197, -0.04166797, -0.027320247, 0.012587224, 0.0017718574, -0.05017048, -0.044747803, -0.008690702, -0.026411861, -0.0072269742, -0.032442432, -0.01718726, -0.011854041, -0.027033417, 0.011192234, -0.018166909, -0.026564637, 0.009260483, 0.0035069855, 0.04651033, 0.02879152, 0.0013611778, 0.031433295, 0.012945441, -0.0016987186, -0.044638522, -0.04288447, -0.028169507, -0.039402485, -0.04378051, -0.017464453, 0.017403636, 0.0026069786, -0.0016462742, -0.015498608, -0.028102992, 0.016053075, -0.02066972, 0.028046465, 0.025363784, -0.033018846, -0.041221995, -0.027799992, 0.0041308, -0.03792099, -0.022293411, -0.024688644, 0.019695532, 0.020478483, 0.031085704, -0.010300983, -0.02382088, -0.009284349, -0.0032909669, -0.03664086, 0.023348609, -0.038713653, -3.5068806e-05, -0.012523292, 0.0033621045, -0.014830554, -0.035873525, -0.005340224, 0.0013010767, -0.017199889, -0.021034176, -0.0089179585, -0.0027541746, -0.041557617, -0.032810256, -0.025581302, 0.021661857, -0.02174941, 0.015506066, -0.007344717, 0.029436007, 0.010670932, 0.045108948, 0.031948987, -0.009832524, -0.035662018, -0.024238018, -0.009775037, -0.028961394, -0.008626109, 0.0055753873, -0.03062857, -0.023469867, -0.027212976, -0.0014177052, -0.025029154, -0.0042472472, 0.025560478, 0.029577563, -0.0007129244, -0.03651263, -0.005152744, 0.02623286, 0.014398895, -0.010878761, 0.005441721, 0.031146068, -0.010016319, 0.042307384, -0.009575548, 0.025781175, 0.011038279, 0.008717999, 0.023704058, 0.031710476, -0.019263735, 0.0031608779, 0.04028464, 0.0065272306, 0.050099157, 0.0064737536, 0.008669275, 0.0054934607, -0.020740354, -0.00016124346, 0.045662813, -0.004355969, 0.007982151, -0.008432734, 0.03005056, 0.06871688, 0.029557694, 0.03512985, 0.018395001, -0.0023382718, -0.022525191, -0.010512083, 0.03387095, 0.030471127, -0.012506363, -0.009363393, 0.020140583, 0.02143828, 0.031265344, 0.05495226, 0.037234955, 0.031389315, 0.038199972, 0.032065544, 0.038109478, 0.01510582, -0.0025308724, 0.016949283, 0.025197575, 0.007288966, 0.025589272, 0.058336325, 0.05709653, 0.05911061, 0.054962628, 0.047980364, 0.028026558, -0.030442936, -0.038635947, -0.0014799297, 0.03293515, -0.023056254, 0.019099075, 0.052594792, 0.0359221, 0.05469498, 0.020879045, 0.040430628, 0.085370414, 0.049609456, 0.053319924, 0.0026355716, 0.00863148, -0.00895012, 0.0071777026, 0.04141994, 0.02796448, 0.0151513545, 0.056749865, 0.053411074, 0.062106807, 0.051768623, 0.028228112, -0.0023040457, -0.0017196096, -0.068649635, 0.020614456, 0.008965681, 0.020649606, 0.056365117, 0.02009652, 0.025057387, 0.09181239, 0.051961344, 0.0958967, 0.029966015, 0.08076809, 0.06346131, 0.05284822, -0.031592526, -0.0020308362, -0.031044556, 0.037654757, 0.037432037, 0.057279564, 0.041844886, 0.044258237, 0.07892109, 0.033563666, 0.041198462, 0.05747238, 0.05772038, 0.013768367, 0.014506507, -0.003404186, 0.03528699, 0.00012706737, 0.034901492, 0.05726663, 0.07713766, 0.021405993, 0.055073205, 0.09515958, 0.105027735, 0.06904058, 0.023818633, 0.013126999, 0.017460143, 0.024373842, 0.034802463, 0.027922692, 0.040470283, 0.044856068, 0.029241996, 0.078846976, 0.023951793, 0.050985564, 0.060257334, 0.067361705, 0.023376158, -0.006610124, -0.012870356, 0.030959252, 0.031321146, 0.04603627, 0.032242924, 0.057232097, 0.08517589, 0.09110932, 0.062031172, 0.060730096, 0.0681583, 0.064345315, 0.03399189, 0.01824226, 0.006582184, 0.049957693, 0.058793526, 0.097000375, 0.09636484, 0.060137022, 0.054747887, 0.10356462, 0.065775394, 0.05589398, 0.052304454, 0.051610716, 0.033445098, 0.03573305, -0.02314472, -0.007442608, -0.0014793872, 0.045269646, 0.060125668, 0.018357513, 0.053893972, 0.029473236, 0.08493458, 0.10830787, 0.025133835, 0.07629455, 0.055246625, 0.033506814, 0.07991791, 0.09126026, 0.10608221, 0.08104975, 0.112909876, 0.059228767, 0.054031312, 0.041191857, 0.034931857, 0.017002337, 0.04001804, 0.009171362, 0.010336237, -0.01442313, 0.039194558, 0.010990578, 0.03516015, 0.012473079, 0.06583127, 0.06397505, 0.019356683, 0.025616245, 0.055448458, 0.067189865, 0.052337218, 0.08106999, 0.084880166, 0.065857776, 0.07302939, 0.08747036, 0.083786525, 0.07372714, 0.11819752, 0.044166528, 0.04997359, 0.029949704, 0.05338182, 0.044088513, -0.0048250877, 0.016146297, 0.055597227, -0.0024474927, -0.001432844, -0.018101497, 0.011685265, 0.030440347, 0.060430966, 0.07719113, 0.025898553, 0.06420157, 0.07390369, 0.06675617, 0.06338974, 0.06399201, 0.034834042, 0.031124128, 0.06596468, 0.06387648, 0.09441919, 0.06561881, 0.055995263, 0.09283682, 0.05618425, 0.02190556, 0.015935978, 0.07719767, 0.041311946, 0.04747654, 0.020207126, 0.029024435, 0.014562261, 0.008347295, 0.0027780982, -0.010470978, -0.010522862, 0.045927, 0.078806624, 0.06961985, 0.083623834, 0.02850303, 0.05978666, 0.06796889, 0.072742395, 0.075005986, 0.08478813, 0.075338595, 0.039615776, 0.07212299, 0.02752479, 0.039165888, 0.04843451, 0.0365522, 0.05989744, 0.04812601, 0.01916175, 0.0614156, 0.025919424, -0.046435095, -0.004019956, 0.00818013, -0.0003621541, 0.00603354, -0.013169792, -0.024986977, 0.020169817, -0.0073636454, -0.031406965, -0.008572897, 0.00035402473, -0.034318488, -0.0055461437, -0.04479057, -0.038259447, -0.014207896, -0.06376097, -0.013929746, -0.031884983, -0.0053861085, 0.014885211, -0.025915775, -0.032680392, -0.010197503, -0.0073759365, -0.03756749, -0.0126310885, -0.013389008, -0.00043422356, -0.0111917015, 0.012244187, 0.011845633, 0.017595109, -0.012417157, 0.0072696893, -0.046870656, -0.026000705, -0.016641276, -0.028178008, -0.054174755, -0.04510752, -0.013509881, -0.025304968, -0.041576426, -0.048721764, -0.06301079, -0.045711562, -0.012539478, -0.051760048, -0.022207234, -0.012288807, 0.0043350747, -0.02904868, -0.015560197, 0.012500078, -0.03593381, 0.0018581233, 0.01232532, -0.031475324, -0.00060788915, 0.012678001, 0.013105622, 0.015705101, -0.025553219, -0.027929137, -0.058985356, -0.05197255, -0.03686817, -0.043530874, -0.03826272, -0.040121086, -0.07143685, -0.10480385, -0.050006453, -0.02488739, -0.007745054, -0.03611314, -0.012920963, 0.005693344, -0.05085037, -0.040579703, -0.004302907, 0.019200902, -0.023800239, -0.003343375, 0.02392289, 0.0047497526, 0.01516842, 0.028555548, -0.008927064, 0.027453683, -0.019938482, -0.051557727, -0.002660512, 0.034316182, -0.022152381, -0.05207736, -0.06821226, -0.035678484, -0.04099065, -0.037957534, -0.03018007, -0.049914476, -0.00013821684, -0.030368662, -0.03550395, 0.010163887, -0.045116734, -0.021458842, 0.03629149, 0.028663129, -0.002911698, -0.015016524, 0.03687357, 0.035790633, 0.042947426, 0.0039410624, 0.01669941, 0.014865018, -0.022757271, -0.041777227, -0.0040618293, -0.009445731, -0.012517037, -0.01623215, -0.033442993, -0.05553473, -0.010654853, -0.022552917, -0.054248545, -0.036564548, -0.011628857, -0.04329377, 0.005388875, -0.045340642, -0.02173786, -0.043910168, -0.02216504, 0.0052376073, -0.021420756, -0.015955383, 0.022579178, 0.011875491, 0.031619795, 0.03813245, 0.0073799426, -0.0063609183, 0.018540066, -0.015035711, -0.0398388, 0.012494291, -0.009898844, -0.032953836, -0.028754633, -0.0125119155, -0.035797212, -0.033900432, -0.030840434, -0.06345629, -0.04017592, -0.007903893, -0.031916488, -0.0019712576, 0.027369425, 0.024846034, 0.027829217, -0.028811898, 0.00287354, 0.032493394, -0.010050162, 0.020877363, 0.03141114, 0.0121369185, 0.01993034, 0.035666388, 0.0066179903, 0.015352698, -0.0072905864, 0.007113168, 0.003338359, -0.008088398, 0.00990864, -0.018720066, -0.020430319, -0.030555693, -0.026667207, -0.024228424, -0.008397749, 0.013641228, -0.0062246155, -0.01288431, -0.010719289, 0.0061429725, -0.0032441835, -0.01636069, 0.024642603, 0.031619642, 0.043579828, 0.034824904, 0.047038525, 0.047613118, 0.009959873, 0.014015139, -0.0014731211, -0.04022802, -0.016943956, 0.00089192914, 0.020409388, -0.019872207, -0.0026968129, -0.0058141747, 0.012527736, -0.020814715, -0.020164024, -0.0043608053, 0.013319108, 0.019522045, -0.00113134, 0.023805143, 0.011250989, -0.008670032, -0.0017987496, 0.0005970105, 0.006186454, -0.016853582, -0.00980807, 0.019972058, -0.0002771404, 0.029142328, 0.0066014803, 0.015588199, -0.02178567, 0.012936184, 0.013296129, 0.009490816, 0.0023117182, 0.005021139, 0.024545752, -0.017995454, -0.008353243, -0.0068285004, 0.020068819, 0.01733276, 0.0015475509, 0.016873641, 0.039215986, 0.009791658, 0.022404412, -0.0049074227, 0.009345347, -0.019444523, 0.038925424, 0.011052241, 0.0007261841, -0.007747354, 0.0014661358, -0.01341059, -0.01727115, 0.024467465, -0.009043202, 0.008595193, 0.005254121, 0.0032342817, 0.0073744357, 0.0039222417, 0.0027098835, -0.017953465, -0.009438456, -0.00768827, 0.011824066, 0.01505405, 0.03035089, 0.02806477, 0.047259893, 0.02524002, -0.003840511, -0.016572542, -0.014822063, -0.008487414, 0.02103788, 0.006403919, 0.04545868, 0.029734647, -0.006622959, 0.010816963, 0.0041545187, -0.0202386, 0.0032441644, -0.008911416, -0.0062978063, 0.010134344, 0.009528337, 0.008598606, -0.004019747, -0.020974223, -0.021651227, -0.008243599, 0.017234145, 0.015546607, 0.03529903, 0.03878817, 0.04204833, 0.027251938, -0.021177262, -0.024429549, -0.04096638, -0.00029560502, 0.0048729815, 0.0060650352, -0.01250396, -0.014908848, -0.012213186, -0.0007318408, -0.017665967, -0.0359869, 0.0064185914, 0.026216691, -0.0038951768, -0.0053734127, 0.020841155, -0.008725149, 0.00093360804, 0.006008261, -0.012831802, -0.0020282005, 0.01111477, 0.03989522, 0.022722682, 0.02006857, 0.005118563, -0.003051419, -0.0062344894, 0.0047994326, -0.017903915, 0.0046751224, -0.017878946, 0.007876759, 0.01644083, -0.011835205, -0.023542687, -0.00079523347, -0.047748968, -0.0133805135, -0.013404245, -0.0074995253, 0.009619948, -0.004124906, 0.016594436, 0.032029912, 0.023243794, 0.013563758, -0.0015753513, 0.0057193204, 0.011530866, -0.017691897, 0.0047185114, -0.0034476435, -0.012413297, 0.004927738, -0.030046664, 0.008020401, -0.031772032, 0.007326659, -0.0058037085, -0.0028421476, 0.020212747, -0.027809167, 0.020581705, -0.021535603, -0.038262516, 0.0045569637, -0.029008066, -0.024927352, -0.00489806, -0.01318223, -0.017676795, 0.021663565, 0.016802473, 0.012886343, -0.0364706, -0.00046064012, -0.0074674184, -0.013172072, -0.017147783, -0.005658239, 0.010903832, 0.025268197, 0.002521096, 0.023700485, -0.0024194615, 0.016050717, -0.03703279, -0.020488303, -0.013428591, 0.030451193, 0.05034449, -0.031038338, 0.0007733921, 0.0134511655, 0.010953694, 0.002316288, -0.01435195, -0.020620545, -0.006540398, 0.012404926, 0.020737251, 0.010127725, -0.06238002, -0.0506873, -0.020609228, -0.03603541, -0.044649668, -0.014754349, 0.009183934, 0.021300593, 0.0072338902, -0.0005191407, 0.0030525955, -0.0014209824, -0.031093849, 0.026612269, -0.012640976, 0.007443616, 0.00091736374, -0.033062484, 0.033204317, 0.023493968, 0.010587104, 0.009763101, -0.031716667, -0.02185389, 0.021200823, 0.03300653, 0.060125627, 0.019551272, -0.064208, -0.07426669, -0.0432086, -0.053714577, -0.060722943, -0.018498512, 0.019793069, 0.011519719, 0.043380126, -0.0032444715, 0.0007080607, -0.060279153, -0.013149175, 0.020772628, 0.025080582, 0.03090946, -0.008763075, -0.030745262, -0.0067143985, -0.022101, -0.0045579863, 0.009186276, 0.004331805, 0.004045923, 0.03031235, 0.051059775, 0.09439436, 0.080198996, -0.12923504, -0.0738273, -0.06797395, -0.065271914, -0.0666778, -0.0378384, 0.018218093, 0.05025088, 0.02990488, -0.021776617, -0.036227044, -0.00075581536, -0.035872135, -0.0061296765, -0.02376469, -0.030388372, -0.043521885, -0.007614411, -0.007666569, 0.016822914, -0.024158271, -0.03313073, 0.011782627, 0.0055589015, 0.02681644, 0.05657154, 0.08617541, 0.091313004, -0.16571341, -0.09746827, -0.08829931, -0.089089915, -0.07133216, -0.044458453, 0.06649156, 0.051005486, -0.021083478, -0.03324764, -0.030923434, -0.0344008, 0.0103310365, -0.023901822, -0.0018781365, 0.022953412, 0.018336872, -0.0044691092, -0.012170317, -0.030110847, -0.004763996, 0.011746882, -0.006468419, 0.025040356, 0.040334247, 0.038592346, 0.1277536, 0.10608764, -0.18819678, -0.12774533, -0.14645933, -0.11581368, -0.110515624, -0.061901554, 0.004479279, -0.014625561, -0.041926596, -0.024584344, -0.037829384, -0.06551091, -0.037418988, -0.02324136, 0.04053204, -0.0056954343, -0.03534382, -0.03688141, 0.021647563, 0.018992988, 0.0038710206, 0.02238586, 0.01864372, 0.015987072, 0.025040573, 0.09617484, 0.14405118, 0.053896654, -0.19205445, -0.16688818, -0.24575871, -0.17831324, -0.14170665, -0.093057826, 0.00029596247, 0.00461258, 0.020760026, -0.03247522, -0.025103847, -0.023984317, 0.0074404515, 0.0053924066, 0.014668469, -0.03893054, -0.0056761885, 0.015857182, -0.017074233, 0.03183695, 0.016487902, 0.04329542, 0.022141384, 0.06714652, 0.070615195, 0.11302084, 0.1652459, 0.00786212, -0.17761451, -0.20305835, -0.29121277, -0.20646623, -0.11526179, -0.07936381, -0.002728299, 0.029391158, 0.022626182, -0.038759585, -0.09132149, -0.02164424, 0.001858977, -0.011955348, -0.012874331, -0.0012149311, -0.0016950677, 0.034142274, 0.0055469377, 0.04702003, 0.0493671, 0.03498812, 0.055789154, 0.051999155, 0.10368407, 0.11451304, 0.14639792, -0.03201379, -0.1398546, -0.20707563, -0.27319726, -0.24517606, -0.13586715, -0.09719126, -0.035717394, 0.015333753, -0.0072605577, -0.040021654, -0.02186643, -0.0020527309, -0.0033449915, -0.042857636, -0.009111818, -0.051541552, 0.049259663, 0.05418581, 0.05359323, 0.02813627, 0.059064332, 0.050196845, 0.034508128, 0.027371958, 0.089345045, 0.120173454, 0.046481118, 0.004818463, -0.07771109, -0.24790429, -0.26040962, -0.2246808, -0.1417617, -0.07690439, -0.032777883, -0.019114964, -0.03755825, -0.022923024, -0.046018384, 0.017149081, 0.011563541, -0.021194698, 0.00021948571, -0.048132, 0.032557584, -0.008632078, 0.0678552, 0.04796698, 0.032247704, 0.064314626, 0.034146518, 0.08579733, 0.044170976, 0.08303171, 0.01531305, -0.039258864, -0.12779787, -0.19424337, -0.21674974, -0.25148106, -0.14213544, -0.047931023, 0.019314682, -0.026716331, -0.03126923, -0.026398737, -0.04010805, -0.0071445038, -0.022470424, -0.028972918, -0.02604455, -0.01237874, 0.01758067, 0.016847385, 0.03538647, 0.045463543, 0.07818157, 0.076707825, 0.017343473, 0.053645827, 0.033700958, 0.025158728, 0.023709483, -0.050918676, -0.0592031, -0.1383356, -0.22452092, -0.2109563, -0.16588171, -0.07933702, -0.062322997, -0.0010894793, 0.008887958, -0.014617457, 0.020621482, -0.0072119613, -0.026848024, 0.010212065, 0.0134859495, 0.010318088, 0.026106529, 0.0034074509, 0.02393659, 0.057016157, 0.085002884, 0.034104496, -0.0070660594, 0.01042958, 0.03364096, 0.018311681, -0.038216114, -0.0849468, -0.08199453, -0.11432013, -0.13552023, -0.1597741, -0.08243153, -0.037626807, -0.0012923352, 0.0066367923, 0.035623994, -0.023730334, 0.0011282914, 0.02020581, 0.016028194, -0.032886617, -0.0160918, 0.0033553606, 0.030151092, 0.037608616, -0.0061012446, 0.074546725, 0.06921433, 0.04331439, 0.062337168, 0.057667885, 0.0035562313, 0.0014838167, -0.052173655, -0.060077753, -0.08100896, -0.06292371, -0.050534587, -0.10176091, -0.0549541, -0.0594726, 0.00061880774, -0.009733263, -0.022313152, -0.00616377, -0.020022921, -0.0073185875, 0.032772142, -0.0009024702, 0.0027559102, -0.016262908, -0.008143997, 0.046488907, -0.008280296, -0.0018409031, 0.05405586, -0.03122567, 0.03914132, -0.014521597, 0.0044040456, 0.005635891, 0.0010324741, -0.020912431, -0.0026408785, -0.015191311, 0.0028796669, -0.048602317, -0.051436793, -0.0025978193, 0.004175428, -0.008884649, 0.010021007, 0.023198364, 0.013922745, -0.008363549, 0.010333922, -0.005727794, 0.03329787, -0.03275168, -0.0174625, 0.044567656, -0.02914407, 0.0014600432, 0.04242773, 0.02708888, 0.035178874, 0.06432047, 0.044012886, 0.065705486, 0.06135335, 0.0404877, 0.0037700427, -0.0013754186, 0.052945364, 0.0015575511, -0.028449364, 0.029838094, 0.0058220476, 0.035732057, 0.0074703326, -0.00291789, 0.0059780846, 0.011324971, -0.032602787, 0.017268833, -0.026991628, -0.009222215, 0.00731189, -0.020522352, -0.008522984, 0.019216914, 0.048289657, -0.0067611937, 0.012709217, 0.037239537, -0.009533886, 0.0117833875, 0.023145843, 0.019353028, 0.011072999, 0.0021369809, -0.027534835, -0.021620465, -0.029176414, 0.02000233, -0.00016578675, -0.03977307, 0.026077528, 0.021504315, -0.03262471, -0.028181063, 0.00252911, 0.008269917, -0.010165315, 0.00998602, -0.027719855, 0.037998274, 0.0055279513, 0.03514831, 0.02936986, 0.012129146, 0.055850077, -0.00030143253, -0.0005584695, -0.0061177565, 0.04216647, -0.00052400614, 0.006122824, 0.008054186, -0.00044726906, -0.01204504, -0.025709763, -0.027267465, -0.009684824, -0.0073381686, 0.018280728, -0.015566158, -0.07109985, -0.01477228, 0.01446682, 0.01820712, 0.027535785, -0.027503481, -0.027952284, 0.021040307, 0.021785606, -0.023645492, -0.039515674, 0.00053150736, -0.010345987, 0.037486404, -0.010133723, 0.00863493, 0.037971854, 0.032660957, 0.013852158, 0.007345159, 0.0066792276, -0.024471026, 0.016675392, 0.009823673, -0.015574097, -0.020525472, 0.009909273, -0.038051035, -0.01797797, -0.009601949, -0.0518708, -0.02257406, -0.031879988, -0.018776432, -0.042248778, 5.3082877e-05, -0.031733483, 0.02625156, -0.009102722, -0.004076724, -0.006496551, 0.030818427, 0.019963145, 0.036767367, 0.029512757, 0.01117113, -0.00038925515, 0.007838586, -0.02596207, 0.03700919, -0.023429766, 0.0040406515, -0.007931036, 0.010240654, -0.012791686, 0.0004285934, 0.011397974, 0.010029354, -0.029624162, -0.02001509, 0.028010432, -0.009752701, -0.01665623, 0.0041575884, -0.029006803, 0.0004211571, 0.016717914, 0.013863972, -0.01882214, -0.023553936, -0.009195192, -0.030409843, -0.0016624928, -0.022266261, -0.038434636, -0.01687038, -0.027178332, -0.005841007, 0.03152871, 0.04423713, 0.0072983145, -0.023068, 0.012784124, -0.04591806, -0.008548971, -0.0029328575, -0.02091869, -0.0063990825, -0.02508339, -0.050486095, -0.06954914, -0.030264396, 0.026335742, 0.0022132243, 0.0032737902, -0.01620626, 8.582161e-05, 0.026492596, 0.0071775704, 0.006965667, -0.010628047, -0.03084206, -0.027396586, 0.005010336, 0.016065257, 0.011172599, 0.015426538, -0.0026860028, -0.0032834653, 0.018895222, -0.038812313, -0.019723043, -0.020261759, 0.027224464, -0.0049177553, 0.010055349, 0.01269054, -0.03538408, -0.044256292, -0.02403826, 0.020679232, -0.029612182, 0.0021381807, 0.013624081, -0.044128496, -0.007585699, -0.005155533, 0.009796473, -0.014352128, -0.0029378517, 0.0053786244, -0.0065907463, 0.024506181, 0.0044323546, 0.018098915, -0.008997325, -0.002186122, 0.0010574203, -0.020385701, 0.0018562472, -0.03403464, -0.050742, -0.021436168, -0.01265182, 0.017762503, 0.013751205, 0.011328309, -0.047745682, -0.03496767, -0.02966476, -0.025403362, 0.0034760057, 0.024775743, -0.011585758, 0.015521518, -0.018923057, -0.027697198, 0.0021926523, -0.017268777, 0.01888392, 0.0053676534, 0.010196102, -0.01667673, -0.008386656, -0.020765398, -0.020220194, -0.000823986, 0.0111865355, -0.013041051, -0.009484999, -0.0038359899, -0.00013397352, 0.0020423387, -0.008843844, -0.03386791, -0.00014745547, -0.017376991, -0.00052148616, 0.0040851315, -0.028046323, -0.029249147, -0.024670152, -0.012493753, -0.011714286, -0.028962698, -0.017450081, -0.005536762, -0.017399956, -0.00318942, 0.0012678109, -0.026872428, -0.025726672, -0.025378468, 0.011708052, -0.007170976, -0.00901278, -0.0013576958, 0.007160754, 0.0010330845, -0.0040045436, 0.023830814, -0.009273901, 0.018084178, 0.0044572083, 0.009388968, -0.0066078077, 0.028770084, -0.012000671, -0.0011743311, -0.0027915984, -0.013473443, -0.032331143, -0.014411259, -0.027705263, -0.0045154816, -0.016467743, -0.01912177, -0.03291766, -0.017379563, -0.032955505, -0.028782167, -0.016854959, 0.016804736, 0.0051271166, -0.025321126, -0.027388608, -0.036671758, -0.035747904, -0.04733019, 0.02359138, 0.036419753, 0.012196873, 0.002523768, 0.032165077, -0.027531298, -0.038311698, -0.0036252947, -0.028864255, -0.033001278, -0.038466368, -0.03322313, -0.026520014, -0.032275412, -0.017255446, -0.040531807, -0.03584257, -0.028670425, -0.021290017, -0.009350323, -0.019174665, 0.004281257, 0.0007128946, 0.028426051, -0.011845756, -0.009979358, -0.028934525, 0.0037808747, 0.010080021, 0.02118593, 0.0025010777, 0.007855483, 0.020267002, -0.02886823, -0.023572383, -0.02797178, -0.030151011, -0.035426926, -0.060262688, -0.039485186, -0.05788356, -0.047136538, -0.051140655, -0.041954592, -0.050125152, -0.025859265, -0.018706309, -0.030649748, 0.0029934673, -0.0004672995, 0.0043065893, -0.006460838, -0.016658308, 0.0108828945, 0.014085517, -0.013298954, 0.0029125954, 0.020209538, 0.08032712, 0.024037294, 0.022916079, -0.00052844157, -0.0005138208, -0.02510295, -0.021882633, -0.020541104, -0.0030950303, -0.040038627, -0.035360496, -0.044770367, -0.026659101, -0.04525558, -0.029915735, -0.035013136, -0.04024417, -0.02710975, 0.0022753968, -0.03043835, 0.0010163668, -0.008138475, 0.016265761, -0.02871385, -0.011255261, -0.022453573, 0.04548242, 0.016562276, 0.00083338405, 0.041732736, -0.004615365, -0.02145855, -0.019754825, 0.0040349383, -0.005766444, -0.014603465, -0.015579567, -0.0023489005, -0.0013304068, -0.03552423, -0.02412596, -0.020147264, -0.029446112, -0.03164417, -0.028546467, -0.011973598, -0.008775867, -0.009930369, 0.015475509, -0.033712644, 0.021939468, 0.021821035, 0.014508616, -0.029068166, -0.0010633835, 0.025856914, 0.017207345, 0.0037814982, 0.019937623, 0.046117943, 0.013382629, 0.037450716, -0.0071068923, 0.043859325, 0.030229561, 0.012189403, 0.019730901, 0.046868596, 0.0002611676, 0.020810172, 0.019791197, -0.0013129452, 0.033875193, 0.013978819, 0.020804148, -0.018685715, 0.024410179, 0.0073260474, 0.032686137, 0.016288793, 0.03496375, -0.0026191429, 0.038845357, 0.034164272, 0.0012434305, 0.04488066, 0.029345876, 0.051904105, 0.029618608, 0.07691482, 0.062206514, 0.06180416, 0.06783964, 0.10807315, 0.11183767, 0.09796258, 0.11497106, 0.11580484, 0.10096216, 0.08715607, 0.088441856, 0.05108728, 0.039755017, 0.047705647, 0.03062249, 0.040550504, 0.03455012, 0.028303707, 0.023526259, -0.019077694, 0.03418536, 0.020087726, 0.02467536, 0.017848715, 0.033957213, 0.030735578, 0.037094407, 0.09241106, 0.07365482, 0.114756696, 0.11220213, 0.0988301, 0.1113187, 0.14187425, 0.11345871, 0.113035336, 0.111868404, 0.12916963, 0.090752296, 0.0759758, 0.057148315, 0.072107054, 0.08089048, 0.0424495, 0.072870776, 0.06755067, 0.014265579, 0.0070112073, 0.0074596545, 0.027742852, 0.025117828, 0.012654459, 0.039904863, 0.07092579, 0.077809684, 0.082132265, 0.061762776, 0.074066564, 0.09081577, 0.068048336, 0.09651728, 0.06067394, 0.08639527, 0.11839714, 0.10293485, 0.09783742, 0.08293684, 0.09171213, 0.07119033, 0.054105308, 0.055783544, 0.037016552, 0.030869141, 0.029218609, -0.0063778996, 0.033431258, 0.016393682, 0.035138626, 0.03531574, 0.024583358, -0.015247844, 0.05614962, 0.041739367, 0.0764431, 0.047467515, 0.030614542, 0.018586796, 0.03892305, 0.021031594, 0.040994175, 0.04079473, 0.08780708, 0.06523695, 0.079011336, 0.05891275, 0.07547012, 0.05522454, 0.07611881, -0.011882758, 0.007285155, 0.02330741, -0.0049084164, -0.014459326, -0.012143086, 0.018138673, 0.047341716, 0.029256893, 0.033027656, 0.0390964, 0.060555566, 0.03117574, 0.014747302, 0.017375506, 0.0045018448, -0.019114047, -0.026920302, -0.0041104094, -0.019990135, 0.00092624116, -0.0026096045, -0.012452992, -0.030455206, 0.029543282, 0.011331007, -0.01064091, 0.0058788266, -0.0026500274, -0.035929285, -0.038319107, 0.027519744, 0.035880618, 0.020938959, -0.0047929683, 0.035559375, 0.0063417153, 0.00094760454, -0.014381018, -0.009277348, -0.006740022, -0.01634401, -0.032435186, -0.05606595, -0.07538765, -0.10500126, -0.10753706, -0.08009599, -0.09594733, -0.07482448, -0.079872385, -0.034730986, -0.078789935, -0.023580277, -0.041452833, -0.11799084, -0.078412384, -0.15827242, -0.07279256, -0.081600524, -0.031347994, 0.012672962, 0.019949444, -0.013738725, -0.018536335, -0.0076328614, -0.057544485, -0.07227772, -0.07948588, -0.09643341, -0.076745726, -0.10921524, -0.13246036, -0.123147, -0.12676014, -0.14623456, -0.17200117, -0.18694647, -0.201042, -0.22658798, -0.19088681, -0.18769942, -0.17113283, -0.19125842, -0.19220962, -0.11358573, -0.1108681, -0.051702674, -0.04646092, -0.020492112, -0.02269544, -0.024091374, -0.020500261, -0.11294073, -0.14638558, -0.15788838, -0.17842951, -0.19362372, -0.20528935, -0.20603685, -0.23609278, -0.24671796, -0.2800475, -0.27270624, -0.29121962, -0.26029164, -0.28558907, -0.27737722, -0.23421971, -0.20642145, -0.21741284, -0.23183945, -0.21325953, -0.17270799, -0.12917998, -0.08540852, -0.037780624, -0.03580424, -0.017843757, -0.041585747, -0.063717134, -0.12916222, -0.18451184, -0.21046287, -0.18272999, -0.2221279, -0.19794233, -0.22623225, -0.22826195, -0.24497737, -0.22545695, -0.24387287, -0.2472042, -0.22935165, -0.22447534, -0.18032922, -0.1523443, -0.17036971, -0.20102368, -0.18841247, -0.13709514, -0.10322082, -0.09079973, -0.03912349, 0.018347042, -0.029088793, 0.0074953665, -0.039612643, -0.06246468, -0.061962403, -0.14485127, -0.16969171, -0.16517346, -0.17098655, -0.1296109, -0.18506967, -0.13603623, -0.12310579, -0.17555304, -0.15580373, -0.16738333, -0.14509073, -0.08117461, -0.13748527, -0.13151656, -0.16276507, -0.15868136, -0.1155925, -0.09123241, -0.08109867, -0.065088406, -0.06037827, -0.012752923, 0.007896751, -0.014373392, -0.006154533, -0.03043326, -0.041989986, -0.03922899, -0.05924742, -0.11589868, -0.09278906, -0.104630016, -0.06834248, -0.06825897, -0.075237855, -0.09196643, -0.07571623, -0.050604846, -0.04801216, -0.07658203, -0.047405723, -0.09582726, -0.120233074, -0.07424467, -0.045936912, -0.058987826, -0.0204025, -0.013128789, -0.025289567, -0.018735863, 0.013350982, -0.024036225, -0.022488154, -0.025361007, 0.0064637633, -0.007913949, -0.023320021, -0.05796749, 0.00079132366, -0.056448933, -0.0412731, -0.040211007, -0.032513022, -0.06920617, -0.026205389, -0.049717586, -0.046078797, 0.008510083, -0.008059423, -0.10911274, -0.03907422, -0.032835413, -0.051063392, -0.0137360105, -0.0018409651, -0.009314785, -0.0056920806, -0.033024833, 0.011675499, -0.010460155, 0.0300826, -0.022556962, -0.005880213, 0.038622748, 0.007470777, -0.030670596, -0.023521388, -0.01708475, -0.0057752174, -0.050801788, -0.025820268, -0.0068819104, -0.0057969233, -0.044052105, -0.015672304, -0.05039858, -0.060956016, 0.015167523, -0.05024141, -0.031127643, 0.019153725, 0.047905073, 0.016021792, -0.010205388, 0.017268153, -0.0035424973, -0.0147791635, -0.015404344, -0.018083151, 0.002473488, 0.013063365, 0.027983345, -0.012126377, -0.032196984, 0.006714599, -0.015404643, -0.047756184, -0.013939275, -0.0034984958, -0.03257291, -0.058902778, -0.07247226, -0.07309352, -0.08942185, -0.040662967, -0.043353897, -0.023375086, -0.015482135, -0.04341564, 0.009100786, -0.059259854, -0.040043876, 0.0065493206, -0.011303847, 0.027862744, 0.021696972, 0.001175162, -0.020007377, 0.03452081, 0.010346101, -0.033416606, -0.043026354, 0.01499122, -0.0014383328, -0.006533464, -0.05395647, -0.020024154, -0.00022328769, -0.037809595, -0.0109822275, -0.012059249, -0.0707795, -0.0027769855, 0.014399824, 0.0071168067, -0.0567814, -0.00068045367, -0.04057637, -0.028522003, 0.0004868955, -0.021418456, 0.032611508, -0.02073051, 0.01128309, 0.007735924, -0.0077027692, 0.030033976, 0.014026666, -0.032250147, -0.04542632, 0.0020173576, -0.054623093, -0.005405897, 0.012612287, 0.017879486, -0.033436313, 0.009191321, 0.0057979277, 0.019998413, -0.005962058, -0.029655583, -0.0003714625, -0.01931756, -0.027375448, 0.008902227, 0.012311315, 0.0047477237, -0.0030745843, 0.022887357, -0.028047515, 0.014155236, 0.013855211, -0.018289043, -0.018760262, 0.021229135, -0.024447717, 0.0013369904, -0.031482942, 0.003680411, -0.02705603, 0.008096164, -0.010895681, 0.011704063, -0.009806594, -0.019975012, 0.026160315, 0.015826985, 0.021155901, -0.025019541, -0.021525266, -0.04226174, -0.012753694, -0.046140846, -0.013244099, -0.013235416, -0.009053504, -0.0022529406, -0.02384624, -0.03356153, -0.050571114, -0.025440779, -0.041572183, 0.0014959563, -0.011474936, -0.02298931, -0.018188624, -0.04166075, -0.001327116, -0.040067073, -0.0026193352, -0.0030879208, 0.0004136685, -0.0019745224, 0.013128035, -0.013722759, -0.012719682, -0.008034102, 0.010763294, -0.03389737, 0.008569677, 0.0059774164, -0.03039261, -0.023818253, 0.018091114, -0.032075204, 0.0008792495, 0.012060556, 0.0106335925, -0.0027664448, -0.017675312, -0.009638861, 0.013252929, -0.0043988815, -0.016948411, -0.018152712, -0.015767578, -0.034489956, 0.006260474, -0.027817056, -0.0027851197, 0.012785184, -0.003907727, -0.01001628, -0.004737435, -0.034411553, -0.0016082731, -0.026240617, 0.016498256, -0.006582021, -0.00696861, -0.008823867, 0.012321262, -0.053244792, -0.018055053, -0.003753813, 0.009653321, -0.012735183, 0.012808437, -0.005742574, -0.043468498, -0.016615104, -0.020189583, -0.03097126, -0.016031463, -0.006595469, -0.044643417, -0.007750016, -0.033753492, -0.0360259, -0.013290116, -0.005623603, 0.0077966903, -0.0048423423, -0.0020791306, -0.010444757, -0.02025965, -0.010713328, -0.027633041, -0.052591957, -0.028053656, -0.0352955, -0.049735017, -0.042328514, 0.007973669, -0.014087629, -0.023244668, -0.027925584, -0.04899033, 0.0072371336, -0.029593034, -0.014106156, -0.021745658, -0.038353425, -0.004310012, -0.013418503, -0.020949531, -0.015353649, -0.0008909505, -0.038548473, 0.012903509, 0.041362677, -0.00048591537, 0.019150417, -0.034931816, -0.0039800354, -0.032134462, -0.00984986, 0.014682325, -0.026454225, 0.017504245, -0.029448839, 0.034329746, -0.025091413, -0.014997474, -0.008515715, -0.01761578, -0.0234092, 0.0011691408, -0.04667631, -0.027340142, -0.013671941, -0.03669099, 0.0019795655, 0.005146187, -0.0136312125, 0.025128616, -0.0045243558, 0.013165405, -0.006289155, -0.008766985, -0.02409006, -0.060048684, -0.07066009, -0.0077054994, -0.039918333, 0.0019199041, 0.03482475, -0.026114563, -0.01121802, -0.032792635, -0.03106895, -0.03235924, -0.03269189, -0.023220148, -0.012942577, 0.017771268, -0.022871636, -0.015162083, -0.028933547, -0.0100059565, 0.0026669381, 0.02228926, 0.0057419105, 0.021424059, -0.012154702, -0.020912293, -0.019741047, -0.046813536, -0.026224658, -0.042866386, -0.014825257, 0.0062365844, 0.02968236, -0.0039410247, 0.0049522924, -0.0282682, -0.007333443, -0.022409553, 0.009255022, -0.028864956, -0.016098352, -0.009537681, -0.035768054, -0.025133789, -0.021677801, 0.0044012195, -0.0031174284, 0.0038251039, -0.00094930513, 0.006593936, 0.0025858574, 0.0013747788, 0.016611699, -0.015719563, -0.041701254, -0.019087086, -0.052736085, -0.041038647, -0.004329458, -0.021683872, -0.024500102, 0.013034582, 0.037506398, -0.063478485, -0.0628666, 0.038035084, 0.024295224, -0.004637911, 0.0014565694, -0.00013117088, -0.050143134, 0.0032958589, -0.026960414, -0.005286777, -0.02528574, -0.004910441, -0.042163674, -0.021926211, -0.010008273, -0.04429469, -0.034982983, -0.018282037, -0.03760312, -0.041563645, -0.027086169, -0.029033827, -0.0018794814, -0.014290968, 0.023696931, 0.014313836, 0.035794266, -0.050066087, 0.0012606669, 0.038432132, -0.015680084, -0.019424452, -0.00400596, -0.033810534, 0.010203067, 0.0054377085, -0.013216769, 0.017777808, 0.013143579, -0.007849665, -0.011797536, -0.022636376, -0.015902946, -0.011558873, -0.029593196, -0.00041930174, -0.025175987, 0.0010802592, -0.017666291, -0.032619562, 0.024971707, 0.03065773, 0.031923767, 0.0021324644, -0.019764204, -0.013722439, -0.005794771, 0.021687815, -0.0194086, -0.011354694, -0.02656821, 0.032141976, 0.023584863, 0.033819407, 0.017255902, 0.002147216, -0.011708539, -0.017811667, 0.00673137, -0.027400881, -0.025288895, -0.0080000395, -0.014832, -0.021827022, -0.0033967018, -0.015458528, 0.005491323, -0.0067310026, -0.010368957, -0.0071727866, 0.017120639, -1.220052e-05, -0.011342563, -0.03404051, -0.033823334, -0.024708105, 0.01920426, 0.04861236, 0.042991422, 0.037318327, 0.025787383, -0.010944021, -0.027054885, 0.005521733, -0.036118902, 0.011549363, -0.016205875, 0.013255482, -0.0010805194, -0.032047063, -0.032472994, -0.04871024, -0.059766542, -0.020091688, 0.0019282883, -0.016173901, -0.014235794, 0.030730909, -0.011492656, 0.017655276, 0.034654222, -0.019777393, -0.055247623, 0.0071850196, 0.054707553, -0.0012073402, 0.044514332, 0.039684337, 0.028035156, 0.005974947, -0.023577187, -0.017818658, -0.0481822, -0.06064016, -0.018550612, -0.009505292, -0.02063869, -0.056419145, -0.066252016, -0.046729513, -0.061032575, -0.051269464, -0.022994244, 0.024950195, 0.029925037, -0.00060047547, 0.043333698, 0.035823215, 0.053226765, 0.0549107, -0.007344839, 0.019756557, 0.012098356, 0.050118558, 0.040535036, 0.06400846, 0.033692736, 0.04628915, 0.053874973, 0.025970353, -4.057298e-05, 0.038166467, -0.0050128596, 0.04637628, 0.01951605, 0.042569984, 0.04097939, 0.052238293, 0.062382054, 0.018014112, 0.06685402, 0.024781203, 0.08291866, 0.04884779, 0.066434205, 0.042582456, 0.009422559, 0.010247079, -0.0020111199, 0.038666405, 0.028263642, 0.062535405, 0.08934844, 0.06391422, 0.05142388, 0.06320392, 0.07135682, 0.14350417, 0.14434603, 0.1327511, 0.16175085, 0.17685771, 0.14068547, 0.173447, 0.18279971, 0.12874329, 0.13303646, 0.08809031, 0.066429004, 0.06308198, 0.062918514, 0.07792776, 0.07840835, 0.05681675, 0.046502724, 0.069682136, -0.0076101837, 0.060524784, 0.043673452, 0.034558494, 0.090919405, 0.080453165, 0.11245803, 0.09991227, 0.125445, 0.09755946, 0.12380044, 0.1248503, 0.1327308, 0.16172141, 0.15908596, 0.124423064, 0.15849614, 0.11008556, 0.08674618, 0.100107186, 0.12015259, 0.0787053, 0.11710575, 0.098918535, 0.0991455, 0.08875964, 0.06494243, 0.037829146, -0.008580107, -0.009809578, 0.06040445, 0.086077034, 0.03134097, 0.09874286, 0.0838891, 0.09308494, 0.08776063, 0.09344634, 0.07051638, 0.052385025, 0.07191067, 0.10319774, 0.108291745, 0.11244964, 0.13057998, 0.11593516, 0.063271366, 0.114146546, 0.10985993, 0.078247204, 0.057253275, 0.06315371, 0.04595488, 0.042664547, 0.05146024, 0.05231898, 0.014434237, 0.025689458, 0.023780346, 0.012459163, 0.052850604, 0.029359346, 0.032466497, 0.050998982, 0.030741038, 0.067799464, 0.012426753, 0.02398508, 0.055497065, 0.05044071, 0.06352298, 0.114955544, 0.11590408, 0.06914437, 0.08538748, 0.07780971, 0.05730776, 0.059907243, 0.09256927, 0.041389413, 0.03658171, 0.030302744, 0.011646366, 0.007175356, -0.039119218, 0.048345044, 0.030129436, 0.012423956, 0.017157078, 0.03649231, 0.010669374, 0.05043654, 0.015707081, 0.030335637, 0.017781807, 0.00096872135, 0.05736678, 0.0057767504, 0.05281233, 0.08055833, 0.08864135, 0.050868377, 0.050678488, 0.054852054, 0.057251204, 0.045636367, 0.05022736, 0.01851755, 0.08719149, 0.0660959, -0.02086449, -0.021076342, -0.008757101, 0.03807798, 0.026492752, 0.021400712, 0.028982505, 0.056837052, -0.01039944, 0.055403978, 0.055108096, 0.012983284, 0.04323127, 0.027789803, 0.03380228, 0.05128464, 0.03451485, 0.08967002, 0.08419302, 0.05600253, 0.03710137, 0.03770375, 0.060164373, 0.019855525, 0.06340533, 0.08087863, -0.0049833925, 0.0041314284, 0.015480107, 0.050492853, 0.021552226, 0.016819492, 0.00507267, -0.03453012, -0.032264672, 0.023001777, -0.0011682065, 0.022142801, 0.013939084, 0.05204801, 0.0447502, -0.009843685, 0.043137033, 0.055874765, 0.014204593, 0.07453676, 0.062043995, 0.013718798, 0.008252188, 0.028939145, 0.0069487737, 0.03681636, 0.0065520233, 0.032151446, 0.05291238, -0.004895002, 0.015060199, -0.025115248, -0.027732393, -0.03517248, 0.053983312, -0.017517794, -0.02195485, 0.02836109, 0.0031129764, 0.03602211, 0.025376773, 0.02661428, -0.024862858, -0.0020681282, 0.005518225, 0.048176747, -0.0005231732, 0.00257407, 0.059600674, 0.03090445, 0.020213157, -0.007851293, -0.0048392485, 0.011183432, 0.0036954444, -0.013904982, -0.018126294, -0.049932074, -0.04050323, 0.02191764, -0.022679687, 0.0003736885, -0.0238282, 0.00112268, 0.02886899, 0.031405505, 0.04917447, 0.040292248, -0.002842279, -0.011115672, 0.018984374, 0.004457166, 0.01825663, 0.0065728556, 0.016334696, 0.048595622, 0.030632412, -0.013577005, 0.048015237, 0.002936984, 0.024074638, 0.019596582, -0.021018257, -0.04544617, -0.03506523, 0.022745935, -0.02998624, -0.019643685, 0.01883376, 0.022443404, -0.0025381884, -0.014781011, 5.3374788e-05, 0.0197405, -0.0072971024, 0.0010465177, 0.014832373, 0.051364463, 0.020604359, -0.009040082, 0.037011858, -0.0068839528, 0.01992971, 0.030135594, 0.0022577634, -0.022441555, 0.0363563, -0.004296277, -0.007048626, -0.037528373, -0.052832317, -0.052205727, -0.018931784, -0.026220052, 0.035591498, -0.021587497, -0.017104546, -0.020545565, -0.034253336, -0.028597206, -0.03237239, 0.008134629, -0.0016176138, -0.02200081, 0.004056669, -0.05002712, 0.0024508452, -0.03913481, -0.0035973561, -0.034536634, -0.051125504, 0.006358873, -0.0019152117, -0.03805436, 0.0146384295, -0.0019735459, -0.011076691, -0.040380217, -0.028165102, -0.03175652, 0.0050515393, -0.009163376, 0.033786837, -0.0054543056, -0.024995077, -0.0077953506, -0.026213061, 0.004467805, -0.009156196, -0.04260405, -0.010447278, -0.007011984, -0.020471262, -0.023187205, -0.017551888, -0.04212706, -0.06364502, -0.054015268, -0.03183894, -0.027596356, -0.0581616, -0.047481474, -0.055892713, -0.0037412038, 0.0021798026, -0.038456194, -0.040385492, -0.024808623, -0.014387867, 0.0037868645, -0.033157304, 0.027697954, -0.00025923923, 0.026217274, 0.023697931, 0.006652854, -0.0012528601, -0.017669013, -0.019694146, -0.05250541, -0.0646007, -0.070905015, -0.052229803, -0.06845294, -0.033729594, -0.04272519, -0.041638132, -0.029988552, -0.057914436, -0.024578845, 0.008220769, -0.035512708, 0.0073834504, -0.028066777, 0.009619798, -0.037353538, -0.014904281, 6.0593356e-05, -0.023059744, -0.012277162, -0.027580177, 0.029309694, 0.008743338, 0.0015634089, -0.021831399, -0.080760926, -0.07787686, -0.07475647, -0.059729233, -0.059952877, -0.10147111, -0.09710121, -0.050254826, -0.07905952, -0.08797673, -0.025059866, -0.016367026, -0.06792132, -0.05789412, -0.018087422, -0.010983883, -0.034953978, -0.038029514, 0.0269624, -0.030878494, -0.006667712, 0.005556019, -0.0318347, 0.0027276538, -0.035141155, 0.028337598, 0.0080868965, -0.02435267, -0.0703021, -0.095575616, -0.13328442, -0.1165874, -0.13984875, -0.10416202, -0.12083631, -0.07632855, -0.114755526, -0.06853776, -0.064556554, -0.077006295, -0.028598135, -0.037879787, -0.07775434, 0.00018590566, -0.015950108, -0.024486573, -0.0007094914, 0.0068534412, 0.0026808463, 0.023632277, -0.019219127, -0.02667116, 0.029019143, -0.0036198867, -0.018604603, -0.05791075, -0.12044289, -0.10409914, -0.10263572, -0.16343334, -0.16778585, -0.112517394, -0.14885785, -0.16658096, -0.154269, -0.103503905, -0.079546824, -0.060435567, -0.07305627, -0.09727088, -0.07333622, -0.057329938, -0.031158907, -0.04389943, -0.048391253, -0.043750767, 0.0173534, -0.008810043, -0.019870304, 0.037763227, -0.0003568258, -0.028815053, -0.025949024, -0.08241209, -0.12517983, -0.113307625, -0.16000824, -0.18294556, -0.1587268, -0.21770553, -0.17970833, -0.21615063, -0.18754832, -0.17834339, -0.15025641, -0.154527, -0.081747524, -0.11757822, -0.039918434, -0.06114584, -0.09140829, -0.06951048, -0.08368452, -0.006134242, 0.011221423, -0.02268262, -0.02319851, 0.00971942, 0.018121444, -0.000107189364, -0.090773106, -0.12323964, -0.09780693, -0.14333826, -0.21944906, -0.2397074, -0.241977, -0.2885956, -0.262242, -0.2626905, -0.28707075, -0.29663134, -0.25760734, -0.21544565, -0.19921358, -0.19435951, -0.16744609, -0.14072539, -0.106397584, -0.06953488, -0.113166586, -0.040805798, -0.015379353, -0.040794056, -0.013958341, -0.0036778632, 0.018114371, -0.042507663, -0.0474, -0.062210944, -0.085340805, -0.08843503, -0.1059267, -0.13663028, -0.14363481, -0.13932127, -0.2007367, -0.26143357, -0.3026687, -0.31100166, -0.32384175, -0.2632232, -0.25098187, -0.28399423, -0.20185655, -0.17783193, -0.14087853, -0.10429238, -0.1593373, -0.08930757, -0.08833712, -0.026970128, -0.020526905, 0.037538175, -0.014272511, -0.0051432718, 0.013393827, 0.019610437, -0.015490154, -0.046038043, -0.020329367, 0.007254798, -0.053705707, -0.052052494, -0.081059106, -0.11887594, -0.13709326, -0.13685903, -0.107684195, -0.15637021, -0.16644695, -0.21734174, -0.25431052, -0.23743701, -0.2049689, -0.17297949, -0.10801205, -0.1210681, -0.056136303, -0.06759599, -0.0075161695, 0.046920836, 0.017599659, 0.0043100384, 0.054967612, 0.012045787, 0.04417715, 0.051450152, 0.05894844, 0.017618801, 0.018932492, 0.010014501, 0.015346687, 0.028689971, 0.0005068397, -0.022522511, -0.041921128, -0.04824254, -0.05738607, -0.09409434, -0.16349904, -0.17219497, -0.13844053, -0.12364394, -0.14072582, -0.10108311, -0.0728232, -0.052549835, -0.01981127, 0.071646206, 0.025365017, 0.052618586, 0.04544269, 0.08355327, 0.039708175, 0.028692435, 0.03995542, 0.024008833, 0.024686191, 0.07739473, 0.092901744, 0.08003538, 0.08448682, 0.03348121, 0.011801727, -0.026778938, -0.032404814, -0.026208565, -0.06731735, -0.09971741, -0.10528766, -0.11006435, -0.10801392, -0.09860477, -0.058845423, -0.05688342, -0.03796501, 0.010507268, 0.00068452774, 0.032355912, 0.08459451, 0.03750174, 0.061222848, 0.051873077, 0.01699724, 0.035701256, 0.027446814, 0.014373174, 0.029764257, 0.0628737, 0.040900555, 0.03305436, 0.016234672, -0.0011012909, -0.0090785315, 0.020773295, -0.015340214, -0.034817833, -0.07523662, -0.09628341, -0.13738072, -0.069783546, -0.04504279, -0.06496918, 0.004903238, 0.06513694, 0.02973717, 0.06170431, 0.00685436, 0.009383846, 0.005920475, -0.008414734, 0.0082038585, -0.009533156, -0.019106787, 0.0050641894, 0.010030842, 0.02313807, 0.02161553, -0.0034456202, -0.020124137, -0.009073637, 0.011711001, 0.049332455, 0.00449771, -0.024994189, -0.0134355705, -0.05657257, -0.09225071, -0.09424243, -0.05867113, -0.020920899, -0.05648479, 0.05295335, -0.025112376, 0.017334647, 0.0047553084, 0.025486734, -0.018038614, -0.0036500301, -0.020605301, 0.001142987, 0.007382798, 0.017996509, 0.041187026, 0.012111719, 0.027614117, 0.024134282, 0.02720243, 0.032934587, 0.021660987, 0.042911768, 0.028072493, 0.028272994, 0.019137884, 0.010010978, -0.07551178, -0.051378027, -0.087304935, -0.016428703, 0.0036637087, -0.019237155, -0.002278692, 0.047316432, -0.025186481, -0.009438026, 0.014492785, 